描述农作物生长阶段、生长状况、品质、产量；满足作物生长的需要的生产保障，例如：农业生产用水 0.42590767 -0.16022103 -0.97035384 -0.6595544 0.99008465 -0.5264495 0.18796352 -1.1534237 -0.7540511 0.30402955 -0.628683 0.53801185 0.82415336 0.13920002 1.2796332 -0.2521127 0.77956766 -0.48940474 0.07798001 -0.057223137 0.24423915 -0.6439452 -0.5254899 0.4292264 -0.20151699 -0.0643064 0.66819084 -1.060817 0.95657694 -0.15160209 -0.4294269 -0.742201 -0.5549114 -0.23879334 1.181011 1.2589006 0.35361448 -0.16055682 1.3727609 0.8407674 0.6570548 -0.15897986 0.013041303 2.1790335 0.6363814 -0.8359651 0.3613521 -0.8431967 -0.13577586 0.5160367 -0.18595663 6.7136893 1.7785121 0.28654605 -0.3034348 0.6812027 0.479878 -0.22062078 0.12812555 -0.033649888 -0.24482584 -0.9642261 1.0444573 0.042286053 0.37240797 0.12141635 0.550052 0.45694497 -0.30390894 -0.024390988 -0.5725715 0.9600759 0.9910974 0.25325447 -0.15064475 0.69091296 -0.10677055 0.14888617 -0.32717258 1.1745733 -0.008386344 -0.64457756 -0.5768124 -0.4496713 -1.1094375 -0.6514075 0.38747332 -3.006907 -0.41431135 1.7267412 -0.7254581 -0.41306454 -0.47712258 -0.13779773 0.1271391 -0.5955947 -0.5205438 -0.13200346 -0.20983492 -2.4240634 -0.39093575 1.5077317 -0.22411822 0.20459047 -1.2272856 -0.07134956 -0.37685785 0.45730945 0.026403293 -0.8382135 -0.47495311 0.21304253 0.63455665 0.37645775 -1.13362 0.9049341 -1.2788482 -0.036133505 -2.1121216 -0.3786816 0.027023822 -0.2570581 -0.6232932 -0.6239047 0.95299053 0.19608825 0.64005834 -0.010493152 0.9786995 -0.9404273 1.1432204 -1.0439087 0.85271627 0.5802292 2.834876 0.31875575 -0.83699304 -0.9445416 0.21772668 0.34739402 0.17326173 0.61135024 0.45252115 0.83301306 2.4992523 0.79326385 0.29086617 0.113558725 -0.5116455 0.8079003 0.6629403 -0.5198406 0.86326355 -1.2926234 0.43187773 -1.5531471 -0.09425927 -0.52785075 -1.6836108 -0.5919964 0.28067008 -0.46747974 0.4358763 0.13210544 0.26385823 -0.4037531 -0.801224 -0.060441043 0.3237006 -0.01499968 -0.26369512 0.5495707 0.39779377 -0.009127662 0.8675262 -0.72626257 -0.5700369 -0.06777936 -0.47662276 -0.95902956 -1.3826696 0.6349873 -0.63063145 -0.23793666 0.043850463 -0.010298714 0.004395239 0.8630948 -1.0992303 0.38767737 -0.5331126 0.9439665 -2.5803092 0.4444356 -0.71551394 -0.35735735 0.26250947 1.3985851 -0.76049584 1.3562876 0.0647989 -1.3687546 0.019172441 -0.33563557 0.06628699 -0.042569086 -0.5210287 -0.2997253 0.9537286 0.35088247 -0.14815432 -0.09898261 -0.2335701 -0.33679777 -0.7539323 0.47987074 1.2908945 -0.72669977 -0.8784138 0.07150384 0.2098932 0.710267 0.4197206 -0.050406516 -0.42013294 0.17239366 -0.434845 -0.15130377 -0.117839634 0.3199044 0.8570847 -0.5353342 -0.32096663 -0.6017596 0.12538245 -0.5547667 1.3428018 0.67098653 1.1043079 0.34094107 0.48657498 1.0590369 1.1217659 0.33045074 -0.4654091 0.48374024 -0.17487967 0.9570151 0.30127957 -0.324107 -0.84801304 0.5014409 0.30232975 -1.0102005 -0.24230672 0.2447199 1.3269068 0.6439959 -1.1970401 0.8267659 -0.5586946 0.25589898 0.45571768 -0.4398905 -0.6974047 -0.5144574 2.5434027 -1.3190717 0.19553748 -0.20307285 -1.1439247 -0.6276832 0.317993 -0.7254532 -1.8564682 -0.794886 -1.1859567 1.1907488 1.9759895 -0.3026046 0.99119604 -0.5387043 -0.46183118 0.009636886 -1.7848309 -0.36521637 0.121055715 1.0064684 0.124045014 -0.32369775 0.37679696 -0.56298107 -1.3359842 0.29107594 2.3131151 0.5068885 -0.0015601218 -0.23787776 -1.0608704 1.9617691 -0.6155659 -0.56419045 0.5216933 1.2148916 -0.8574518 -0.1865973 -0.5755161 -0.44486064 0.12264989 -1.0645484 -0.5414223 0.15507811 -0.31768364 0.1939356 -0.09186548 0.03936783 0.0694769 -0.79177177 -0.192359 -0.68205935 -0.1472859 0.24970959 0.65533864 -0.5785035 0.62076414 0.08734967 0.47781196 -0.58678305 -0.60338104 0.12711126 0.7464925 -0.004778728 -0.4503354 -0.8861907 0.43990678 1.6436794 -0.006430123 0.2907959 -1.3220148 -0.9231747 0.99068016 1.0252606 1.3936772 0.21497375 -0.67145765 0.6723042 0.19957572 -0.32722795 -0.49369365 -0.5297177 -1.0304841 0.77708393 -0.6229721 -0.5480393 -0.6059366 0.08461258 -0.8619703 0.35528788 -0.3704909 0.05397734 -0.24792963 -0.30115148 -0.53039616 -0.89984345 -0.23686907 -0.13228863 -0.31459695 0.30045563 0.56291974 -1.379026 -0.1863921 0.3943251 -0.012951791 -1.6185073 -0.9638751 1.3785528 -0.32642716 0.3205689 1.6439928 0.17737547 0.161508 0.7202437 0.4449582 -3.9410732 0.27405924 0.3550538 -0.5988536 -0.05008938 0.44667262 -0.3532584 -0.3041532 0.24212186 -0.15632622 -0.95521337 1.0505158 -0.25479862 0.44072753 -0.22006503 0.5390447 -0.32276815 -0.23376529 0.39394316 0.48094898 0.04562404 -0.053861745 -2.3785474 0.38661116 -0.16661221 0.8860782 0.15462945 -0.0069820434 0.74464417 0.82833564 0.4433202 0.044900246 0.41494125 -0.18303066 0.6032518 1.0799148 -0.93487823 0.9398505 0.31981492 -0.68451345 -0.32378584 1.4315599 -0.13550691 -0.09677543 0.67045283 -0.5455944 0.59488237 -1.1276362 0.60912925 0.33985835 0.24337834 -0.1776965 0.89080435 -1.278952 0.41726163 -0.07466093 0.05130225 0.92510325 -1.1896696 0.28381416 0.19391875 0.74950844 0.13131604 -0.9023808 0.47168717 -0.71050936 -0.828862 0.18190753 -0.10189517 -0.2967077 0.50344545 -0.2856843 0.37791798 -0.09456506 -1.1445081 -1.1741471 0.59259814 -0.49841666 0.38892084 -0.29369456 -0.067617744 0.23762944 0.3500154 0.38521254 -0.48861042 0.19982383 0.1281164 -1.2664719 -0.31455484 0.9029619 0.13607845 -0.34019613 -0.5350427 0.21162868 0.22597423 -1.1180348 -1.3484662 -0.29409918 0.097742245 2.77313 0.17542264 0.016971745 0.30756313 -0.9339712 -0.3120782 0.6871373 -0.016907394 -0.5938696 -0.038078666 -0.5719465 -0.14016855 -0.070947446 -0.36913234 0.15775652 0.023193564 0.57748723 1.3453479 -0.027717665 -0.22620842 0.3212993 -0.82065207 -0.4247035 0.6476606 1.0993116 -0.6766817 -0.5813751 -0.17348476 1.308323 0.32136288 -0.6461195 0.046422184 1.0955908 -0.11783962 -1.1654545 0.7730225 0.13847551 -0.18521437 -1.376327 -0.4878763 0.13566947 -0.23498456 0.017134799 -0.80746603 0.58079016 -1.1965438 -0.39757618 0.4815007 -0.75165117 -0.60220873 -0.12590483 0.076296136 -0.2776894 -0.07348431 1.9854063 -0.8114604 -0.29434577 -0.34041253 0.056152027 0.70179015 -0.68714917 -1.4284067 -0.8285636 0.118443124 -0.528267 -0.4001438 -0.44612706 0.09249513 -0.22127426 1.3150598 0.3642482 -0.47418025 -0.6093653 1.5549072 -0.68682086 -0.44975433 -0.08118991 -0.24083935 -0.87765026 -0.65791845 -0.49020243 -0.12570874 -0.1952872 0.5653044 -0.8592227 0.34911996 0.10050489 -0.9098475 0.36795005 0.4936126 -0.40495753 0.21256608 0.6354945 -0.48032743 1.3200929 0.41731864 0.8136771 -0.7834655 0.6871829 0.67442775 0.6151424 -0.8313634 -0.5649157 1.097882 -0.12587851 -0.76712096 -0.46492198 0.04266292 0.53464997 0.1250358 -0.8112244 -0.23385634 -0.47625607 -0.6516113 0.41015655 -0.19370422 0.0024865177 0.6861403 -0.564545 0.6005188 1.0005162 -0.018023297 0.109537564 -0.9708284 0.853385 -1.0302391 -1.1648481 -0.2110289 -0.5966546 0.32880193 -0.25396279 0.3141342 -1.2449918 0.95155454 -0.19507952 -0.43217155 0.11464371 0.32878798 -1.1038374 -0.6908158 -0.6800949 -0.60806197 0.23460004 1.512685 -0.15922832 0.9743632 -0.6319386 -0.17105728 -1.13083 -0.44219396 0.5938864 -0.67292595 0.547284 -1.2514296 -0.17551774 0.2677163 0.06725568 0.20058668 0.3619955 -0.75272787 -0.11060052 -0.06333305 -0.33872914 0.27560973 0.19255818 0.46521342 1.0376048 -0.18688603 0.20350206 1.2794259 0.27705568 0.45447356 0.54951 -0.7449166 1.639374 -0.9850149 0.16339013 -0.8113194 -0.062891334 0.26750803 2.1248808 0.8958157 0.5520148 -1.4128764 0.059919022 0.6456794 0.5383371 -0.14703646 0.9678393 0.19392881 -0.20496781 -0.8831588 0.42953295 0.16857177 -1.1808397 -0.53547424 -0.58630294 -0.15246741 -0.1285173 -1.4305726 0.3275179 -0.17892763 0.68202925 -1.2817746 0.20181824 -0.036211178 0.47621337 0.37141907 0.5750377 1.2971722 0.67359924 0.72841656 -0.5944943 0.38431668 -0.42963752 0.48305514 0.020721741 -1.7976409 -0.35863116 0.2735808 -0.5308158 -0.1522047 -1.0697907 0.2082123 1.3595111 0.40821916 0.069027655 0.7372912 0.98226595 -0.44365036 -1.3980049 -1.4166975 -1.137577 0.5501185 -0.47288552 -1.6111217 0.6538074 0.87829995 -0.11242279 -1.3770989 0.60352963 -0.7372297 0.31327227 -0.15069999 -0.4884136 1.5384673 1.0584325 -0.18965447 0.85165775 -0.3231332 -0.19948861 1.2179857 -0.09276605 1.5034451 3.6415977 0.45236376 -0.090566665 0.6243624 -0.062277704 0.14995764 -0.8864622 0.3108706 0.13558364 0.26079524 0.09719636 0.078482196 -0.23899356 0.33484167 -0.78627384 -0.053835794 1.1531638 -0.7645357 -0.34401852 -0.1031172 -1.3867043 -1.5016638 -0.47481757 0.07039487 -0.15908746 0.6554512 0.002429001 0.17331144 0.20679899 0.32797363 -0.38619146 1.3086504
描述天气状况，恶劣天气造成的各类气象灾害如泥石流、洪水、湿渍害等 -0.5470328 -0.068697706 -0.9136275 -0.5687395 1.1490357 -0.022836506 -0.08294414 -0.76119834 -0.37116987 0.84941787 -0.47525898 0.69649225 1.1126095 -0.10500711 1.6465608 -0.22958536 0.5188322 -2.0922592 -0.63432306 0.935756 -0.5698428 -0.9654225 -0.49145243 -0.105478734 0.18293051 -0.23428966 0.8080611 -1.2085009 0.79618067 1.0432357 -0.062792696 -0.5805282 0.2076118 -0.563066 1.7111824 0.45141393 0.4077911 -0.16520914 0.6234729 0.008314133 0.2922062 -0.22002217 -0.40703544 1.4994732 0.3428088 -0.2201154 0.41559023 0.34211165 -0.27331823 0.07819635 -0.42055294 7.7635503 1.9720933 0.07860092 -0.5636469 0.4651431 -0.0074346215 0.07855876 0.6376662 -0.014856156 0.2678184 -0.6141229 1.6026846 0.042847767 0.48615947 -0.2056252 -0.06072339 0.7112107 -0.6361069 -0.1087797 -0.46773174 0.35607618 0.5679272 0.4204778 -1.0601553 1.1722006 0.56055766 0.6087847 0.010850236 1.3529446 0.28668106 -0.54130507 -0.4982757 -0.2720961 -0.85617596 -1.0730641 -0.25403613 -3.1155286 0.12248808 1.142647 -0.6533293 -0.323597 -0.50822574 -0.43964496 0.51540166 -0.3360217 0.12961079 -0.77886343 -0.06974854 -1.9879153 -0.587467 1.3065112 0.36234683 0.44424853 -1.1614088 0.32874215 -0.8125272 -0.21205848 0.24800752 -0.5734451 -0.08091194 -0.14224875 0.038185213 0.42595267 -0.6596599 -0.4553513 -0.8556613 0.110932 -2.9023886 -0.6773457 0.3477377 -0.34551665 -0.91866004 -0.70518696 1.1908566 -0.5326823 0.41602072 0.16670921 0.14030476 -0.6556959 0.5896391 -0.7786074 -0.31593782 -0.20537286 2.5281336 -0.4207701 -0.7788224 -0.6242922 -0.44711664 0.453757 0.14526503 -0.1435796 0.54776263 0.5824343 2.6001391 1.0125331 0.67445207 -0.18619418 0.47420064 -0.32510066 0.15195003 -0.22802088 0.24876857 -0.72992176 -0.74988496 -1.670239 -0.11557487 -0.18237622 -1.0329558 -0.61779696 -0.55935997 0.41462827 0.8703628 -0.25975293 0.06573537 -0.8867138 -0.5739224 -0.12048012 -0.03224224 0.43911085 0.36312383 0.94433737 -0.17539261 -0.28606433 -0.12929101 -0.7386709 -0.7008434 -0.116069034 -1.0613265 -0.68303347 -0.38404065 0.5458591 -0.60587406 0.07917215 -0.45834023 -0.20243531 0.227753 0.8453802 -0.34936044 0.9243392 0.3590252 1.0395708 -3.3308952 -0.2636153 -0.0578556 0.017347835 0.3241062 1.0676041 -0.80264294 1.0852134 -0.41526535 -0.9726047 0.41802868 0.54753816 0.72634774 -0.0169743 -0.68964154 -0.5474627 1.2438388 0.594141 -0.3752271 -0.60813725 -0.3071413 -0.6019541 -0.6531902 0.5059055 1.8094865 -0.17916568 -1.0006404 0.07306697 -0.5167709 0.7951988 -0.05050116 0.101183265 0.3619992 -0.46556744 -0.23157176 0.7013594 0.29686236 -0.25782683 0.5015553 0.42410764 -1.6162417 -0.31092295 -0.10720557 -0.35083735 0.8779678 1.0600331 1.3453033 0.37900046 0.23409228 0.6718602 0.2157237 0.52098787 -0.32929823 0.7691557 -0.22483096 0.9157371 0.513925 -0.30717003 -0.4046114 0.036833808 -0.4155339 -1.3819745 -0.23060049 0.19451906 0.20384182 0.44552124 -1.1803292 0.1429121 0.27973375 -0.23902 0.24117136 -0.20337497 0.91328657 -0.17520097 1.8206825 -1.0237372 -0.1969038 -0.5041786 -0.20754655 -0.19880594 0.8700521 -0.97883886 -1.5828142 0.029976726 -0.7809085 0.89963114 2.6599884 0.07462016 0.34583324 -1.436019 -0.30906045 -0.19465205 -1.7474796 0.015570894 -0.05859303 -0.2751396 0.3882644 -0.4163821 -0.5279543 0.056303967 -0.66976875 0.23017468 2.1214883 0.027323037 0.6206032 -0.3971567 -0.5564916 0.8992411 -0.49752495 -0.064286806 0.88787836 0.63637424 -1.4033067 0.9387192 -0.44873393 -0.32203895 0.9966474 -0.8242749 -0.21453592 0.6350124 0.19630864 -0.020755753 -0.39022753 -1.1554105 0.35564154 -0.23970711 0.035709407 -0.6211627 0.17569447 1.0099032 0.31712487 -0.3294669 0.7177621 0.32724854 -0.03854661 -0.015369102 -0.67453146 -0.4040716 0.15312193 0.09921725 -0.020003099 -0.74781847 0.021594916 0.08239873 -0.13070548 0.62653905 -1.0982325 -0.20605281 0.7161329 0.7710095 1.4694188 -0.4954173 -0.9271967 1.3739676 0.47770232 -0.06601853 -0.5652814 -0.18911876 -0.80862015 0.45588303 -0.2846647 0.12629312 -0.6574515 0.61514306 -0.7640409 0.012401829 1.0664333 0.19704227 -0.12206721 0.5427281 -0.42663014 -0.6538141 -0.011557385 -0.3084255 0.005260244 -0.1188668 0.3668026 -0.67372155 -0.23629737 -0.09950802 0.20147611 -2.3600285 -0.53931457 0.56455016 0.6131369 0.33109796 1.6881437 0.409351 -0.94661164 0.2905301 0.31733748 -4.3167634 0.25753152 0.50791264 -0.04051922 -0.552513 1.0327177 -0.19348742 -0.18483138 0.55534625 -0.56621623 -1.7552365 0.09688196 -0.13572228 0.4156518 -0.01816459 0.35120055 -1.1676209 0.07156043 -0.38015828 0.43284112 -0.27734965 0.39156535 -2.162555 0.058640875 0.3901889 0.69040823 -0.059424326 0.018571995 -0.045315437 0.862252 0.59619176 0.32378203 0.44366705 -0.10351799 -0.71503514 1.5211409 -0.7150729 0.18686661 0.42930466 -1.0841999 -0.10211327 0.9792367 -0.55263877 -0.19633603 0.6007525 -0.8854174 0.94296527 -0.4543728 0.09888333 0.84484273 0.55214226 -0.37589744 0.5755425 -0.54014766 0.7314389 -0.42056987 0.1630325 0.54842615 -0.8714617 0.42936152 -0.27245778 2.1830454 0.6145349 -0.10453308 0.66571057 -0.3093415 -0.84732485 -0.031308092 -0.065216854 -0.23165876 0.44728887 0.17211272 0.19142064 -0.11180866 0.19529273 -1.4823074 1.1933246 0.067077264 -0.81507677 -0.31364888 -0.7496619 0.14618567 0.20804222 0.67010856 -0.47246578 -0.6552733 0.24579975 0.608369 0.29743275 0.8385109 0.17525673 0.2173231 -1.1182779 -0.19995579 0.1251486 -1.1641715 -1.8865631 -0.39594597 -1.2273353 2.4940019 0.41421652 0.059754543 0.50591457 -0.4067225 0.034316555 0.3062058 0.011973277 -1.0657864 0.018686622 -0.14199881 -0.028953582 -0.58361906 -0.6716032 0.83684486 -0.3216282 0.3178362 0.40301055 0.14671555 -0.6686023 0.35835624 -1.0796096 0.1843397 -0.5366893 0.19006252 -0.39505184 0.107907474 0.59033006 0.1362013 0.18218124 -0.750191 0.59347945 0.81586754 0.6134362 -1.1365361 0.46672475 0.2643029 0.13802807 -1.5726156 -0.33659512 0.24855596 -0.60042655 -0.063801534 -1.2225832 0.54029596 -0.12302578 -0.63412297 0.37611312 -0.39975575 -0.035045326 -0.17991525 0.28692758 -1.1441073 0.37500903 2.5212162 -0.6039989 -0.2926293 -0.19096082 0.52965766 0.59952605 -0.43999738 -1.9245498 -0.67348254 -0.6194473 0.0097931735 -0.24564809 0.18587396 -0.1864022 0.075097576 0.31514645 -0.30245927 -0.25793445 -0.442244 0.41497922 -0.16333976 0.5079134 -0.16779271 0.31615105 -0.72541267 -0.2635317 0.7335247 0.52920026 0.005476117 0.29167938 -0.891399 0.35507435 0.12108795 -0.09063281 -0.32470328 0.053881407 -0.0951643 0.19083905 0.4488864 -0.26864165 0.25712743 0.6061394 0.03722526 -0.41067025 2.0645385 1.1049676 0.022049285 -0.7255317 -0.055849433 1.3812187 -0.0022546984 -0.13213348 -0.6816949 -0.21231118 0.64204866 0.5525173 -0.75942755 0.18679267 -0.759174 -0.07214167 0.098492295 -0.7815313 0.6010891 -0.07909322 -0.59925455 0.3275994 0.74477524 0.5021153 0.17819458 -0.7516096 0.9777863 -0.7630091 -0.6792987 0.40162396 -0.049330465 -0.30882066 0.67207503 0.35460323 0.19427472 -0.27431685 -0.21699448 -0.8497807 0.3202417 0.2505635 -1.0070946 -1.034074 0.068983905 -0.43917543 -0.42104053 1.7058257 0.26884925 0.9257498 0.12404394 0.016471952 -0.78471005 -0.5509235 0.39629352 -0.45462582 -0.34079617 -1.1036438 0.35284686 -0.042541027 0.39736095 -0.09677207 0.509326 -0.8452961 0.23181075 -0.39410898 -0.014170654 0.071590886 -0.18663374 0.43014258 0.6562297 0.49591535 0.28092304 1.1284078 0.80313647 0.5388894 -0.478282 0.2044047 0.9376565 0.07802728 0.03972885 -0.7882347 0.20456427 0.2756592 1.0360974 0.5874992 0.8208681 -0.8626146 -0.69939506 0.57701993 0.9403267 -0.92452216 0.14634177 -0.13990682 -0.33289793 -0.06732234 -0.41645074 0.1422238 0.028299516 -0.3630239 -0.4759642 -0.14509492 0.32940254 -1.1378958 0.41627756 0.07234498 0.09102251 -0.70386 0.1919459 -0.67600846 0.296816 0.22338666 -0.84156466 1.44165 -0.04689721 -0.07378136 -1.2151304 -0.7330557 0.8600949 1.2225286 -0.23164102 -0.56896514 -0.60824287 0.5421041 -0.48463455 -0.41917083 -2.2791193 -0.023186117 0.15499598 -0.09361507 -0.05988243 0.68804574 0.84452033 -0.42679864 -0.7767035 -1.1027423 -0.24402195 0.32194924 -0.56254107 -1.3167019 1.2652439 0.9989536 -0.08428318 -0.6635786 0.9664414 0.016568169 0.30856183 -0.42455867 -0.6962867 1.7909139 0.8864635 0.6194195 0.9470345 -0.5053153 -0.45945635 1.2119819 -0.36578393 0.70416284 3.8595896 -0.027245127 0.068142384 0.78202397 -0.5420482 0.50984716 -1.230262 -0.21103646 0.43915784 -0.31924263 0.090233915 -0.26872355 -0.27869928 0.06609918 -0.7051734 -0.48862526 1.1654357 -0.12766123 0.93372566 -1.0493017 -1.8032639 -1.194381 -1.1765774 -0.5099535 -0.10841267 -0.42982385 -0.46236667 -0.360582 0.20048015 -0.16427162 -0.4308156 0.8334181
作物生长的土壤环境，土壤墒情，高湿等 0.34385878 -0.10651168 -0.5144335 -0.46461147 0.84892344 -0.12702645 0.45909244 -1.0249939 -0.253277 1.0822272 -0.46395788 0.5387983 0.6599316 0.17072733 1.3964785 -0.09654117 0.6452502 -0.9111792 -0.6722409 0.1389743 -0.680471 0.005281344 0.15231578 -0.43265808 -0.5660884 -0.21868265 0.1803776 -0.526898 1.335922 0.4211536 0.21118832 -0.8917389 -0.33133227 -0.3137107 -0.010943875 0.16639002 0.45983973 0.46219945 0.4693191 0.78346646 1.028139 -0.9552816 -0.2836417 1.9350023 0.73514485 0.4114264 0.5003051 -0.7251878 -0.60588133 1.0399375 -0.9812585 7.950486 1.6592089 0.8942722 -0.6004576 1.2118198 0.061681792 0.50960064 0.07775396 -1.0339625 0.15304095 -0.59084004 0.7103253 0.16753931 0.5876378 -0.6951649 0.1792627 0.3133162 -0.8203996 -0.23855543 0.01790157 0.8290787 0.92124426 0.062656365 -0.5716701 0.32832888 0.3351955 0.92577535 -0.46003366 0.3568817 0.98977333 -0.58223975 -0.4575733 -0.42092976 -0.9825879 -0.53731966 0.5328742 -3.068933 -0.1244219 0.7695796 -0.6047308 -0.7371934 -0.5789915 -0.7070512 0.45652795 -0.5415766 -0.33528486 -0.5365607 -0.37488836 -2.4641466 -0.81687635 0.63946366 0.24601112 -0.61433506 -1.3480785 0.10196926 0.26083887 -0.3313641 0.23413204 -1.1317494 0.1603146 -0.61760235 -0.4329224 1.1144967 -1.3629684 -0.5159736 -0.8197164 -0.07943905 -2.0301664 -1.0479573 0.29659426 0.11167328 -0.5459292 -0.5577744 0.80868685 -0.8076754 0.36582506 0.16461107 -0.3893113 -0.078538805 1.2565383 0.19864057 0.4908932 0.28767484 2.311408 -0.9821925 -0.01244897 -0.38390306 -0.83695394 0.6325574 -0.68140316 0.27487797 0.47490743 0.4006814 2.0633092 0.54356146 0.00706492 0.39797878 -0.5216815 0.9975989 -0.68642545 0.55581385 1.2653278 -0.6015642 0.29020822 -0.46275324 -0.48683867 -0.2782559 -0.87175226 -0.2611406 0.06833003 0.17999168 -0.32298565 -0.18377331 0.4750555 -0.42134738 -0.6818962 -0.3370397 0.043408334 0.24499945 0.17640148 1.8136513 -0.07520981 -0.34531337 0.68779206 -1.2081709 0.08198756 -1.2141101 -0.55198747 -0.51412284 -0.2578918 -0.16542928 -0.28500727 0.5079978 0.14062253 -0.37073162 -0.52162886 0.9707717 -0.81035185 -0.28528446 0.0539276 1.3539531 -3.1816134 -0.26913947 0.09200406 -0.044221126 0.54163694 -0.0041688457 -0.97405124 0.045344606 -0.19513755 -1.1426215 -0.0008354087 -0.7762811 -0.24118891 0.37904876 0.25353387 -0.31242812 0.80592525 0.7815452 0.23696506 -0.32889557 0.5795767 -0.114024 0.45991197 0.24118306 1.8026296 -0.70165 -0.6682835 -0.6851753 0.14768419 0.8829702 0.13629931 0.33196434 0.19394061 -0.15294418 -0.96505326 0.8480121 0.19329102 0.30720574 0.5484857 -0.5223808 -1.1899228 -0.0079446705 -0.44107163 0.5745948 1.0879078 1.9407705 0.93332875 -0.018082336 0.02684843 0.21952564 0.7347847 -0.21761824 -0.024062734 1.1520277 0.80145687 0.93509823 0.32985702 0.35965687 -0.104741916 -0.081326894 0.6612745 -1.5193505 -0.58573157 0.64802516 0.29113448 0.5121494 -0.43570647 0.42508322 -0.17928442 -0.40552247 0.15104836 -0.4709695 0.6434741 0.2936325 1.8991481 -0.6134574 0.40884793 -0.62021875 0.06264216 -0.19861071 -0.15434164 -0.8929469 -1.8998153 -0.25961018 -0.05441966 -0.29834193 2.2893636 -0.027359158 -0.10406652 -0.8795136 0.23789313 1.0849042 -1.4932741 -0.6182002 -0.2726065 0.7405949 0.061087966 -0.7623048 0.108867496 0.2991303 -0.9396199 -0.2418615 2.1088817 0.09552498 0.7599968 -0.2094554 -0.25948313 1.4625666 -0.762946 -0.89613163 -0.32089314 0.873071 -0.658106 -0.57774687 -0.9218578 -0.043350272 0.58254576 -1.0712861 -0.011715971 0.5871797 -0.61458695 0.13779573 -0.40282738 -0.3302937 0.38022673 -0.25059643 -0.77242994 0.34921077 0.18424983 1.250956 0.76754826 0.3822864 0.48260194 1.0105021 0.49304992 -0.74160933 -1.009494 0.43276203 -0.21425258 -0.24878047 0.22127728 -0.021267809 0.33700547 0.7311812 -0.6867327 0.07851447 -0.884496 -0.15680952 0.35306206 1.1634799 0.87538195 0.112082675 -0.23367126 0.9109136 -0.7051249 0.11222245 -1.2942324 -1.2715068 -1.4608375 0.8686759 -0.49102646 -0.4861092 -1.081914 0.31184554 -0.0057232007 0.3841485 0.1288994 0.55910754 0.3240168 -0.3695511 -0.7318107 -0.968628 -0.60991454 0.11529644 -0.39191008 0.55777085 0.45405355 -0.13166104 -0.46440768 0.7887988 -0.009349272 -1.8958436 -0.7104524 0.21146998 0.40653956 0.94666624 2.0720649 -0.42774308 -0.6200642 -0.18311432 0.014210295 -4.154502 -1.4630983 -0.33837137 -0.19727726 -0.3949077 0.09057626 -0.41885853 -0.48226976 0.07913694 -0.76818967 -1.2885702 0.9120148 0.31060135 0.1835583 -0.033054814 0.47857687 -0.09186517 -0.00076952577 0.64029974 1.3199221 -0.27383837 0.08062202 -1.5265 1.2650397 0.39216235 0.7812183 -0.44407403 -0.2628979 0.23198736 0.3309513 -0.12332187 -0.059842154 1.0597063 0.105006665 -1.0086259 0.6901711 -0.85388744 -0.18971427 0.56119347 -1.6051866 0.062330518 0.6708008 -0.31846514 0.3379425 0.544317 -0.6127721 0.9048977 -0.46219954 1.0512776 0.16076496 0.8510784 -0.3116384 1.1114516 -0.5445057 0.22105998 0.10589486 0.74834114 -0.24343562 -0.31523162 0.33684602 0.5660338 1.7372656 0.9229756 -0.560928 -0.087340385 -0.617645 -0.3804323 0.30683675 -0.18292393 -0.57242876 0.53541833 -0.089107215 -0.40846404 0.5032169 0.0020136908 -1.3526518 0.8326856 -0.37659243 0.007230293 0.5059612 -0.59771967 0.18538195 0.35529464 0.55935276 -0.3296921 0.114136614 0.7132813 -0.19244923 -0.1615009 0.9189525 -0.20593156 -0.1958133 -1.0158514 0.3077944 0.111426525 -1.8162715 -1.1102475 0.2648123 -0.28537092 2.1242878 -0.27745146 0.8668068 0.2220944 -0.46662623 -0.04971111 0.43716145 -0.56231046 -0.93009764 0.18769918 -0.6983082 0.061039142 0.48521155 0.48938188 -0.40051374 -0.16270807 0.12117532 0.17833759 -0.7587492 -0.0874997 0.09014362 -0.08695954 -0.11403554 -0.36706197 0.4268284 -0.8472327 -0.25024062 0.054438412 0.46749756 0.09398423 -0.09458726 0.33594427 1.2043418 -0.1953537 -1.1908954 0.54496104 0.11098932 0.17217721 -1.7057846 -0.45570618 -0.036931537 -0.048455432 -0.63949656 -0.82452786 0.76458013 -0.36671224 -0.24652985 0.19278765 0.019996699 -0.5959665 -0.3980319 0.31743506 -0.9394071 -1.0905688 1.6726784 -0.9888878 -0.1820069 -0.39750862 -0.18956047 0.30915388 -0.76549834 -1.2036561 -0.83720726 -0.30429977 0.61294657 -1.0659498 0.5393429 0.32486188 -0.3222703 0.58835036 -0.30980164 0.04723428 -0.64176756 -0.06499109 -1.0029303 -0.5421672 -0.38040516 0.15449244 0.24930385 -1.3565273 -0.3656019 0.560157 -1.0206199 0.08526197 0.06416728 0.6867024 0.3232174 -1.2113715 -0.030575484 0.51905715 0.108686954 0.5667709 0.89993393 0.85797846 0.9389429 1.2070934 0.23559341 -0.05126547 0.66405535 0.95453435 -0.48302823 -0.8486166 0.7103735 0.006286666 -0.5844858 -0.7784408 -0.34716067 -0.38671696 0.615389 0.1713084 -1.0519795 -0.18207113 0.17821307 -0.008704741 0.5532071 0.058230266 -0.15060166 0.42439586 -0.030202173 0.7110013 0.16864237 -0.51893884 0.16420075 -0.16810755 1.1118174 -0.96298975 -0.19566551 -0.10781298 -0.10081509 0.40565217 0.62508076 -0.5327437 -0.37196076 0.87350345 0.7430679 -0.6802052 -0.37135547 0.4084037 -1.3944284 -1.0660062 -0.16583064 0.38805127 0.1848596 1.064962 0.9843534 0.17077225 -0.040210634 -0.30048585 -0.6650394 -0.20385063 0.07609895 -0.8877055 -0.089670725 -1.6412581 -0.44688618 0.46729445 -0.33986604 -0.9912376 0.34849358 -0.65715563 -0.8386787 -0.5143527 -0.06001205 -0.36911818 0.043721326 0.35704756 1.1391981 0.0026955642 0.81422377 0.70960677 0.14211856 0.36867535 0.23381078 0.32081226 0.83492243 0.3193165 0.009013966 -1.1443775 -1.1014338 0.20567435 1.8725281 0.7200522 0.21693344 0.1727212 0.36798102 0.50578624 -0.18501168 -0.4285392 0.12140441 0.57340604 -0.98110473 -0.15123457 0.007261169 0.34325656 -0.6310497 0.083310306 -0.71945906 0.62314355 0.5116274 -1.5501239 0.4433938 0.49505875 0.58743775 -0.95709544 0.08792846 -1.1409596 0.7027929 0.049212098 -0.30347398 1.2140902 1.1897461 -0.26447082 -0.8555867 0.8223905 -0.5106928 0.6568279 -0.13041651 -1.0392047 -0.56051743 0.6679063 0.036482394 0.9882892 -0.7456339 -0.4007302 0.48263523 0.602333 0.4484694 0.7100713 -0.014762698 -0.57462347 -1.4362692 -0.3048582 -0.78255063 1.398213 -0.37875658 -1.9648758 0.30956376 0.84150505 -0.2013107 -1.1531003 1.0936013 -0.48513412 0.65504724 -0.32496375 -0.4298422 1.6574829 1.0938854 0.11265658 0.15607363 -0.49275938 -0.12933657 1.4800835 -0.78272486 1.6200163 4.18048 0.03445609 -0.42104188 1.1278931 -0.9189638 -0.294969 -1.4940534 -0.01261583 -0.34476295 -0.33793172 -0.3796387 0.053529516 0.38107055 -0.0237519 -0.96345085 0.2288078 0.0144217685 -0.78267443 -0.23962532 -0.37186062 -1.1030642 0.06581342 -0.1124516 0.45401517 0.60258204 0.39137223 -0.12544876 0.11498325 0.12367034 0.62801695 -0.7008379 0.28080747
与农业生产有关的设施。 -0.6122209 0.27990496 -0.25698122 -0.41053694 0.6221465 -0.48873246 0.022006728 -0.18764858 -0.5299706 0.48155135 -0.094204225 0.720348 1.3949784 -0.1642073 1.2470708 -1.1647782 0.9879222 -1.3842058 0.041248657 0.36605635 0.020309076 0.009741627 -0.24446118 -0.031618603 -0.17652066 -0.22217938 0.26702777 -0.34646788 0.7445576 0.6678983 -0.37565348 -0.9950782 -0.791401 0.16380553 1.2293895 0.08960347 -0.25819626 -0.1294509 1.1413155 0.29790556 -0.086247504 0.36408803 -0.13151832 1.9953676 -0.2342394 0.76256424 -0.088942975 -0.16254044 -0.1383693 0.7027183 -0.53349185 8.160032 1.8068681 0.90364337 -0.9411203 0.76563716 0.2560655 0.52810156 0.09461145 -0.6653122 -0.4142556 -0.65376115 0.29058838 0.5951923 0.82405925 0.15222709 -0.034302596 0.96821237 -0.99932176 -0.27142623 -0.37665913 -0.21856984 0.68914807 0.74212193 -0.8988245 0.92226595 0.34531698 -0.14355588 -0.50898904 0.9788572 0.47075713 -0.23605785 -0.4317333 -0.2420268 -0.63846296 -1.6383357 0.37534037 -3.3633497 0.27120757 1.677286 -0.99020094 -0.19842294 -0.06391589 0.300508 -0.2997668 -0.7354586 -0.29776028 -0.5396606 -1.0789094 -3.276742 -0.3775695 1.5858864 0.733905 0.4706613 -1.3799046 -0.017388687 -0.7733644 -0.09553856 -0.15425369 -0.42148745 -0.7159579 -0.24982947 -0.29259336 0.31080735 -1.1825229 -0.29770714 -1.6368977 0.041885756 -3.0420268 0.030865714 0.5325243 -0.0730045 0.13130613 -1.0224447 0.84754366 -0.8924541 0.3631259 0.8688371 0.91833377 -0.3874024 1.0646701 -0.037881646 0.78806156 0.25378716 3.5799205 -0.084505185 -0.46152788 -0.30644155 -1.3990881 0.096580885 -0.5379236 0.09025213 0.5089634 0.3108458 1.8525716 0.6598481 -0.0077758096 -0.13691781 0.36858445 -0.31829745 -0.43354058 -0.52015764 0.564866 -1.1399324 -0.1474774 -2.3029902 0.42650384 -0.06243945 -0.697891 -0.003649809 -0.2444272 -0.47433832 0.822625 0.016724989 -0.14725879 -1.4319003 -0.60642934 0.18002854 -0.15207246 0.09986082 0.1959497 1.1142614 0.46373227 0.14184907 0.2709746 -0.69032764 -0.6658664 -0.68703663 -0.88970506 -0.46839267 -0.81327665 0.11227748 0.007438396 0.20330413 -0.7450381 -0.70109284 -0.41788462 0.64770544 -0.7034392 -0.25273103 -0.600683 1.3815367 -3.428486 -0.26102597 -0.18834993 0.6325172 0.18920216 0.07190003 -0.17542464 0.5855212 -0.67267126 -0.9531546 0.0058544716 -0.27901778 -0.009381148 0.5124345 0.08536268 -0.5562855 1.8050569 0.76669097 -0.6388939 -0.7304777 0.0059615523 -0.023773223 -0.3570657 0.2488931 1.0528251 -0.055603452 -0.11202574 -0.22513984 -0.09476343 0.54520714 -0.16655874 -0.31358737 0.20313966 0.1248997 -0.66278386 0.35637182 -0.49642015 0.0024924576 0.45203486 0.6337615 -0.74204 0.06964011 -0.023396548 -0.24104008 0.67490447 1.2439028 0.10924986 0.077006996 -0.05174405 0.5451791 -0.07116244 0.2556386 -0.010617554 0.5229083 0.53479177 1.2941287 0.58790565 -0.7563508 -0.437162 -0.39138204 -0.0005658306 -1.2418337 -0.09536125 0.5249119 0.89058083 0.16709009 -1.1794751 0.4780553 0.19012514 -0.6026487 0.5363763 0.8229734 0.5381196 0.08316511 2.1760523 -0.61773497 -0.015586361 -0.9254239 -0.5963343 -0.3625583 0.46215367 0.102218404 -2.174083 -0.2576287 -0.36049175 0.69899476 2.4263053 -0.6070263 0.6820586 -0.29054764 -0.5880184 -0.054396868 -1.1082115 0.046635345 0.42836526 0.9568858 -0.17105463 0.016978249 0.43021697 0.2354299 -0.52906394 -0.5864678 1.8961473 0.0877689 0.656839 0.066157825 0.55372757 1.139484 -0.27983853 -0.004038632 0.28272277 1.3357098 -0.35852423 0.23416224 -0.70232034 -0.29120395 0.032834798 -0.5037132 -0.77785957 0.6873099 0.12291188 0.49058336 -0.15629473 -0.37346306 0.05526805 -1.5155027 -0.052235767 0.030839596 -0.29146177 0.86581254 0.5075798 0.04407282 0.4412297 0.15887253 0.13367389 -0.5218948 -0.26850083 0.5245682 0.105532795 -0.4480638 -0.50054467 0.16523176 0.2788568 0.9461671 0.385882 0.77587676 -0.43296692 -0.52735287 0.089998335 0.2855112 1.0633247 0.4599986 0.05866821 -0.003121402 -0.09153333 -0.7455723 -0.09355506 -1.0137209 -1.2486484 1.1444345 -0.598091 -0.18357982 -1.6151431 1.0368811 -0.31386945 0.40814713 0.39659756 0.068675146 0.006504327 0.2691814 -0.65223825 -1.0214612 0.20987834 -0.15302515 -0.21387431 0.035413332 0.12246722 -0.86799836 -0.4901585 0.44001734 0.034256697 -1.2932166 -0.012314872 0.7878984 -0.18680206 0.40856153 1.178413 0.56909007 -0.23978865 0.21292208 -0.31731224 -3.6222315 -0.25474083 0.051685467 0.29007074 0.08345543 0.34257287 -0.2044787 0.3521216 0.31300414 -0.5049006 -1.1980138 1.2798443 0.5285409 0.46606106 0.055730283 0.8299203 -0.80394536 -0.060087785 0.869179 0.8513295 -0.38689527 -0.051970325 -0.9477111 0.7547913 0.2400161 0.23815608 -0.045620948 -0.05404777 0.59100354 0.93500423 -0.5114273 0.016542546 0.9517239 -0.29449403 -0.31371093 0.5815606 -0.506528 0.011811189 0.21404552 -2.2934027 -0.6868452 1.169904 -0.25236303 0.30959263 -0.45166743 -0.3303846 0.34210917 -0.20311317 0.30980158 0.12242834 0.5201454 0.23522407 -0.13421309 -1.792761 0.69621515 -0.28975 0.5812042 0.09341425 -0.68722576 0.054705374 0.0019633695 1.4115237 1.1694245 -0.52046037 0.63123894 -0.27973968 -0.86678386 0.4910541 0.18431804 0.017241871 0.02005288 0.01707942 0.63026226 -0.46949276 0.54129577 -1.4379833 1.513301 0.041127834 0.57645553 -0.3397407 -0.310141 0.7945455 0.6398543 0.49277133 -0.99487394 -0.0060420996 0.056995902 -0.71902436 0.28908974 0.43056512 -0.2425897 -0.52787185 -0.31990805 -0.298576 -0.3154834 -0.47844622 -1.9803857 -0.1483711 -0.80273885 2.28093 0.30690047 0.6888816 0.5715505 -0.48802328 0.1169017 0.4947794 -1.0126356 -1.4319924 -0.69780326 -0.7145432 -0.8062161 0.017514255 -0.5460555 -0.087933615 0.013734728 -0.4171303 0.031431258 -0.33804953 -0.13131765 0.6457314 -0.6372252 -0.5828551 -0.23812361 0.35002714 -0.6309028 -0.4564023 -0.16651152 0.18405886 0.69675696 -0.6853663 0.4832245 1.0555242 0.11195588 -1.412132 0.74627054 -0.3722145 0.20110987 -1.4126215 -0.3168286 0.46349445 -0.64470696 -0.80743694 -0.86023307 0.5759363 -0.08358442 -0.6857629 -0.48820722 -0.17811713 -0.71383953 -0.029592242 -0.50046134 0.1674633 -0.4649439 1.762573 -0.5365979 0.63708615 -0.865772 0.22593257 0.40249747 0.06544335 -0.2938302 -0.588637 -0.5414015 0.22147796 -0.582065 0.22640106 -0.103143364 -0.31305778 0.34389642 0.2660932 -0.17324057 0.11617571 0.51229244 -1.7705058 -0.49231222 0.29289752 -0.452854 0.035429217 -0.967497 0.13785328 -0.04585263 -0.62649405 0.5968319 0.20187435 -0.45249575 -0.004056111 -0.6735034 -0.39798063 0.28982475 -0.081499904 -0.14943695 0.09566032 0.232481 0.8331166 0.68597555 0.57778776 -0.4273303 0.8705576 0.28152347 -0.04952438 -0.9341001 0.15567249 -0.028877188 0.20886503 0.03196219 -0.57664204 0.0687754 0.6194831 -0.15147306 -1.1270695 -0.28401124 0.2805568 0.034625486 0.084723175 -0.6194052 -0.20890123 0.26751107 -0.7569451 0.6450723 0.46978348 0.12195617 0.63878304 0.2325132 1.145467 -0.3778852 -0.31846932 -0.10446056 -0.09718475 0.15269914 0.5891789 -0.14140221 0.34461924 1.0224963 0.015405949 -0.5163687 -0.5064706 0.57311666 -0.7309838 -0.9442228 -0.7329345 -0.13108012 0.26668572 0.63987905 0.7340815 -0.102641344 -0.314583 0.16678411 -0.3550414 0.23799314 -0.12681372 -0.6844609 0.004133042 -1.3088377 0.16528924 0.648934 0.22181478 -0.46109948 0.5108385 -0.7268018 -0.00052226894 -0.9354094 0.14949551 -0.7123431 0.01650703 0.6060758 0.2079132 1.0469947 1.134725 0.26994997 0.48083356 0.36799622 0.8670577 -0.84016573 1.4005525 -1.7787821 -0.58700806 -0.7826425 -0.37657773 -0.37842774 1.4872023 0.924627 1.2266079 -0.9587634 -0.113207094 0.55674976 0.2978396 -1.2208437 -0.05119306 0.11076012 -0.52654785 -0.6831234 -0.72732407 0.61234176 -0.30598903 -0.48817888 -0.65265995 1.0482512 -0.046783336 -1.3502653 0.65018725 -0.2044386 -0.10188871 -0.23878576 0.6913557 -0.7102237 0.41234872 -0.10275221 -0.4372938 0.8883178 0.24178624 0.9460332 -1.2166699 0.5915457 0.13488427 0.9310151 -0.14541253 -1.1653292 0.13181135 0.8032315 -0.3163039 -0.24202728 -1.1263102 0.3378256 0.41325715 0.32706648 -0.20569834 0.4139174 0.513767 0.3464533 -0.93509483 -1.4900634 -0.632909 1.187172 -0.54008704 -2.3353434 0.88742983 0.5147363 0.76256466 -0.91250587 1.416768 0.10343041 0.31613547 0.38856015 0.095967785 1.4388895 0.7911432 -0.16326615 0.41013035 -0.10527423 -0.37176102 2.0177991 -0.004390156 0.84954756 3.5704672 -0.062561765 0.45256203 0.68764967 0.119557306 0.5850496 -1.7866101 -0.0145321265 -0.34083697 -0.20999861 0.14000556 -0.46648288 -0.053533107 -0.4686094 -0.37301967 -0.37793064 1.2629656 -0.3096397 -0.115457475 -0.54469746 -0.8635546 -0.6054303 0.5775371 0.505913 0.78876245 -0.43031427 -0.28386277 0.11499249 0.6361351 0.30908048 0.005084999 0.8930096
农业生产活动，强调人或者机器的参与 0.2866735 -0.7009462 -0.9373158 0.11523956 1.0622841 0.4609936 0.1630257 -1.2203784 -0.73267007 0.45426297 0.3153377 1.0391085 0.6629543 -0.15155597 0.22665606 -0.675635 0.70849997 -0.1925675 0.43048567 0.30914775 -0.5165364 -0.6336167 0.13575959 -0.33312657 -0.021710351 -0.5059047 0.4645101 -0.24261683 0.86928403 -0.9165437 0.082180746 -0.550593 -0.8266332 0.24563429 1.1417881 0.4458071 -0.32627398 -0.21550263 0.7348987 -0.1605295 0.8396862 -1.0836731 -0.27801716 1.5769889 0.4617872 0.84333163 0.7140949 -0.722825 -0.41181612 0.6539378 -0.040065832 8.196426 1.1718153 0.20594929 -0.55629134 0.1794101 0.38794488 -0.041139714 0.012463458 -0.758443 -0.06915612 -0.5787691 0.47029346 0.87588954 1.0468752 0.29487014 0.63657707 0.5996784 -0.3427325 0.00011225045 -0.45553827 -0.08304403 1.820395 0.3678782 -0.44978428 0.32844684 0.3689251 -0.26023614 -0.37966838 0.99822074 0.20995906 -0.40411612 -0.6412552 -0.23804666 -1.6174214 -0.83624244 0.45264223 -2.0836587 0.27787155 1.7862023 -1.1146858 -0.34398833 -0.26507187 0.22789665 -0.23390737 -0.03921579 -0.20743176 -0.07761112 -1.0255975 -1.7332538 -0.30437475 1.1202327 -0.037404813 -0.4382536 -0.7950371 -0.22484267 -0.67003834 0.021355957 -0.43480396 -0.73435485 0.06191245 -0.24428873 0.5063474 0.29722917 -0.91088164 0.31293142 -2.0779066 -0.11862422 -1.0750558 -1.0520834 -0.097017355 0.12093954 0.09820529 -0.46772838 1.0894258 -0.3206565 -0.07137055 0.33673 0.75832653 -1.0374042 1.8783646 -0.72462046 0.9234463 1.050531 2.7846413 -0.07817967 -1.0863615 -1.733891 -0.66809845 0.52814287 0.10216291 1.169797 0.21817687 0.488742 1.8339115 0.7306661 0.43538967 0.17977716 -0.23707452 -0.5751432 0.071586944 -0.9245887 0.7078701 -0.569377 0.21712603 -1.1494831 -0.09589848 -0.30849072 -0.048371032 -1.2820959 -0.10830087 -0.19095162 -0.050424844 1.4336925 0.4491773 -1.4219964 -1.1087408 -0.10456225 0.43230808 0.21924046 0.0016549509 1.29321 0.6088983 -0.01982747 0.6929717 -0.21198668 -1.110074 -1.272488 -1.1528411 -0.5216452 -1.1084067 0.31184506 -1.0094836 -0.76019484 0.38901436 0.04105249 -0.23799905 -0.07357198 -0.7414224 -0.1910688 -0.3118403 0.3772127 -2.4112263 -0.0016878396 -0.22149551 -0.02783914 0.43920806 -0.3047464 -0.0885122 1.1381953 -0.44555816 -1.3065039 -0.081226274 0.2710116 0.9043461 -0.13440554 0.24152741 -1.1118702 0.3313459 0.3069481 -0.49485785 -1.2550726 -0.16508403 0.12307992 -0.5821681 -0.1759156 0.91962546 0.3219316 -1.2411319 -0.033188116 -0.10988336 0.3185289 0.21131046 0.15649305 -0.6989957 -0.20790309 -0.7667746 -0.1620069 0.34602892 0.2971748 -0.5930371 0.6413177 -0.4390054 -0.27018937 0.6944658 -1.2284249 0.8480183 0.88188946 0.56521106 0.8030722 0.42939413 -0.47895858 0.7074585 0.22339313 -0.47139695 0.019724999 0.3761993 1.010984 0.3963025 -0.022231534 -0.88631815 0.41351074 0.19656499 -0.8814337 -0.3308698 0.3723401 0.5801166 0.784863 -0.90302473 1.2033468 -0.32694575 -0.11217072 0.57891804 0.015462875 -0.6859723 -0.5132618 1.7534454 -0.5810742 0.15311751 0.14637439 -0.6259156 -0.3013565 0.8156166 -0.821325 -2.2364495 -0.4123207 -0.86528164 0.5071877 1.9242691 -0.4818331 0.015825689 -0.5141536 0.343475 0.7753277 -1.5744584 -0.12103785 0.21983418 0.45716694 0.039686173 -0.33755088 0.120641135 -1.0124415 -1.0922294 0.15866141 2.0383706 0.61516243 0.71689415 -0.83054435 -0.06366437 1.5768987 -0.9264442 -0.8772108 0.2702858 1.5032275 -1.1958752 -0.33922908 -1.0376253 -0.6764249 0.4362005 -0.38930318 -0.5659341 0.50710344 0.23954397 0.9372706 -0.5963052 -0.46203867 0.6748 -0.5698551 -0.21400416 0.72689635 -1.0230254 0.25145206 0.7080991 0.5511204 1.212492 0.7678042 0.64557165 0.0453946 -0.21785593 0.32158455 0.7298464 -0.48270226 -0.5863497 -0.6510972 0.44067407 1.330203 0.006764423 1.0216365 -0.62136817 -0.73197573 0.705251 1.2832537 1.2895105 -0.23823398 -1.1731194 0.37826884 -0.023303121 -0.63674825 0.12132868 -0.72326607 -1.6457043 0.8664543 -0.585253 -0.22412704 -1.2966472 0.74360716 -0.4527309 0.012459436 0.031638913 -0.34319818 -0.4309373 0.6376321 -1.0597231 -0.5328082 -0.64543784 0.17764845 0.15232204 0.40093553 0.21099374 -0.9203388 -0.3846617 0.8909954 -0.37419555 -1.0214819 -0.5104048 0.87773204 -0.56335634 0.027889974 0.9638961 -0.40872672 -0.20382261 0.52508783 0.26997462 -2.9486146 0.74604774 0.2595451 -0.2623408 1.0316354 0.4921978 -0.5396863 0.020758517 0.013592161 -0.37997591 -0.76830035 0.78949094 0.6362198 0.3123635 -0.26303318 0.7709843 -0.7183452 0.1591467 0.38254008 0.43582433 0.32419422 -0.5185224 -1.2894245 0.42703906 1.0312802 0.67384017 -0.31112355 0.62124056 0.6018121 0.9455191 -0.71252346 0.25265154 0.37704438 0.74075866 -0.1726406 0.5505955 -0.8382685 0.7706158 -0.3684573 -0.9947086 -0.11636729 0.7623793 -0.3196926 0.60082144 0.7670824 -0.27880406 0.34217295 -0.18910627 0.50433993 0.042989425 0.5683403 0.34959263 -0.40314698 -1.5343821 0.8441174 -0.03898278 -0.6465717 0.3476524 -0.6673553 0.2497204 0.17082497 1.1490774 0.57620156 -0.3244312 0.48512194 -0.12395747 -1.1751721 0.7477383 -0.36318898 0.24512407 -0.1241561 0.3143096 -0.16406277 0.41823396 1.3095455 -1.2287211 0.09083529 -0.51443124 0.070383415 0.67266816 0.52647895 0.8135289 1.139387 0.64130986 -0.35558453 -0.6516845 -1.2956669 -1.1195225 0.01898149 0.09046702 0.6222931 0.7166924 -1.0368586 0.3226766 -0.72355247 -0.24767137 -1.8978882 -0.0884949 -0.1362069 2.2605 0.074559465 0.02559501 -0.07358037 -0.4776597 -0.14199984 0.20823829 -0.4661735 -0.61882687 -0.71252507 -0.9003575 -0.50096434 -0.09494558 -1.1102251 -0.17036173 -0.05828248 0.055346712 1.3949872 0.5973961 -0.54399407 0.35712516 -0.3690889 -0.664079 -0.09560908 0.8069261 -0.17981404 -1.3333263 0.41769248 0.8102952 0.40329596 0.6911031 -0.26750052 1.9916797 0.13592924 -1.6563288 0.20053001 -0.831644 0.1424916 -0.4198305 -0.7724418 0.8020216 -0.18078236 -0.19645467 -0.4444531 0.3165929 -0.14769556 0.2776949 -0.89521545 -0.66603595 -0.4313516 -0.1833848 -1.103718 -0.54590213 0.079523906 1.6618266 -0.7539395 0.33928818 -0.16199666 0.114043705 -0.62560236 -0.9789251 -1.6400136 -0.23141806 -0.6128835 -0.91052246 -0.45189324 -0.386991 -0.6620507 0.025559694 0.8841024 0.56862915 -0.21990556 -0.39929745 1.0010443 -0.88589895 -0.48083702 0.57032067 0.57395285 -0.05567196 -0.5773443 0.23104604 -0.79693276 -0.3953254 0.7734513 0.1403529 -0.57875615 -0.26481736 -0.054779656 0.47337332 0.6735822 0.073873 0.26197806 0.69787484 -0.17702194 0.8148148 0.28680518 1.6239108 -0.16159001 1.148698 0.9682524 0.6641455 -1.2674905 -0.032566413 0.39102527 -0.24752644 -0.5867645 0.17179948 0.29709733 0.35805076 0.42514163 -1.0310123 -0.22326319 0.33380756 -0.18380493 0.8180153 0.32349515 -0.09200427 -0.17932136 -0.521673 0.9485649 1.5033537 -0.778959 1.6327113 0.7378684 1.3552839 -0.4013369 -1.3514723 -0.33016157 0.4076492 0.30862793 -0.08745821 -0.42462474 -0.039724544 1.0879089 -0.40551567 -0.52862287 0.018537208 0.038581207 -1.1467153 -0.6655464 -0.6053465 -0.36415526 0.020365201 0.7369264 -0.23323908 0.22072351 -0.66499543 -0.17609255 -0.1760655 0.5195985 -0.009529933 -0.61429584 0.19442596 -1.1348491 0.21198168 -0.024312744 -0.19270468 0.28151113 0.258929 0.1871179 -0.33061114 -0.45689505 -0.30233306 0.5224555 -0.05105324 -0.034439966 -0.41148448 -0.65815526 0.6075289 1.1167423 -0.15152597 0.16393203 1.3879627 -1.5799428 1.5804255 -1.471187 -0.62111807 -0.6404059 -0.3828876 -0.8269482 0.91350955 0.6643581 0.49745774 -0.7237712 0.20661665 0.34550038 0.47508165 0.20211226 0.41528338 -0.66341895 -0.33978993 -0.9794025 -0.21625224 0.26340148 -0.66163456 -1.1110004 -0.74402064 0.60621125 -0.068040475 -1.2830365 1.3021219 -1.0287677 0.7561041 -0.4748628 0.15148886 -0.13258629 0.48080918 -0.7512066 0.60377586 0.23931563 0.62650573 0.36089858 -0.71268165 1.7701697 -0.09274167 0.9186294 0.5928918 -1.1388682 0.19695474 0.6559338 -0.43025175 -0.61034304 -1.3911715 -0.49821842 0.79569745 0.8110034 -1.1961821 -0.041387945 0.75732404 -0.17329004 -1.3042514 -1.082383 -0.7392941 0.9105924 -0.7598223 -1.6460967 1.4576132 0.83648515 0.44941267 -0.81824076 0.06569137 0.806453 -0.2323823 0.25266758 0.24363261 0.67029536 0.6113359 -0.538945 0.21672082 0.005403504 0.32485688 1.0219088 0.17629355 -0.26758915 3.2129521 0.32538393 -0.26085186 -0.08366842 -0.23361734 1.0137458 -0.87272596 0.38190374 -0.53255975 -0.4354043 -0.08005483 -0.3082772 0.1301974 0.08206109 -0.928871 -0.3130394 0.85822445 0.008656226 -0.74929947 -1.0189644 -0.91722786 -1.1803176 0.42389426 0.39594823 0.52720195 0.51869106 -0.74104905 0.19425315 0.5276089 0.44489652 -0.29718673 1.5039835
作物病虫害 0.21505027 0.40048152 -0.61820424 -0.55061585 0.9952109 -0.4568041 -0.16876513 -0.03813775 -0.4828584 0.19735487 0.6542512 -0.37970003 0.9911354 -1.1507703 2.2503676 -0.25498277 0.6326886 -1.9257853 -0.37111583 0.60316 -1.0384315 -0.98468506 -0.2523534 -0.52386653 0.09095107 0.4189536 0.18272439 -0.40057227 1.0475619 0.7021614 0.05199238 -0.43658417 -0.5982845 -0.2509698 0.11461676 -0.0526931 0.4338117 -0.030532375 0.60053277 0.18048358 0.69959027 -0.8987119 -0.025476545 1.2921867 0.57785094 0.44366047 0.24572986 -0.072018825 -0.45340618 0.31714913 -0.15423088 7.6181183 2.2372499 0.7819523 -0.99989814 0.7128878 0.525306 0.21960412 0.5357391 -0.5538901 0.43863118 -0.8802684 0.8124422 0.14037578 0.3642044 -0.26216075 -0.018878166 -0.17468742 -1.0841113 0.17715338 -0.5160924 1.2672904 1.3072966 -0.30212343 -0.8064767 0.29386595 -0.13502446 0.25436997 -0.6702651 1.2024204 0.6402488 -0.379605 0.01602725 0.31043386 0.20193341 -0.7458148 0.2775128 -3.7651563 -0.31445685 0.6536022 -0.2836024 -0.9279498 -0.13237853 0.09670182 0.39309347 0.23981735 -0.3586728 -0.15770617 0.23075108 -2.6944382 -0.7049294 1.2728751 0.16032165 0.018621296 -0.91977614 0.20766355 0.07729295 -0.3673893 0.75637186 -0.028870314 0.10078597 -0.17403182 -0.4031078 0.5687944 -1.6497967 -1.2267011 -1.0265222 -0.38494328 -3.5027099 -0.25182152 0.28605628 0.43157795 -0.82949215 -0.37843502 0.8813031 -0.8963463 0.58584243 -0.12781206 -0.0665955 0.6378124 0.24100432 -0.20327887 -0.5416741 0.6277064 2.048119 -0.35759732 0.06604137 -0.27471796 -1.0207801 0.9497916 -0.6721115 0.19876188 -0.4229711 1.067975 2.2138278 0.77221173 0.37291902 -0.6575684 0.096081056 0.4997907 -0.10043416 -0.39271396 0.6023404 -1.1724818 0.43305308 -1.389873 -0.57813984 -0.7003074 0.05692935 -0.8526659 -0.6358606 -0.18584388 -0.3113139 -0.21368128 0.40169293 -0.9172713 0.21133322 -0.788012 0.25335026 -0.07226776 -0.22240886 1.7742808 0.658179 -0.22000298 -0.06101863 -0.5712999 -0.5417208 -1.0091996 -1.0777125 -0.7946454 -0.92220056 0.029170457 -0.49112922 0.46734518 -1.0618395 -1.5551014 0.15196963 0.36127067 -0.30811152 0.22391385 -0.854602 1.1175872 -3.5607963 0.18122688 0.048687786 -0.6134876 0.20102522 0.18245944 -1.4694248 0.1429236 0.035007212 -1.2396201 0.20442845 -0.057846725 -0.429379 -0.1420926 -0.45998034 -0.062344816 1.5572491 1.4449805 0.23525798 0.22166096 -0.37815583 -0.3401743 -0.6544004 -0.16093968 1.3203202 -0.34829137 0.048167087 -0.22036995 -0.11380094 0.9370309 0.95213306 0.065046445 0.6340186 -0.063159764 -0.7027522 0.5650321 0.065178856 -0.40309864 0.22184977 -1.0207098 -0.46288395 0.49214038 -0.29427636 -0.30883247 0.94595885 1.3794005 0.7077751 0.18026775 -0.27039295 0.030068204 -0.55391335 0.5293689 -0.49645618 0.95930904 0.739838 1.9767538 -0.5734905 0.35267404 -0.22844282 -0.21128829 0.50371933 -0.84356445 -1.3876846 1.1812807 1.027054 0.5911375 -0.67810065 -0.3257048 0.37358972 0.26645824 0.68412495 -0.5376545 -0.38073707 0.42209858 1.9159087 -0.6057661 0.700037 -0.15980904 -0.3046292 0.11193742 0.23831606 -0.36819983 -1.4855018 -0.7956766 -1.0377243 0.32716265 2.0445974 0.39364326 -0.44496107 0.14985472 0.19273719 -0.20918255 -1.1046609 0.42200512 -0.16012755 0.58524716 0.22087899 -1.238189 -0.035933323 0.7251615 -0.43338934 0.17921153 2.0357988 0.028507888 -0.19855368 0.4612483 0.5250423 -0.13748907 0.015317455 -0.64553654 -0.65844506 0.5571425 -0.23774278 0.038024094 0.1832431 -0.679968 -0.013461515 -0.13187261 -0.47168428 -0.016023003 0.36499768 0.23848997 -0.32965952 -0.0794472 -0.48376805 -0.59242433 -0.3535963 -0.1388734 0.50816786 -0.25514418 -0.04757859 0.24459505 0.08159068 0.25511566 0.9822511 -1.2904983 -1.2866092 0.4882211 -0.025358543 -0.044670425 0.7489802 0.31823424 -0.29707423 0.4702208 -0.1954159 0.79654014 -0.5715371 -0.98145837 0.11242601 0.71851313 0.7469202 -0.31760454 -0.562361 0.3441624 -1.3636633 -0.5130765 -0.61167926 -0.6677937 -1.2601535 0.8246288 -0.0781872 0.5187208 -1.4464679 0.8387282 0.5945433 -0.45436126 -0.1741947 0.519581 -0.3938316 0.63128465 0.0003851652 -0.73222584 0.6606437 0.03712352 -0.52312917 -0.29201445 0.30995756 -0.33445784 -0.29765186 1.3898174 0.8432839 -2.0307477 -0.002235031 0.07537384 0.44171402 0.8951406 1.0703764 -0.5694044 -0.17843306 -0.45403543 0.43329298 -3.4370203 -0.5023036 0.13130799 -0.1792361 -0.29610318 0.50825554 -1.0541685 -0.75305897 0.6360449 -0.7663511 -2.2923896 0.7748013 0.35497445 0.66551846 -0.40025616 0.45566478 -0.4997543 0.74346524 0.2815655 1.79182 -0.6695405 0.08862576 -1.5614891 0.6811178 -0.11141815 0.9143139 -0.55799913 -0.3372866 -0.026889987 0.8989308 0.05895353 -0.5095248 0.29486895 0.37598476 -0.9958375 0.23051932 -0.3222582 0.29513085 1.5920262 -1.0163045 0.45380118 1.5041105 -0.14792325 0.36810282 0.47932112 -1.2112308 0.3664392 0.15748644 0.60027254 0.08382352 1.6539953 -0.33867416 0.6901752 -0.8069701 -0.09295374 -0.5469064 -0.1563705 -0.3590452 -0.6952893 -0.4891307 0.18071572 1.4066951 1.5753186 0.33680025 -0.6214963 -0.3044762 -0.24489442 0.32046393 0.20289657 0.40797567 0.526393 0.2694806 0.12613833 0.9124404 -0.40710682 -1.0275645 0.6854498 -0.12624744 0.43754506 0.49083173 0.017303906 0.24411547 -0.08981215 0.23361349 -1.1040704 0.5734452 0.06374542 -0.19523422 0.58499926 0.34915283 -0.008727148 -0.7992502 -0.07740521 0.034130685 0.28848985 -1.1548972 -2.0528822 -0.5534119 -0.1014494 2.5216165 0.35792693 0.047718056 0.43219498 -0.7872414 0.44024438 0.6417975 -0.13234982 -0.577582 -0.19097036 -0.7380183 0.24239212 -0.10003189 -0.8351191 0.5249472 -0.30552447 0.34392002 1.135121 -0.8914602 -0.37989894 0.40442663 -0.12458092 0.7198866 -0.26291695 0.033590406 -0.4092777 -0.21839444 0.66044796 0.9832559 -0.31063008 0.119351216 0.062096227 1.9110163 -0.4942761 -1.3073392 0.13341695 0.19416223 0.42897385 -1.9315317 0.2942717 0.28209034 -0.46916872 -0.36783388 -0.94100666 -0.06821057 -0.55364496 0.5322351 0.033673823 -0.07159828 -0.8525395 -0.30657238 -0.029832989 -0.06196691 -0.16182567 1.7448648 0.10727981 0.2501949 -0.64529043 0.16991581 0.6742794 -0.42181456 -0.47013956 0.21687348 -0.3052811 -0.43885022 -0.89646447 0.2504853 0.25550178 -0.48621023 0.69027364 -0.24840122 0.113270625 -0.5515118 0.17792936 -0.59492964 -0.07229999 -0.51940686 -0.82388175 0.33353224 -0.78967476 0.08714788 -0.024479385 -1.2645644 0.9747083 -0.17909852 -0.21408622 -0.18742505 -1.3417406 0.3874983 -0.067959934 0.123284444 -0.19992734 0.8585505 -0.56188995 0.8424705 0.6826371 0.75120866 0.25109118 1.090528 0.21040657 -0.54869306 -0.8266537 -0.7710695 -0.2589422 -0.6509306 0.13661726 -0.071783155 -0.12354864 0.7983389 0.4328334 -1.3673989 0.67228997 0.2665465 -0.51738834 0.4885031 -0.45661163 -0.86335987 0.20353425 -0.1984261 0.08046077 0.61361074 1.0777698 0.0053536072 -0.20167638 1.4735585 -0.02042856 0.29437482 0.27585497 -0.31386158 -0.058164746 0.723711 -0.1181349 0.4932973 0.7320688 0.4750225 -0.42569277 -0.23142362 0.06471655 -1.0882976 -0.523864 -0.26010177 -0.16207777 0.78688055 1.3461223 0.24231917 -0.584164 0.45232478 0.08463683 -0.7576519 -0.46443498 0.030884951 -0.14011298 0.09692178 -1.6225678 -0.011895169 -0.43492877 -0.051024705 -0.8347882 -0.06363724 -0.7680942 -0.65468943 -0.7037676 -0.22733203 -0.94254106 1.0700275 -0.044363573 1.5487986 -0.61867243 1.5860596 0.5014789 -0.15303329 1.3129042 0.4034022 -0.12707525 1.242912 -0.21954924 0.45601216 -1.2362281 0.24054375 0.123048425 1.5725249 0.4510895 -0.31208444 -0.24350178 0.13562888 0.2587895 -0.03987375 -0.55512184 0.2805397 -0.20013627 0.18492335 -0.57619256 -0.03792384 0.3967585 -0.6357682 -0.15201098 -0.6499847 -0.19583827 1.0644832 -1.5375875 0.30757183 0.3296493 0.032711364 -0.93131113 0.37700093 -1.7511642 0.67854357 0.280723 0.11440407 1.0458325 0.39164823 -0.37251583 -0.41706115 -2.3251014 0.18083733 0.9729707 0.41582048 -0.53798383 -0.43173835 0.39166844 -0.08256796 -0.22196949 -1.3354867 0.22558999 0.20817167 -0.32198364 0.70975584 0.1850508 -0.1750643 -0.7526739 -0.49398276 -0.82595205 -0.41037202 0.67487097 -0.34026816 -1.3242507 0.20818165 0.6663656 0.7979077 -0.8443699 1.0619383 -0.27008092 0.5823754 0.26673335 -0.22582059 1.2925951 0.5626255 -0.010852903 0.50541437 -0.46949598 -0.07630467 1.3313384 -0.043287307 1.196036 3.35728 -0.04292413 0.51882464 0.5855358 0.31053787 0.017855793 -1.943392 0.33555943 0.17738178 -0.02953887 -0.45926857 -0.28560075 -0.37489206 0.21685746 -1.1333028 0.47607636 1.9358685 -0.47845954 0.65054154 0.20787169 -0.6520182 -0.78284305 -0.2600627 -0.021243863 -0.583353 -0.36413604 -0.39923513 0.017325751 0.644541 0.20269442 -0.23738056 0.38126785
描述作物受灾情况，有一定经济损失 -0.802206 -0.27426165 -1.3510032 -0.051367313 0.978728 -0.6390069 0.04623931 -0.9966317 -0.49326065 0.4244603 -0.47405815 -0.60437906 1.0428135 0.37867647 2.2739177 0.051481698 0.7449858 -1.7519532 -1.1152266 1.026762 0.12972593 -0.9157202 -0.61364186 -0.12472654 0.32223946 -0.59596246 0.94059384 -0.951513 1.7022184 0.384692 0.12990248 -0.89850444 -0.63485783 -0.71428895 0.93178725 0.1723919 1.1220471 -1.1145855 0.6192125 0.63474697 0.3550592 -0.18809757 -0.06418772 2.1336865 0.100108646 0.389434 0.26957595 0.52714825 -0.10415247 0.07893123 -0.080134645 7.098824 1.4281064 0.4339971 -0.84157586 0.1022769 0.25706816 -0.09871347 0.29992038 -0.1307871 0.15121707 -0.87155694 1.0008932 0.26578796 0.77564764 -0.23760602 0.54198897 0.43012506 -1.1466374 0.15823261 -0.6388934 1.3744612 0.33260244 0.13205658 -0.522489 1.1205286 0.05440044 -0.05029246 -0.3927656 1.4394457 0.7993197 -0.23567185 -0.50608635 0.110742465 -0.7035839 -0.8501395 -0.30222216 -3.9004686 -0.42419493 0.85589015 -0.31883273 -0.4509126 -0.56987005 -0.6725694 -0.14711392 -0.26082525 -0.59367025 -0.62325776 0.012841102 -1.803748 -0.37485 1.3972193 -0.032447882 0.44599792 -1.4476914 -0.3551553 -1.118784 0.23617795 0.7304004 -0.36059284 0.15947942 0.57370317 -0.08866889 0.025747553 -0.45718306 -0.37036356 -0.58556277 0.27283448 -3.3504207 -0.19770432 0.021070719 0.17214319 -1.9625005 -0.4205401 1.6279262 0.32693172 0.79995775 0.5048698 -0.21724558 -0.81847167 0.74769115 0.32872763 -0.40427798 -0.16721766 2.9544742 0.028817087 -0.71941406 -0.56019866 -0.5578595 -0.1418952 -0.10132578 0.107885726 0.49150234 0.5651952 2.0922906 1.1348318 0.3420994 0.35999662 0.25006238 0.058797777 0.38187954 0.050321862 0.06793184 -0.67366827 -0.16782373 -1.7991595 -0.21532004 -0.38229504 -0.9254513 -0.61775476 -0.22239006 0.5717224 0.649352 0.11237641 0.4997084 -0.99096817 0.016498417 0.224574 0.6615691 0.12842585 0.8076784 0.38946858 0.35591215 0.36095113 -0.21001871 -0.2452923 -0.43885362 -0.1588524 -1.1067477 -0.29184496 -1.107323 0.5502357 -0.62360096 0.34386826 -0.02841615 -0.41500434 -0.35082567 0.72179264 -0.7947975 0.44320476 -0.21663973 0.4770481 -3.1736147 0.102498904 -0.19381206 0.46849883 0.09055909 0.13289061 -1.0878146 1.2748395 -0.2914669 -1.3944659 0.61326957 0.17833501 0.46164498 -0.09606178 -1.2364881 -0.6611543 1.2545438 0.38767722 0.051089287 0.11722286 -1.3284312 -0.85567117 -0.049621478 0.25801784 2.0676231 -0.11515433 -1.0881689 -0.22680302 -0.41679704 0.93856424 0.8485054 -0.6033995 0.45193177 0.20341915 0.4906466 0.5153011 0.26282865 0.24902529 0.45031098 -0.2218797 -1.1715577 -0.26846752 0.09427219 -0.69078696 1.0035534 0.6149173 0.6283628 0.4631082 0.5056019 0.3355057 -0.08656367 0.84659237 -0.1223294 0.4538947 0.4169962 1.0387902 0.5684726 -0.116475254 -0.13772827 -0.52162564 -0.16824152 -1.4402943 -0.29206228 0.7685188 1.1644676 0.4687619 -1.2558835 0.61869454 -0.3126103 -0.2690396 0.6720861 -0.43412715 1.3724211 0.020520613 2.3025641 -0.78892344 0.13321462 -0.2977316 0.16949628 -0.19252159 1.2077489 -0.013420105 -1.5639136 0.022879377 -1.0129125 0.46980608 2.6849632 -0.06656298 0.6438397 -0.4502822 -0.5016681 0.10195689 -0.76276296 0.1551571 -0.116129026 0.30348966 0.4378793 -0.3938451 -0.26477206 -0.050601553 -0.6371896 0.08637825 1.9906273 -0.21183647 0.27398887 -0.48427564 -0.84598374 1.1816169 -0.40934423 -0.6234349 0.03680852 0.21860383 -0.61500424 0.6055858 -0.6272738 -0.983942 0.6806557 -0.5632066 0.05490143 0.37181103 -0.31145245 0.03676691 0.14105672 -0.15745151 -0.22736236 -0.46806246 -0.014877096 -1.0787896 0.007650651 1.1937106 0.34229898 -0.33978307 0.7746154 -0.06635097 0.21649842 0.109483674 -0.8372474 -0.380548 0.037439004 -0.58590144 -0.21766466 -0.07678766 -0.040142518 -0.451869 -0.08638618 0.33388722 -1.1405873 0.20759372 0.042631198 0.20053366 0.8369303 -0.4548155 -0.7635521 0.58341134 -0.42927623 -0.9834033 0.4686733 -0.88586515 -0.5289631 0.84855664 -0.39381385 -0.11527072 -1.1079882 0.81867063 -0.19274095 -0.084387854 0.3437589 0.23108105 -0.28900242 0.44692573 -0.28998005 -0.8424482 0.11380305 -0.51376915 -0.65214705 0.06905999 0.55286646 -0.58193624 0.0042272285 -0.022196695 -0.48398337 -2.7699935 -0.14644451 0.31578603 0.0189543 0.3487212 1.4254279 -0.300543 -0.24370587 0.16429551 0.74418426 -4.278461 -0.041037157 0.32913634 -0.16420266 0.073898196 0.62826204 0.14377178 0.697248 0.16147743 -0.6116047 -1.6832455 0.46821862 -0.73252314 -0.08184331 0.2122611 0.39503884 -0.603153 0.5115735 -0.07850087 1.0464406 -0.5873692 -0.29762092 -1.7901984 0.81952363 -0.4028963 0.94786334 0.0058525056 -0.004519485 0.40414667 1.2031888 0.10770009 -0.1578235 0.34111923 0.41969964 -0.12681854 0.89268774 -0.13481984 0.07085774 0.6556338 -1.4782991 0.5666868 1.1464955 -0.8502946 0.7445331 0.7895508 -1.2186711 0.1439125 0.521499 0.33638772 0.59535444 1.3062668 0.15457644 0.36356145 -0.73090017 0.6378269 -0.42205504 0.070345625 0.71662426 -1.0794508 0.29982352 -0.2565482 1.2508967 0.77116716 -0.21342024 0.049189538 -0.9124163 -1.5253614 0.06501634 -0.02957736 0.6285042 0.4300065 0.1836473 -0.07775058 0.08237842 0.13768709 -1.5784647 0.82334745 -0.090069756 -0.30960917 0.04796323 -0.4595268 0.1481383 0.22758164 0.70521355 -0.3692852 -0.24430647 -0.33812696 0.11865385 0.43390486 0.47539774 -0.123816535 -0.012384046 -0.49009046 -0.49412802 -0.5952527 -1.3389344 -2.2330813 -0.35722506 -0.8294194 2.578656 0.062698916 -0.10048719 0.4754753 -0.30582178 0.42120034 0.80150616 0.050713092 -1.034517 -0.29261714 -1.0228558 0.05836284 0.019028805 -0.89239 0.8901617 -0.46798602 -0.13099243 0.9112547 -0.40137306 -0.38334775 0.59779143 -0.70058286 -0.68028927 0.22321317 0.5549693 -0.2869867 -0.032612346 -0.04390175 0.28946683 0.20066643 -0.029112503 -0.21166977 0.97810686 -0.14533307 -1.6003493 0.23141639 0.17559615 -0.19153798 -1.7707181 0.17248498 0.576071 -0.08839835 0.26352435 -0.7227671 0.26172468 -0.32775024 0.29043418 0.35200435 -0.052822687 -0.27530512 -0.61934316 -0.26365167 -0.45187747 0.44847864 2.0130875 -0.13481393 0.056389004 -0.040799245 0.10074296 0.9804178 -0.26945308 -1.6520809 -0.70988804 -0.32586724 -0.60978174 -0.59300905 -0.019537777 0.38284624 0.5878375 0.9713915 0.16653001 -0.61427826 -0.56206644 0.39337462 -0.32739055 0.30962962 -0.094427176 -0.06763019 -0.8438159 -0.57637095 0.40019298 0.733741 -0.43426448 0.33434343 -1.0716659 0.4197957 -0.24279666 -1.0570638 -0.50897264 0.17274421 -0.11661494 0.61416554 1.074367 -0.42998278 1.3057618 0.27341306 0.4144172 0.43161848 1.3507073 0.81136405 0.3477654 -1.1904333 -0.27287203 0.8074964 -0.7454947 0.35742792 -0.021329189 0.06186235 0.32901055 0.33520117 -0.9056376 0.24975012 -0.3038897 -0.5867437 0.42286313 -0.8883294 -0.37658998 0.5685433 -0.32484043 0.326263 0.927492 0.49339253 0.29806387 -0.63612884 1.834976 -0.56728756 -0.47418284 0.40605038 -0.57071847 -0.23861939 0.5807995 0.2026207 -0.17846087 0.4786845 0.56073946 -1.5510161 0.10563033 -0.21352383 -0.8409897 -0.6514033 0.19520566 -0.41590485 -0.088548586 0.9337513 0.23445319 0.8515867 -0.031543925 -0.19204432 -0.5383899 0.080024734 0.57208633 -0.31630847 -0.32699797 -1.3459957 -0.13057044 -0.5216487 0.0642771 -0.750616 0.5312369 -0.40047765 0.29698545 -0.28389215 0.4510728 0.26606557 -0.90371656 0.28258133 0.9703359 0.09541105 0.66601443 0.4371973 0.19461352 1.0023669 0.01839608 -0.08578409 0.6663865 -0.8255929 -0.885079 -1.021605 0.35602406 0.24854589 0.5603835 1.180926 0.8945608 -0.63745356 -0.3381962 0.025552168 0.22348526 -0.7401023 -0.06903529 -0.01208126 -0.36724645 -0.62650645 -0.56861764 0.4117959 -0.3417315 -0.44312868 0.0601622 -0.05848975 0.45804408 -1.3554381 0.34472334 -0.6669815 -0.20719682 -0.39990836 -0.40003747 -0.4615604 -0.053646322 0.5445181 -0.49825993 0.9321003 0.43233606 -0.034605302 -0.7237738 -2.1623883 0.31668478 0.83882374 0.40578818 -0.9384258 -0.5390525 0.44612056 0.3230251 -0.86102396 -1.7904903 0.30491358 -0.1391947 -0.14686768 0.2591259 0.44995546 0.088619 0.112234816 -0.83450496 -0.93599194 0.17792788 0.35689425 0.046989802 -2.3422112 0.7513585 0.2182488 0.41892368 -0.5009893 1.5019764 0.29112965 0.345143 -0.5161178 -0.95773727 1.2751507 0.75696087 0.4348019 0.65919983 -0.29026327 0.14619246 1.6305994 0.13888359 1.481888 4.186194 -0.44294986 -0.249636 0.46020937 0.012490898 0.5291425 -1.8645902 -0.014189132 0.68046653 -0.34838167 -0.16116267 -0.04020355 -0.51133037 0.5355084 -0.20093463 -0.16619197 1.745782 0.11279946 0.93343675 -0.596483 -1.0011508 -1.0401279 -0.6586534 0.1012214 -0.30347273 -0.8582883 -0.088104576 -0.4050035 0.5282295 0.6955248 -0.4348475 0.6874589
作物病虫害发生发展 -0.015932474 0.49859032 -0.5838063 0.13876988 0.85721123 0.37228787 -0.12378734 -1.050753 0.15689063 0.12863074 0.48307997 0.25905514 0.4455685 -0.50985837 1.6096311 -0.5560297 0.6513367 -1.9849073 -1.1174613 0.56174594 -1.2908577 -0.58496726 0.2344121 -0.7033851 -0.7439176 -0.4559289 0.5830271 -0.11329615 0.066523954 0.076235935 -0.39988384 -0.72227293 -0.07806664 -0.2674966 0.33050153 -0.40059245 0.93149096 0.12316716 0.46463215 0.064037815 0.49368465 -0.9677746 -0.8237913 1.5285906 0.8537542 0.32556245 0.71303797 -0.382265 -0.5338902 0.13516912 -0.7018784 8.66235 1.5846426 0.44828916 -1.0868185 0.13126555 0.10522461 0.002193682 0.48792967 -0.103323705 0.44652808 -0.75115407 0.67424184 0.66590244 0.5443043 -0.01770217 -0.06685622 0.52272546 -0.7345403 0.6562071 -0.54979056 0.7358604 1.3448383 -0.4332473 -1.0635526 -0.1381499 0.19526222 0.0022537485 -0.18721944 0.47516465 0.72491467 -0.74312437 -0.35390404 0.068494454 -1.4124923 -0.24033031 0.25727713 -3.1821203 -0.31217396 0.95289034 -0.6888389 -0.78370386 -0.6047566 -0.033700883 0.16612121 0.2611221 -0.14725494 -0.47209018 0.2955308 -1.9418724 -1.0654533 0.9914848 0.46637648 0.053833783 -1.694047 0.35272205 0.032601506 -0.6174766 0.21427189 0.37460506 0.062299978 -0.21249047 0.037225436 0.5879883 -1.4159617 -0.5605514 -1.2818623 0.038990982 -2.8997042 -0.24563353 0.83820736 0.34054905 -0.4351658 -0.5795237 0.4217856 -0.8986432 0.354533 -0.24303223 -0.04494395 -0.5489576 0.8380313 -0.40125945 -0.048655577 1.0292293 2.358141 -0.26941675 -0.14950918 -0.3879254 -1.3516803 0.2808872 -0.87975717 -0.07974505 -0.7243939 1.1473092 2.483792 -0.33359712 0.48091897 -0.19326083 0.11107982 0.5688405 -0.36247382 -0.10876026 1.0187845 -1.4741282 0.8381604 -1.5568256 -0.4881479 -0.18161854 0.22855231 -0.5995858 -1.0334088 -0.4856985 -0.09733969 0.34570986 0.19065888 -0.84903115 -0.6677302 -0.7900716 0.05539529 -0.0486015 0.42019516 1.6879213 0.86687756 -0.103260815 0.08113831 -0.4574784 -0.34506166 -1.6854835 -1.2404267 -1.0573245 -0.4135547 0.05921703 -0.3021011 0.68348366 0.117231876 -1.2741528 0.47164539 0.7210892 -0.5231327 -0.05843249 -1.1080213 0.839472 -3.3192635 0.21466805 -0.36055374 0.031808224 0.41072968 0.50817287 -1.1607678 -0.22539097 0.17447013 -2.087322 0.47932398 -0.31254795 0.21019495 0.027334653 -0.56301415 -0.15534262 0.8029935 1.3604428 -0.005964279 -0.13293853 -0.4313388 -0.29435122 -0.15097982 -0.50911134 1.6411533 -0.5442375 -0.21020038 -0.579183 -0.0325334 0.6679557 0.8831676 -0.06306477 0.5310504 0.1901335 -0.34739456 0.37959808 -0.113517225 0.008762896 0.43486816 -0.38887775 -0.05527393 0.20795427 0.073717825 -0.6314373 1.0067189 1.5048633 0.62439525 -0.1047785 0.30050305 0.49405012 0.31649512 0.28029102 0.06397685 0.30083707 0.6307988 1.4116317 -0.77266085 0.14396077 0.14393386 -0.24331608 0.2579429 -0.77897495 -1.7218118 1.0319037 0.8460443 0.52084637 -0.72225887 0.43279585 0.2689429 -0.06330094 0.30454332 -0.15966655 0.32364404 0.2201045 1.5349423 -0.08477295 0.365664 0.403801 -1.0597446 0.32617873 0.08404951 -1.1683812 -2.0535967 -0.9483247 -0.6703877 0.32407516 1.6806799 -0.0213091 -0.5170083 0.05792369 0.23528257 -0.012921393 -0.39517966 0.20682853 -0.0379962 1.1457177 0.2270954 -0.5616523 -0.6571581 0.48318705 -0.43872544 -0.23524405 1.483576 0.13129732 0.47362062 -0.31853762 -0.00025022775 0.3798396 -0.620931 -0.08136074 -0.4628674 0.4939041 -0.5318984 -0.077049755 -0.0022893623 -0.69851786 0.3463049 0.27835494 -0.35396546 -0.26442742 0.16010776 0.076509416 -0.55359495 -0.35165265 -0.5440843 -0.24990702 0.34172705 0.048795227 -0.13848315 0.5122554 0.7410155 0.7807976 0.24986915 0.5767019 0.40177822 -0.913711 -0.8719951 0.5205121 -0.100034595 0.12208437 0.46069336 0.05374851 -0.11940565 0.0379733 -0.19741619 0.45242965 -0.579959 -0.80604804 0.672655 0.7644361 1.4759388 -0.06511542 -0.52507883 0.859232 -0.95295775 0.13298325 0.276814 -1.0274776 -1.2623312 1.0998402 -0.17763065 0.4955059 -1.3649594 1.3593049 0.3478736 -0.8652445 -0.008869022 0.1825449 -0.3677296 0.59346247 0.040942736 -0.97099483 0.5297487 0.7848691 -0.05731578 -0.31391388 0.50602734 -0.052298192 0.13617258 1.2166613 -0.051240087 -1.7171484 -0.011161798 0.32917717 0.62322867 0.86243194 1.0404161 -0.5765137 -0.4386176 -0.10817455 0.05637786 -4.0782948 -0.966081 -0.03819843 0.08774249 -1.031131 0.31709278 -0.6686005 -0.18968576 0.34875524 -0.06729434 -1.622594 0.108739145 1.2606078 0.31015503 -0.12119253 -0.048938327 -0.22605647 0.64978516 0.62107265 1.5900497 -0.85661525 0.17362022 -0.52144545 0.5989607 0.978507 0.8125529 -0.0074711144 0.118207954 0.45692068 1.0186379 0.59782517 -0.5817147 0.71268684 0.22864783 -0.18081029 0.74265784 -0.77556145 0.48820928 1.2926598 -1.1289049 0.635584 1.5100386 -0.6019342 0.45950812 0.04398945 -1.6864165 0.5149667 -0.21689653 0.48341933 -0.39071023 2.0285404 -0.42137238 0.30526224 -0.68482244 -0.10773462 -0.3718376 0.10738252 0.28040844 -1.2933761 -0.5661816 0.25333834 1.4540012 1.1000717 -0.3583165 0.30689523 -0.7224835 -0.35813186 0.5495302 -0.034619316 0.51173276 0.29059267 0.67679113 -0.39985174 0.34091353 0.27733102 -0.92904323 0.5570175 -0.13170551 0.21342824 -0.13508028 0.46325704 0.5620172 0.7146395 0.3986535 -0.32071906 0.29992148 -0.09805815 -0.5484341 0.019608714 1.564714 -0.07633461 -0.30346274 -0.73185676 0.083773606 0.6989563 -1.0545826 -1.7265203 0.4503941 0.09250731 1.9527327 -0.14183262 0.119853385 0.48577166 -0.5589139 -0.12619816 0.6041436 -0.52628946 -0.91370606 -0.052235667 -0.70639706 -0.79840595 0.05417642 -0.10985181 0.06371669 0.26025844 -0.050939776 1.0625031 -0.9287938 -0.01831463 0.16729948 -0.54792637 0.01538365 -0.24858244 0.23296034 -0.46748883 -0.6765237 0.45048675 0.95368284 0.17744285 -0.051979084 -0.281519 1.3435843 -0.7050086 -1.182925 0.58086 -0.06474578 0.2746312 -1.7632052 -0.05298575 -0.19051167 0.2690571 -0.41722316 -1.0316063 0.06636934 -0.098308794 0.028256625 -0.41212165 0.2890901 -0.39784798 0.05811438 0.10698557 -0.14060657 -0.3420598 1.7827955 -0.46302438 0.39348876 -0.44199777 0.28103122 0.42155197 -1.0003893 -0.36834753 -0.38903 0.30924797 -0.02996194 -0.5065594 -0.062497176 0.13631193 -0.9046213 0.84731174 -1.031585 -0.2256751 0.1379556 0.24529155 -0.4172627 -0.17791528 -0.21319893 -0.26315388 0.104542986 -1.0320842 -0.20572877 0.46338677 -0.6960174 1.3536685 0.30760035 0.02912514 -0.075596884 -0.728599 -0.11928456 -0.26430684 0.576436 0.11502585 1.0783359 -0.4514656 1.0145868 1.1152959 0.72071993 -0.037313275 1.600609 0.72283316 -0.14999016 -0.6502012 -0.6488881 0.3416946 -0.851379 -0.92867005 0.45938167 0.6835953 0.17951794 0.10085048 -0.79675066 0.37456143 0.1609978 -1.1802251 1.2440689 -0.3526922 -0.39793894 -0.1896071 -0.54677415 -0.3293978 0.99369985 0.459733 -0.2029759 0.032946646 0.89533633 0.22349454 0.76452655 0.026435051 0.08507138 -0.039569966 0.9022858 -0.1399164 -0.48429558 0.8037392 0.08858533 -0.4936435 -0.12404481 -0.7113943 -1.0881053 -0.65842694 0.10648536 -0.44864357 0.5549428 1.7865872 0.08982128 -0.24215409 -0.14861447 -0.48298913 -0.3968337 -0.3708174 0.115051046 -0.49337515 -0.17487454 -1.2446358 0.3018895 -0.8632739 -0.13416363 -0.69009274 0.6290931 -0.13224423 -0.42328167 -1.022929 0.42265713 -0.37435648 0.47529292 -0.48407865 0.65358835 -0.34648144 1.229817 1.1461915 -0.18456647 0.6715225 0.89772564 -0.62820244 0.83444524 0.1659922 -0.060295776 -1.0163766 -0.07222861 -0.5946255 1.6495314 1.2169722 0.007972926 -0.18568061 0.09715301 -0.21697009 0.261152 -0.92591286 0.28506732 -0.52229 0.079397924 -0.6377502 -0.7306364 -0.16412681 -0.6115568 -0.66547287 -1.0772766 0.27400422 0.54222494 -1.767318 0.95001745 0.2326388 0.18166241 -0.80139416 0.19159058 -1.1042203 1.0756199 -0.03866511 0.32553366 0.7352376 0.10483504 -0.17857382 -0.8397152 -1.3740927 -0.23716828 0.7093391 0.2757997 -0.5406011 0.06473024 0.13620782 -0.7675367 0.30557212 -0.8168499 -0.4236833 0.09963545 -0.3249535 -0.10632639 0.5910612 -0.13451132 -0.57474756 -1.1421885 -1.009527 -0.176965 0.91652787 -0.8412135 -1.5402417 0.33341998 0.18820919 0.47724715 -1.0134033 0.662843 0.20187753 0.11077092 -0.11344626 0.093982935 1.2806276 0.4964496 -0.6025051 0.21627736 0.1707526 0.12319995 1.7026275 -0.12524754 0.84268093 3.2717123 0.022496767 0.27013776 0.17704564 -0.04410276 0.38142645 -2.009533 0.019188143 0.23300081 0.38912028 -0.15583262 -0.14569747 -0.044727862 0.26472014 -0.8110735 0.7345632 1.6967742 -0.15018927 -0.89766353 -0.23565282 -1.0044093 -0.23693393 0.5013308 0.58788407 -0.044162724 -0.23192586 -0.36937526 0.06911287 0.26968586 0.1177223 -0.6936719 0.40815958
加强病虫害的监测与防治 0.43203777 0.10611181 -0.5462911 0.124864124 0.7355025 0.59639025 0.22560138 -0.4035892 0.26208943 -0.2370297 0.074810654 -0.5126317 0.16555719 -0.70928687 1.5568514 0.2693623 1.3116274 -1.326139 0.3560725 0.84446025 -0.7594152 -1.3110937 0.37123632 -0.54621524 -0.012150627 -0.009154744 0.22230965 -0.6664824 0.11381156 0.07786946 -0.74363804 -0.8816365 -0.566926 0.20492327 0.37161982 -0.7405537 -0.59214586 -0.6116116 0.39437926 -0.462249 0.45360738 -0.2838082 -0.25705713 1.9854921 1.3139712 -0.29695466 0.5630075 0.0051682554 -1.2811822 0.07290967 -0.09688039 8.640501 1.2098209 0.5485563 -0.63269514 0.6401999 0.28962123 0.3065132 0.72883445 -0.19492364 0.5681499 -0.055223048 0.8977592 -0.15207534 1.132582 0.19785185 -0.3561032 0.20324796 -0.9108846 0.7683327 0.5204568 0.33153456 0.5927702 -0.19033515 -0.27920404 0.20768164 0.38271064 0.8776509 0.26961908 0.3264103 -0.23503114 -0.8953321 -0.95284814 -0.53308845 -0.76558197 -0.360897 0.53098094 -2.9873908 0.011181079 0.74329543 -0.6865005 -1.0179429 -0.31632245 -0.84540933 0.521852 -0.4702909 0.30964094 -0.35729247 0.673806 -2.71927 -0.020567968 2.0593731 0.7420394 -0.43785194 -1.4895145 0.79661435 0.5727309 -0.2323888 -0.16643362 -0.13221143 0.026536107 0.29885978 -0.55592114 0.80241966 -0.832684 -0.88853806 -0.6431046 0.30724168 -3.0302749 -0.15563212 0.7284703 -0.36322975 -0.43416858 -0.7936994 0.62165374 -1.2479978 -0.16127509 -0.45861453 -0.20097739 0.008694306 0.9447032 -0.13865039 0.39953905 0.54089445 1.9248178 -0.9381399 0.33041915 -0.277983 -0.6363383 0.54129785 -0.93897235 0.6409928 -0.83221954 0.037570953 2.4480588 0.4418428 -0.016326535 -0.33528304 -0.78599393 0.43086797 -0.47842366 0.15217112 0.7897977 -1.1469427 0.06640454 -0.85891515 -0.10861465 0.05756267 -0.30086082 -0.21418445 -0.5031871 0.03815063 -0.85710204 -0.9872561 0.2862507 -0.24522746 -0.28158897 -0.94166446 -0.3438215 1.054363 -0.25613427 1.1409686 0.78740185 -0.076577604 -0.105939984 -0.38443255 -0.27554783 -1.8261511 -1.5882503 -0.94409406 -0.3676363 -0.021112256 -0.18253517 0.9888749 -0.5766101 -0.701547 -0.1368205 0.71042156 0.025989432 -0.37236297 -0.061700135 1.0463932 -3.7436075 -0.19070129 0.14192337 -0.018576011 -0.26696187 0.27020591 -0.5959702 0.69062877 0.0912787 -0.8039125 0.05100193 0.18175693 -0.85190916 0.26807082 -0.30321887 -0.67485034 1.3317144 0.53546625 -0.13377652 -0.49442834 0.008251727 -0.55618113 0.13868618 0.22163852 1.1997534 -0.25054246 -0.79999274 -0.3529137 -0.10415067 0.598905 0.5050463 0.107302666 0.36933258 0.7626908 -0.07942317 0.1792875 0.30055046 0.052890718 0.23718604 -1.1430072 -0.4070848 0.30593845 0.12553108 0.60454506 0.27661902 0.96197 1.6504636 0.5597918 -0.36210245 0.8489169 0.043505684 0.17260286 0.18205577 0.9236777 0.41562387 1.0287733 -0.25711265 -0.20412543 -0.63367724 -0.54519856 -0.010737557 -0.8753608 -1.3138587 1.0925847 1.3739235 1.0301496 -0.3777882 -0.45219666 0.2746985 -0.08715258 0.6331857 0.17701656 0.37291324 0.16523756 2.0579236 -0.22640347 0.16916808 -0.2458088 -1.3486662 1.2872277 -0.72513163 -0.45101118 -2.171366 0.42939508 -0.18968424 0.37079608 1.7053108 -0.2850121 -0.25718057 -1.0688027 0.06960824 -0.27182743 -0.8309643 -0.26853994 0.3094144 0.07129695 1.390395 0.03465824 -0.17440817 0.045289334 -0.79692554 -0.19207467 1.521789 -0.10132049 0.088439286 -0.35975292 -0.11175422 -0.390617 -0.51538336 -0.03978634 -0.8830221 0.74306875 -0.19571063 -0.36975574 0.8426383 -0.8832646 0.011712596 -0.22551408 -0.51091987 0.77003473 -0.47232008 0.47343028 -0.4834894 -1.2009611 -0.45946229 0.20785512 -0.18807685 -0.27053347 -0.045869067 1.0963538 1.0005668 1.2920116 -0.23325466 0.18858124 0.338528 -0.30292505 -0.21829417 0.41358307 -0.90119505 -0.19546637 0.71328086 -0.029839285 0.33240473 0.17875747 -0.5181588 0.5077201 -0.9776012 -1.2252959 0.79759896 0.31941748 1.3937476 -0.47842926 -0.15283659 0.48547545 -0.45388362 0.6580891 -0.6284603 -0.8561887 -1.0063146 -0.08073555 -0.42578948 0.23516662 -0.6356997 0.6469703 -0.3109436 -0.57171464 0.8398077 -0.17083271 0.09940392 0.5295461 -0.013804808 -1.1798309 0.21450262 0.8524612 -0.33193913 -0.006908998 -0.20605291 0.61617965 -0.4365815 0.070233725 0.113054715 -1.9643811 0.5148641 0.30785352 1.0445776 0.2584096 0.26513585 -0.75837284 -0.5269223 0.056923553 -0.38257805 -3.7316988 -0.74267715 -0.38065752 -0.022378441 -1.0285411 0.19609232 0.1463558 0.042401068 0.59749204 -0.3005209 -1.2757862 0.5729059 1.1610146 -0.37928134 -0.4771517 -0.07667775 -0.24481933 0.40936255 -0.0008321926 1.3679593 -0.2202524 1.0089048 0.04245104 -0.27509505 -0.039727576 0.67662334 -0.6498405 -0.5008721 0.68517816 1.4482753 0.5954726 -0.106854364 1.2416834 0.27820057 -1.4555424 1.29137 -0.2784102 0.6464046 0.8048215 -1.2223078 0.17062855 0.17236908 -0.1643487 0.2658981 -0.40656036 -0.3755651 0.45815238 -1.1122303 0.1455525 -0.20514818 0.86272097 -0.5653614 0.8770994 -0.693885 -0.4611651 0.20704928 0.49677357 -0.24979928 -0.45083216 -0.036634833 0.35036075 1.6389184 1.4218915 -0.8650371 -0.8931191 -0.27827615 -0.20025958 -0.14575334 0.20097771 -0.0996628 0.41398418 -0.31998634 0.08920553 -0.6752988 0.9375695 -1.8217409 1.6134402 -0.27145135 -0.6804555 -0.48653924 -0.8231959 0.11499705 0.4920231 -0.015479337 -0.7830051 0.23082863 0.2095637 0.14924747 0.88218933 1.3556353 -0.017992005 -0.0015397295 -0.14103794 -0.26181883 0.1668361 -1.4883665 -1.2776575 0.51986086 -0.048550453 2.2948954 0.5886715 0.84808534 -0.28003043 0.38901228 -0.48871097 1.3388677 -1.7286407 -0.9849044 -0.3715508 0.53427106 -0.7890295 0.18563658 0.12970316 -0.40870523 0.16867965 -0.67290425 0.24736273 -1.2793065 -0.22092664 0.31671053 -0.7020501 0.26967835 0.4939642 0.123352244 -0.66529346 -0.40483403 0.013881271 0.90178806 -0.4300311 0.14179707 0.11144084 1.592598 -0.04052086 -0.15946332 0.59257257 0.2337126 0.16015448 -0.93837225 0.38691652 -0.0656195 0.6130861 -0.8693464 -1.9922174 0.18025407 0.0321151 0.34188074 0.029537052 1.2786468 -0.6531333 -0.13388538 0.2252306 -0.43145204 0.33937263 0.5957687 -0.9403942 0.5751249 -0.064797536 -0.09313253 0.37573424 0.014916517 -0.42932022 -0.4479651 0.6314228 -0.49917814 -1.0667466 -0.20668292 0.3806175 -0.5105861 -0.23935771 -0.6048626 0.034988284 -0.52602303 -0.43229902 -0.21606115 0.14796424 -0.4136909 -1.1978707 0.031529732 -1.611916 -0.35731122 0.19304909 0.29089355 0.6394695 -0.016171686 0.36493182 -0.98222744 -0.69081646 -0.5227266 0.05221738 -0.5939144 -0.0070916563 0.8184058 0.021562332 0.6745122 1.4083903 -0.34639007 -0.08410322 1.359409 0.16381179 0.28955454 -0.057288185 -0.82308644 0.38724214 -0.105554834 0.09918566 -0.55253005 0.046554953 0.2670517 -0.18546735 -0.68454474 -0.51712155 -0.9251759 -0.87399036 1.598858 -0.26602447 -0.2716051 0.3399214 0.049587823 -0.7682447 -0.51541555 0.12618223 0.0002368316 -0.024014682 0.53280956 -0.62748224 0.5193968 -0.049065277 -0.12710203 -1.0851086 0.3045454 -0.40451762 -0.13522485 -0.054092877 0.009991787 -0.48288336 -0.44780213 -0.581841 -1.0324523 -0.46135426 0.29973146 -0.5569355 0.12584502 1.4550064 1.0178238 0.670158 0.34279117 0.3974008 -0.28541368 -0.047072977 0.6185055 -0.21245909 -0.5180377 -1.3406888 0.07021826 -0.46024036 0.28745374 0.06286796 0.9646619 -0.46486688 -0.22255097 -1.0200747 0.30090567 -0.24694943 0.23757552 -0.00085778534 1.3449117 -0.66051227 0.90027654 1.2638711 0.2669908 -0.081967235 0.74119514 -0.6903907 0.3105354 0.28969297 0.03245613 -0.65951484 0.2325497 -0.95800954 1.5027397 0.97901005 -0.20593013 -0.60704815 0.051918123 -0.24258748 -0.18122482 -0.83873516 -0.639557 0.6779578 0.03787879 0.08409225 -0.48718295 -0.012644948 -0.5117612 -0.70441025 -0.97955316 0.38697758 0.31502596 -1.4705422 0.644756 0.8213074 0.5460431 -0.18613091 0.052113734 -0.25602704 1.277101 0.31813514 -0.34680644 0.8137636 0.6751239 -0.48782068 0.46638322 0.98297405 0.09583729 0.34495273 -0.76172334 -0.6642191 -0.61500263 0.75755554 -0.67820466 0.36553556 -0.4653483 0.029711634 -0.3538772 0.39551026 0.40578836 0.26313412 -0.44921893 -0.27994215 -0.62192464 -0.8157556 -0.051106296 0.23667237 -0.73977494 -1.8005812 0.1820468 0.8647809 0.33058435 -1.5907902 1.4856817 -0.73979306 -0.021809809 -0.51162183 -0.8926263 1.0395721 0.8881031 -0.4078421 -0.23910046 0.1460624 -0.014851794 1.5467501 0.49090734 0.49134615 3.0698395 0.43755308 0.9911407 -0.0062788166 -0.16795605 0.6491632 -1.6107621 0.70240134 0.32237935 0.28062898 -0.37146327 0.048970893 0.14261022 0.09209219 0.18095154 0.96674246 0.68645054 -0.5828607 0.25087893 -0.7955281 0.030442983 -0.35041696 0.63128746 0.06519252 -0.38203984 0.44943973 0.23328552 0.2813744 0.6246057 0.955737 -0.52522105 0.30494004
做好病虫害的监测与防治工作 0.51035786 0.34023952 -0.93697584 0.28257674 0.7427124 0.02326323 0.20552802 -0.6563165 0.43157342 -0.42946184 -0.7678838 -0.18759838 -0.061181087 -0.44972482 1.3479224 0.17773941 1.5642972 -1.2931623 0.22534779 0.46749532 -0.4536167 -0.96587586 0.18676504 0.0982626 0.010369271 0.051501688 0.3045173 -0.4564173 -0.011426216 0.479204 -0.5013655 -0.65791273 -0.22223112 0.033056855 0.26139325 -1.2954733 -0.44432145 -0.328349 0.5486838 -0.29330125 0.38583595 -0.21119794 -0.40740842 1.9223574 0.98171747 -0.33877543 0.055508867 0.0916053 -0.8084294 0.65703326 0.29018325 8.711959 1.2002906 0.53078896 -0.69570976 0.7005132 0.26925874 0.041061804 1.0197467 -0.20265195 -0.030525438 -0.5460202 0.6606009 0.047204837 1.1323645 0.2839032 -0.26181135 0.766479 -0.63368994 0.79688954 0.3574231 0.5388678 0.7996453 0.0025484115 -0.27890587 -0.00084486604 0.4404189 0.42842793 0.02808562 0.4286815 -0.079312995 -0.8865278 -0.52356756 -0.8795752 -0.98624533 -0.5683608 0.5111394 -3.1031768 0.3672873 0.9123357 -0.60741997 -1.1534014 -0.4714869 -1.0456171 0.683242 -0.43860957 -0.10844901 -0.54389495 0.44042546 -2.6371813 -0.42207813 1.48323 0.25541624 -0.14226426 -1.5336217 0.4619912 0.61507237 -0.36144546 -0.29326636 -0.29373455 -0.05531981 0.5189587 -0.3508375 0.88782334 -0.6593195 -1.2799727 -0.52952874 0.15377095 -2.668862 0.16447787 0.3820841 -0.2867339 0.11637513 -1.0489819 0.6567411 -1.1450784 0.14415576 -0.19173037 0.14409117 -0.0868046 0.27866116 0.124848016 -0.19067872 0.63402927 2.0294912 -0.76034397 -0.017197637 -0.18941772 -0.8440988 0.3969692 -0.9387959 0.33868882 -0.7429404 0.5467156 2.3668885 0.3140695 -0.26718345 0.24774043 -0.9131251 0.41724592 -0.0022620186 -0.029030025 0.5458487 -1.0016497 -0.082711354 -1.3267381 -0.016653113 0.104356475 -0.6687547 -0.22306167 -0.29035345 -0.07419513 -1.3249034 -1.4742074 0.23383099 -0.7440592 -0.010948926 -1.1530493 -0.25138193 0.8965152 -0.33598572 1.261806 0.41403878 -0.04744236 0.03545046 -0.16962323 -0.46935725 -1.7995524 -1.4545171 -0.7993071 -0.77096856 0.15809326 -0.16396144 0.92317444 -0.6462383 -0.63834286 -0.3615439 0.9466745 -0.26958793 -0.16210839 -0.13241246 0.90233266 -3.30555 -0.17835735 0.13604781 0.3116145 -0.35739005 -0.04904437 -0.55124646 0.37874424 0.66604614 -0.93162364 0.12033178 0.11086592 -0.9873159 0.52469075 -0.26391461 -1.1648754 1.6287385 0.17641637 -0.25872535 -0.55934757 0.28945357 -0.51646394 0.07240428 0.40221524 1.2013769 -0.45399773 -0.76698184 -0.5328748 -0.10796433 0.6141077 -0.01589328 -0.2587223 0.3644849 0.62901616 -0.25613204 0.0921963 0.4692719 0.006185144 0.17314984 -0.75527203 -0.5124615 0.16537128 -0.040497374 0.5254097 0.49915102 0.92818356 1.3332256 0.5019393 -0.19798844 0.7824806 0.15747514 0.38696545 0.32646385 1.016908 0.6378693 1.0219667 -0.5692594 -0.012509376 -0.7527721 -0.49869847 -0.15475166 -0.79610413 -1.1689438 0.97701967 1.228755 0.98431 -0.16597506 -0.4081155 0.1731756 0.03926808 0.35981902 0.2543654 -0.066176444 0.47128582 1.9338944 -0.13280341 0.13348177 -0.5492371 -1.749738 1.1851821 -0.38067645 -0.35924134 -1.6575513 0.074671775 -0.5679874 0.40219998 1.3869199 -0.20118517 -0.06236139 -1.2519778 0.031401098 -0.14378169 -0.5926215 -0.3653918 0.1660702 0.5070445 1.2230685 -0.031730503 -0.42698544 0.037360538 -1.06275 -0.15260221 1.7469184 -0.3509795 -0.05911088 -0.36647606 0.18518656 -0.21387295 -0.9379934 -0.17668772 -0.97389233 1.1512262 -0.21111965 -0.77610564 0.38434723 -0.88978505 -0.04872428 -0.44312504 -0.53584933 0.5279443 -0.44235653 0.2353835 -0.8436111 -1.0052023 -0.33284092 0.62592673 -0.4302152 -0.015456259 -0.026133714 1.195137 1.2115666 1.2029521 0.527956 0.26196083 0.62162423 -0.2648909 -0.22663572 0.140447 -0.80553174 -0.34876084 1.2928573 -0.3288021 0.51584834 0.15310243 -0.11861764 0.4630217 -0.9379418 -1.1663871 0.48467895 0.23719355 1.3744045 -0.27484912 0.07317473 0.24784006 -0.4040886 0.67045814 -0.54105324 -1.1205262 -0.86859226 0.24917702 -0.5690843 -0.027323106 -0.73646176 0.7782195 -0.22830823 -0.18151797 0.8245472 -0.12909381 -0.43105072 0.42494723 -0.22825386 -1.2588211 0.23300308 0.63068885 -0.45472175 -0.041451406 -0.31893352 0.7248854 -0.7267636 -0.10481912 -0.13671634 -2.3937256 0.36059663 0.71636575 0.58173805 0.43140185 0.31004918 -0.49957538 -0.82926005 -0.15059227 -0.49540734 -3.3900056 -0.95362854 -0.22443166 -0.17677385 -0.9744104 0.20246947 0.3672146 0.19506432 0.20891015 -0.12655126 -1.5289605 0.8990011 1.2508897 -0.11201881 -0.69991857 -0.005716078 0.17509262 0.08931042 0.14645648 1.3384495 -0.12416733 0.98041075 -0.049539536 -0.36235964 0.023485567 0.7658644 -0.5715452 -0.30297557 0.595508 1.5321823 0.9562124 -0.21300647 1.4215242 -0.17156872 -1.4420182 1.6213909 -0.10335359 0.58924246 0.31427956 -1.4868767 0.052549426 0.5895685 -0.035033002 0.53732395 -0.25252444 -0.21073483 0.6507244 -1.0119274 -0.23481196 -0.47156298 0.3595272 -0.44849315 0.78246003 -1.2216039 0.20304069 0.21860066 0.16269164 -0.07342252 -0.41211796 0.6300815 0.25367132 1.4237849 1.0541615 -0.7697122 -1.0186964 0.08811162 0.29741704 -0.462405 0.5869323 -0.40934655 0.25424004 -0.32322186 -0.08712952 -0.8777778 1.0531893 -2.1713784 1.5187927 -0.16479628 -0.6051001 -0.66243297 -1.3255455 -0.12761548 0.70443225 0.43861142 -0.45270896 -0.2482292 0.8284959 0.20469175 1.1909603 1.4730707 0.38682532 -0.3064216 0.15638024 0.0011726543 -0.11717923 -1.6696607 -1.6177465 0.31408906 -0.06573072 2.8060308 0.44762197 0.96298826 -0.39206207 0.546461 -0.16188025 1.1698909 -1.3328937 -1.0749025 -0.61672306 0.3689536 -0.56015545 0.3787686 -0.010227442 -0.45323446 -0.03383988 -0.90327454 0.14207534 -0.8707763 -0.026166216 0.2765652 -0.4398092 0.45569795 0.1621323 -0.010643333 -0.8415101 -0.38902706 -0.37569496 0.86680835 -0.31615114 0.1399383 0.34908673 1.1407057 -0.309869 -0.17893533 0.4923072 0.08988118 -0.00680466 -0.97780704 0.6371808 0.088751234 0.94319993 -0.43045747 -1.701381 0.25211218 -0.0050783157 0.4336039 0.21382003 1.4985989 -0.6472524 -0.5307718 0.3139109 -0.4331674 -0.302915 1.0404227 -0.7124419 0.6577712 0.0510225 0.48201066 0.5075208 0.28296384 -0.5571626 -0.7876695 0.58744 -0.24304545 -1.2267069 -0.32572 0.42725578 -0.9224703 -0.2515091 -0.65721476 0.27276403 -0.49093193 -0.39412922 -0.43636227 -0.29929724 -0.034443714 -1.0358161 0.03312239 -1.0394351 -0.17113566 0.1274398 0.23068953 0.34786713 0.17248532 0.13587047 -0.4889164 -0.6975429 -0.2724864 -0.24301243 -0.23834038 0.181066 0.56423056 -0.024499673 1.3129658 1.405544 -0.27714196 0.19450226 1.436718 0.2866348 0.21105573 0.102960184 -0.8082987 0.750836 -0.3214232 -0.13303477 -0.6433303 0.017129526 -0.06944762 -0.21593904 -0.68486834 -0.254201 -0.905177 -1.0147325 1.4227505 -0.21483238 0.28389755 0.37793982 -0.25975794 -0.63308454 -0.3478745 0.27422565 -0.16941918 0.07305522 0.47635594 -0.6389646 0.4494876 0.20799178 0.06406806 -0.8068853 0.14357184 -0.16351748 -0.21328273 0.19863811 0.15010521 -0.7058035 -0.90847135 -0.8242922 -1.0083654 -0.5668774 0.09034791 -0.5757252 -0.123270035 1.2034707 0.94597924 0.65374327 0.39722356 0.4564337 -0.17835116 -0.08732069 0.8944853 0.33984512 -0.72009534 -1.246514 0.32223612 -0.07941743 -0.0005025491 0.1724948 0.6701201 -0.18639612 0.11275758 -0.9271962 -0.16811934 -0.46000248 -0.025154367 0.09434262 1.1063209 -0.092150085 0.62889004 0.9734485 0.38400754 -0.0050435364 0.86648405 -0.8207786 0.5212402 -0.09832443 -0.11897796 -0.62282807 0.27996564 -1.0300196 0.87817585 1.0407655 0.060899228 -0.27204645 0.040277615 -0.15954797 -0.23276618 -0.45672882 -0.6643653 1.093041 -0.3603457 -0.032868814 -0.70887995 -0.33678797 -0.38606632 -0.49780586 -0.9104094 0.5515373 0.13857384 -1.8564559 0.24695408 0.80163765 0.10080383 -0.40464026 0.21824944 -0.3030752 1.2793702 0.31789857 -0.60584927 0.96571124 0.8252146 -0.45205814 0.54555434 1.2674232 0.17249995 0.09950583 -0.23315233 -1.1221637 -0.20349634 0.9301234 -0.80663645 -0.15534224 -0.58785427 0.21991709 -0.052476287 0.49841923 0.20424196 0.28501818 -0.16671914 -0.25121677 -0.63930094 -0.67364514 -0.12846795 0.11946372 -0.37028652 -1.3954114 0.25070578 1.0650086 0.4287343 -1.4386996 1.5126784 -0.3072314 -0.005953364 -0.45846286 -0.890582 0.34622723 0.9879978 -0.4754249 0.2507447 0.15689172 0.20929834 1.4873393 0.75052226 0.7495296 2.9870512 0.7090252 0.7445308 -0.024240552 0.0047965646 0.66811264 -1.5248995 0.6293271 0.108857565 0.28244054 -0.26636255 0.35698622 0.48497802 0.4277143 0.357139 1.1164985 0.60375965 -0.4466167 0.0753002 -1.1907095 0.28079697 -0.6007105 0.5894673 0.035978034 -0.15742959 0.2886967 0.14544316 0.457033 0.28507072 0.99049485 -0.55849457 0.24098998
病虫害的发生发展 -0.17084157 0.14982939 -0.7054879 -0.58806795 1.3038875 0.31213793 0.15211755 -0.7902553 0.0007532388 0.5131616 -0.07751319 0.413325 0.33787194 -0.17624672 0.9672949 -0.54678696 0.6459765 -1.6606921 -0.62116516 0.0017402992 -1.6224415 -0.61563504 0.30310902 -0.24792907 -0.02744392 0.08216132 0.6124743 -0.010027751 0.1803408 0.25377095 -0.40900728 -0.76654565 -0.264422 -0.40153673 0.21866864 -0.53088814 0.42103207 -0.30148706 0.42442584 0.11113538 0.5202309 -1.0395099 -0.69653046 2.0050614 0.41243497 0.36515275 0.70897955 -0.25929815 -0.3877442 0.46368805 -0.51104224 7.7220316 1.387366 0.49181232 -0.97254866 0.3775941 -0.14741422 0.07833199 0.73251003 -0.33382806 0.4896051 -0.5547639 0.53747004 0.8789544 0.72429 -0.2817933 0.19175376 0.6786735 -0.76879007 0.13233149 -0.40610188 0.5843476 1.0666454 0.016989969 -1.0093275 -0.03884755 0.2104069 0.017158322 0.08949892 0.38455087 0.48962265 -0.78597367 -0.52966 -0.3819643 -1.0878158 -0.79026604 0.12708825 -2.9405458 -0.12574506 1.0773486 -0.6693568 -0.680817 -0.1758005 -0.1577738 -0.089907885 -0.43964773 0.122745395 -0.18515255 -0.26777875 -2.934421 -0.81147957 1.5913116 0.6548067 -0.56062 -1.009522 -0.053176448 0.9484113 -0.37033245 0.065632954 -0.62385654 0.02390226 -0.4463334 0.14762607 0.6992697 -1.5730896 -0.6454118 -1.2570401 0.28500134 -2.6010494 -0.37497622 1.0545641 0.7268431 -0.3660391 -0.32777658 0.82174826 -0.84720594 0.27619597 0.13071656 0.08712653 -0.34569272 1.007076 -0.46177888 0.20241082 0.87134683 2.9808893 -0.12161409 -0.42717907 -0.48473805 -0.8387585 0.47431433 -1.2751875 -0.8103737 -0.47381482 0.9427355 2.3115213 -0.18769573 -0.39314613 -0.48655772 0.27334478 0.44363344 -1.0260884 0.07585262 0.60452807 -0.705735 0.2571866 -0.45050085 -0.7249968 -0.45788515 -1.0708238 -0.86850446 -0.8889091 0.17751294 -0.28130734 0.1579641 0.08189282 -0.6233713 -0.56823117 -1.2187928 0.25198394 -0.48711255 0.35150325 1.7438502 0.81573445 0.043670855 -0.09004204 -0.73476976 -0.042220246 -1.6009872 -1.210827 -0.85221434 0.29529533 0.0015783533 0.045396626 0.7578486 -0.031800464 -1.1466302 0.43191588 0.2506775 -0.66756344 0.25069886 -0.35346866 0.867546 -3.174198 -0.025021955 -0.49204552 0.14632137 -0.24933448 0.15835351 -0.87224764 0.33795887 0.16240449 -1.9946574 0.2403209 0.15618828 -0.1533567 0.09733901 -0.39023262 -0.06332353 1.0129861 1.3903455 -0.3560413 0.19745284 0.13957109 0.0012877285 0.02573565 -0.10868127 1.5771459 -0.26115888 -0.2369089 -0.94400525 0.18124011 0.67447644 0.5499777 0.10228473 0.56403214 -0.067607716 -0.73570544 0.16873255 -0.46409804 -0.10330768 0.6558479 -0.0045030713 -0.4153604 0.45863035 -0.41422814 -0.29814142 0.9837109 1.8721638 0.8676598 0.4867175 0.40864924 0.24136087 0.09927353 -0.061720997 -0.14716004 0.3529092 0.6288005 1.488523 0.23107633 0.95955163 -0.12389291 0.08872856 0.10610716 -1.0172954 -1.1158042 0.46836394 0.7629136 0.4096412 -0.40120515 0.3027435 -0.26158315 -0.49386063 0.054438144 -0.20131005 0.052689508 0.035949543 2.1844375 -0.23997545 0.71567565 -0.074169725 -1.5827346 0.36909354 -0.0025794432 -1.8042946 -2.0038846 -0.46252987 -0.872671 0.42272124 1.4330219 -0.2720196 -0.5670882 0.068526655 0.27114025 0.59979206 -0.3498229 0.2595699 -0.07138371 0.98379356 0.024496377 -0.82186866 -0.40621877 0.27638933 -0.8511646 0.030259892 1.7800927 0.12109829 0.73428833 -0.35142773 0.25571275 0.098799706 -1.1707724 0.14561789 -0.106837064 0.38478017 -0.77904725 0.0027293188 -0.4248033 -0.909378 -0.07059401 0.08027097 -0.15301102 0.040710546 -0.17476128 -0.022723004 -0.5298245 -0.72760016 -0.123765536 -0.13677815 0.2547571 0.115958884 -0.17406689 0.4611765 0.74749845 0.633988 1.1075593 0.6512988 0.1366298 -0.62710047 -0.4749551 0.26317304 -0.086572275 0.10376823 0.2833709 -0.25605428 0.29396993 0.7936841 0.07575229 0.29505584 -0.75987244 -1.1822492 0.39847636 0.7031869 0.834974 0.07816225 -0.2545308 0.543855 -0.6075813 0.08281322 -0.21929397 -1.2704437 -1.1240975 0.7411655 -0.75957435 0.928263 -1.4170588 1.3139961 0.76701367 -0.93555295 -0.07580238 0.38110083 -0.29887378 0.41576087 -0.5454574 -1.3410951 0.33606184 -0.042252168 0.24254118 0.08851164 -0.24624558 -0.11946005 0.021495976 0.7760937 -0.33367255 -1.7396102 -0.32590917 0.115724824 0.4600562 0.5845975 1.2261331 -0.5507339 -0.28521916 -0.1684275 0.03505938 -4.0299916 -0.9413972 -0.24582237 0.06914564 -0.99345934 0.44864577 -1.1660994 -0.73471355 0.73066634 -0.13836712 -1.328916 0.6060557 1.40156 -0.4118327 -0.9478824 -0.014778905 -0.18456085 0.6221654 0.9368393 1.2039957 -1.2200394 0.8455216 -0.9658304 0.87382054 0.28592348 0.49880692 -0.025096267 -0.08669408 -0.27943063 0.4893015 0.45410687 0.031519808 0.8395017 0.07896796 -0.3161062 0.16110596 -0.9618988 0.39758357 0.5600802 -1.6731485 0.13815054 1.4243478 -0.7278224 -0.30527583 0.17033724 -1.5212489 1.0392094 -0.3843218 0.92339987 0.05729888 1.5679538 -0.8164942 0.12460372 -0.42363322 0.4348195 -0.6211352 0.38611007 -0.17627953 -0.59857935 -0.24052727 0.919493 1.5224079 1.361016 -0.12873149 0.33406883 -0.5288058 0.15550387 0.64905494 -0.3209983 0.32404378 0.025090203 0.128458 -0.06100416 0.50314236 0.329387 -1.5956411 0.96780616 -0.027151857 0.2571807 0.117703155 0.108381584 0.39288878 0.12948154 0.06565854 -0.26973715 0.48608088 0.042582348 -0.13411583 -0.23701434 1.2983516 -0.12710486 -0.0018874854 -1.0114228 -0.15834948 0.60961854 -0.8149375 -1.7703298 0.64293003 -0.28303593 2.3682303 -0.2730138 1.0083979 -0.23659872 0.106156126 -0.035872616 1.247567 -0.8166363 -1.6394824 0.34712946 -0.69522035 -0.1364558 -0.34145233 -0.1405532 -0.17139597 -0.34120667 0.025136217 1.4573871 -0.6107111 0.023305655 0.08025175 0.012570694 0.034252375 -0.888606 0.0087819025 -0.5186622 -0.6523961 0.3978653 0.86901027 0.31079242 0.8019134 0.15694843 1.425645 -0.18801574 -1.0187418 0.5787564 0.30161607 0.88858014 -2.2204664 -0.094754875 0.2722874 0.24079375 -0.7019122 -1.2590945 -0.414806 -0.60452247 -0.20807919 -0.39961863 0.49049065 -0.32223698 -0.1252929 0.5157236 -0.08044417 -0.29278144 1.829651 -0.3343152 0.26214445 -0.52473825 0.13788778 0.44940895 -0.6484191 0.031255633 -0.7091719 0.2272771 -0.027118145 -0.23833913 -0.13304894 0.89688814 -0.8122808 0.01780921 -0.01264374 -0.4709358 0.60359114 -0.3846501 -0.5733166 -0.3430935 -0.30532324 0.32061625 0.2562161 -0.79888487 -0.17646025 -0.005050108 -1.4268553 0.25542125 0.32417533 0.37313867 -0.2103666 -0.88135904 -0.2566747 0.12889907 -0.06503019 0.48266324 0.84156466 0.32151178 0.84665555 0.98329544 0.6052864 -0.21774578 1.5689441 1.2276367 -0.6891211 -0.78360486 -0.26557952 0.34236574 -0.61591643 -0.98201656 0.2651859 0.34319663 -0.06841083 0.40087295 -0.6613388 -0.13006724 0.15058717 -1.5835118 0.54226667 -0.22815932 -0.45609123 0.19465941 -0.058817275 0.60728073 1.1370957 0.2711894 0.75219744 -0.054423086 0.49130172 0.009595484 0.51582456 0.33404657 0.03160622 -0.2832442 1.2570087 -0.00959146 -0.56383765 0.4500738 0.30486172 -1.0053008 -0.7011483 -0.17693758 -1.110793 -0.7256518 -0.15344414 0.13124958 0.6642573 1.490667 0.40208906 -0.12883735 0.27002388 -0.34308147 -0.25203505 -0.41601363 -0.37528288 -1.2575237 -0.40245214 -0.80249447 0.27691188 0.44111788 0.05833368 -0.62788135 0.01553838 -0.4595082 -0.20323353 -0.96628773 -0.31187394 -0.011296162 0.67750216 -0.7331 0.9866989 0.3349514 1.2786158 0.9938934 0.40610468 0.77628696 0.5481553 -0.42122215 1.4333249 0.25578374 -0.33284092 -1.1691334 -0.2421539 -0.28059918 1.7634135 0.6163132 0.0639115 -0.00015191734 -0.24078421 0.38792968 0.15198284 -0.5496492 0.100929946 -0.3342476 -0.10861917 -0.6130201 -0.15208055 0.61595374 -0.44645616 -0.3861342 -0.97524005 0.153197 0.38755107 -1.3040957 0.66452277 0.16829264 -0.23205097 -0.80425334 0.5294132 -0.59568477 1.4818228 0.34121686 0.90057814 0.80988204 0.6226005 -0.7340031 -0.5085884 -0.8187195 -0.5341009 0.9098964 0.038492292 -0.69326776 -0.25889188 0.33830926 -0.57896113 0.35131773 -0.56490594 -0.24386075 1.01158 0.6855705 0.11970962 0.2647848 -0.55122274 -0.55103594 -0.9906815 -1.3620471 -0.5458754 1.662526 -0.29008892 -1.6941062 0.45084646 0.38671777 0.9440994 -0.8997587 0.54055035 -0.027149998 0.22606392 -0.19714038 0.5813979 1.2783773 0.97268724 -0.67445785 0.6689397 -0.033869594 -0.4997174 1.9675834 -0.54195637 0.8577318 3.8825424 0.9162816 0.100314274 0.0909742 -0.62536263 0.48067975 -1.8085179 -0.10726521 0.02453266 0.014399499 -0.28698754 0.13681452 0.5412942 -0.17850813 -0.9159493 0.26759446 1.0996587 -0.3521753 -0.8469245 0.049185526 -0.5297016 -0.27875698 0.40138823 0.4941561 0.07430115 -0.039926253 -0.8241942 -0.0737277 0.16735265 -0.42736122 -0.73157585 0.55733454
