春播 -0.4121349 0.49212113 -0.8412182 -0.65173817 1.0495996 -1.4715221 0.052834652 -0.23809503 -0.3575819 0.23102668 -0.39336383 0.19945958 0.33061528 -0.063473485 1.9791359 0.6178186 0.8398467 -1.5522535 -0.5170359 -0.10435492 -0.5257881 0.2547018 -0.57539356 -0.047015537 0.19828695 0.9129708 -1.0389209 -0.07085226 1.2093338 0.025402144 0.3732069 -0.72338426 -0.30322567 0.45187503 0.94610715 -0.53578526 -0.3066589 0.12002298 -0.3913716 0.3858955 -0.45333558 -0.81610376 -1.2901334 1.8445852 0.19082981 0.61978084 0.29601586 1.4558659 -0.11211288 0.1620976 -0.091497466 6.669185 1.4741148 0.26331422 -0.26668626 0.44962874 1.1932172 0.43900877 0.29836023 -0.6435145 0.23750392 -1.4321356 0.44188732 0.7882158 -0.1228905 -0.19353564 -0.18143113 -0.38818136 -1.6844373 -0.5153362 1.1701078 0.21621275 1.7128046 0.074085146 -1.1610771 -0.19570242 -0.6304415 -0.3211075 -1.0001205 0.6725099 0.6618939 0.17284492 -0.19264977 0.27935985 -0.5481635 -1.2358441 -0.9308318 -4.105937 1.0041618 0.92871326 -0.20978996 -0.8889001 0.29008725 0.107556924 1.1403004 0.036030672 0.90566695 -0.037762195 0.3720178 -1.7676616 -0.6647413 1.6921371 0.13194086 -0.63406014 -1.6642752 -0.24598707 -0.55648285 -0.8917877 -0.16500731 -1.0833583 -0.4662714 -0.6688385 -0.40697366 0.12041887 -0.4512985 -0.15381499 -0.07315966 0.21131846 -3.8821993 -0.6235773 0.88242644 0.34527695 -0.94327253 0.22093251 1.3149248 -0.39064792 0.14393142 0.11161658 -0.18938337 0.38540626 0.9329214 0.77482224 -0.9739074 -0.3190742 2.8085232 -0.45559472 0.4536422 0.22282198 -1.2526758 -0.1465712 -1.1247197 -0.27810994 -0.02018546 0.80638266 1.8092495 0.60375714 -0.24466717 -0.17925353 0.52610797 1.2960966 0.12080068 -0.15775649 0.24265233 -0.6115057 0.3346728 -1.4173406 -0.5870528 0.14904451 0.44840387 -0.06648834 -0.8290493 0.41790944 0.1152565 -0.17322764 -0.38683796 -0.6614038 -0.12845063 -0.8077568 1.0621318 0.3063456 -0.3616175 0.49482992 0.16844176 -0.51082283 0.63577807 -0.38775304 -0.14141017 -0.80783546 -1.1160456 -0.5031245 -0.73721415 0.15719602 0.11548657 -0.027561828 -0.5274786 -1.4443913 -0.25244746 1.2882557 0.3766576 0.34249648 -0.5519099 -0.14087318 -3.1521714 0.09989035 0.911597 0.20794588 0.42283696 -0.7199615 -1.1844549 0.74754035 -0.117600285 -1.3703588 -0.31390825 0.54855645 -0.3782486 0.13727736 -0.6960206 -0.70594263 1.0636663 0.48506424 0.20373392 0.4707232 -0.79224664 -0.735712 0.83114296 -0.21663861 1.4191908 -0.1291953 -0.54454553 -1.1910893 -0.019964324 1.3247789 -0.22259527 0.025016151 -0.5427675 -0.36087438 -0.6145022 0.41930363 0.12346632 -1.078129 -0.94134957 -0.2522088 0.6001711 0.27739045 0.45191666 -0.007940993 0.87038636 1.0859783 1.4764694 -0.36683133 -0.11117102 -0.11783971 -1.0593802 0.38466358 -0.0984894 0.76555854 0.2431919 2.4268463 -0.39654478 0.036749586 0.15901658 -0.57383645 0.11890341 -0.15189902 -0.8452025 0.40788472 0.5322619 0.39743045 -0.23863989 -0.030434664 -0.30508438 0.062481217 0.69841844 0.84173703 0.7860428 0.63197595 1.6938119 -0.2587516 0.5211237 0.16666609 0.39218315 0.14784244 0.7388269 0.66404426 -2.0864248 -1.0429227 -1.1991596 0.0711214 2.5438244 0.41524878 1.3309696 -0.38661945 -0.4451574 -0.029252391 -0.7057064 0.706684 -0.56038755 -0.74380815 -0.3161249 -0.69609916 -0.4611715 0.55386007 -0.46128693 0.33198243 1.1446111 0.10252207 0.8982463 0.48265868 1.0829209 -0.48954386 0.85669816 -0.04670298 -1.03241 1.1428595 0.047668852 0.3746411 0.106113225 -0.22853178 -0.24001677 -0.886866 0.08542567 -0.6638839 0.017359324 0.21529773 -0.4778283 -0.02854184 -0.9614065 -1.3525523 0.14448287 -0.525682 -0.102705434 -0.44501436 0.50438833 -0.34481755 -0.60157067 -0.08483582 1.0599872 -0.24017678 0.035623603 0.12884724 0.18276297 0.42875153 -0.20015271 0.1677016 0.22680822 0.054138973 -1.2035239 0.54831713 -0.121456355 -0.33148226 -0.13230748 0.78988343 0.43263528 -0.6660131 0.39474392 -0.036560733 -0.17657003 0.13391481 -0.1582867 0.42345095 -0.8860037 0.85969496 0.5254536 1.0250474 -1.5778677 1.310088 -0.5417211 0.38954473 0.60014457 0.00572069 -0.2909459 -0.16391751 0.36937577 -0.7781717 1.9031904 -0.5629584 -0.3387106 -0.76898295 -0.5266127 -0.89433503 -0.10080969 0.8692329 0.6387979 -2.9744341 0.6303681 1.2276236 -0.076826595 -0.037778005 0.97840273 -1.0907273 -0.3890189 -1.0051811 0.806004 -3.543169 -0.121031836 0.49151343 -0.035194125 0.07323982 0.65045136 -0.24392201 0.01825139 0.82530856 -0.8988074 -1.6935692 0.4911541 0.004044447 0.41428947 0.3520993 0.913668 -0.6705217 1.1553327 0.17394942 1.6060433 0.3868344 0.16712031 -1.3519471 1.1350411 -0.7594539 0.48651376 -0.52194995 -0.27468884 0.32787472 1.4245107 0.3288113 0.2145172 -0.059793867 -0.9234581 -0.49691558 0.400348 0.7268429 -0.2756871 0.19679281 -1.8127534 0.55726486 1.8584179 0.25718647 -0.016547654 -0.30627978 -1.5211471 0.07583681 0.11538449 -0.33322084 -0.5796517 -0.21775171 -0.08350474 -0.096475735 -0.5438792 0.31768817 -0.6803935 0.6221009 0.2478694 -0.5605902 -0.23885298 -0.37467083 1.2404695 1.3211709 0.40335226 -1.3881587 0.07530883 -0.43216452 0.4873378 0.23458423 -0.7384889 0.3664258 0.16618761 -0.46988606 0.20789449 0.44633305 -1.6158731 1.3411578 0.641097 0.32066983 0.8166906 -0.6006176 0.0710367 0.8331745 0.6893295 -1.1358956 0.8053755 0.2254493 -0.4570089 0.49893814 -0.038344447 -0.22387357 -0.93912023 -0.22251502 -0.45064908 -0.15736902 -0.93974674 -1.9398882 -0.116632774 -0.3094073 2.3627942 -0.11947778 0.13078904 0.03785707 -1.0676866 0.5788592 0.25369126 -0.15637235 -0.90989506 0.76461124 0.49803817 -0.0025363043 -0.07539919 -0.92843735 0.32302916 -0.1930297 0.33194783 -0.59902155 -0.34791973 0.38886037 0.17730582 -0.22119889 -0.6739581 -0.75249565 0.31475496 -0.25488108 -0.019886024 0.53680515 0.26444378 0.1900852 0.034347143 -0.1845843 0.41001534 -0.71810806 -1.4472101 1.3372456 -0.5903061 0.19056867 -1.2480634 -0.4407428 -0.122417785 0.074684516 -0.32672337 -0.855229 -0.37411106 0.04285562 0.6641628 0.28305614 0.021823365 -0.17381945 -0.14241615 0.32683384 0.82882285 0.6858893 1.4274064 -1.1819754 0.35713238 -0.3519781 -0.18121617 0.28350505 0.018920705 -0.7557783 -0.12549672 -0.5249162 -0.64560914 -0.92600906 -1.1907922 0.63779926 0.05219099 0.64928746 0.29490718 0.9767703 -0.16220997 1.4054716 -0.64485157 0.17153758 0.1975526 -0.49511245 0.099149145 0.52580917 0.12992023 -0.57824147 -0.5369383 -0.21747299 0.34241015 -0.6563775 0.5519179 -1.673128 -0.20562372 -0.08915231 -0.15182447 0.17276812 1.4950231 -0.49567336 0.32113293 -0.1046356 0.14597169 0.48909068 0.96949315 0.25749618 -0.04261148 -0.8450149 -0.027587473 0.1560704 -0.13242556 0.43511096 0.4910102 1.0692439 0.094359085 0.08235523 -0.97665346 0.080455445 -0.063236624 0.2843337 0.8018332 0.016371116 -0.7712113 0.31554276 -1.0892957 -0.2872548 -0.23141044 0.5272429 0.051742367 0.020122275 2.0257196 0.021648679 0.35673192 0.70036596 0.17904735 -0.54619634 0.0871575 0.17803401 0.09904215 0.805946 -0.71777546 -0.9250002 -0.7762956 -0.15130326 -0.38978028 -0.6476408 -0.06914531 -0.13289592 0.26117375 1.5048892 1.1292837 -0.9095429 0.21160004 -0.33113864 -0.58545256 -0.30851895 -0.55074805 -0.18663688 -0.14892888 -0.49229586 0.11871217 -1.0507736 0.21276256 -0.5780154 0.29019284 0.10920593 -0.88159806 0.37470704 0.28925976 -1.2052377 0.22106957 -0.28735787 0.8180619 0.24532636 1.4016057 0.600163 0.13950491 0.6834785 0.8077312 -0.6978638 1.0500573 -0.62794983 0.59197056 -0.6141439 -0.7713892 0.51209635 0.23123129 -0.03948418 0.45793146 -0.68921465 -0.5371027 0.39659184 -0.37211248 -1.2381679 0.5005293 0.2218941 0.1471238 -0.663497 -0.51180476 0.5327347 0.32582203 0.81614816 -0.8473041 0.7493544 0.053025033 -1.4139267 0.1165655 -0.09744975 1.0346 -0.582553 0.2844162 -0.47838932 0.44053957 0.12959197 -0.8577659 0.98010266 0.06937582 -0.4464811 -1.3029388 -2.6227193 0.80603683 0.7747514 0.03653061 -1.1536491 0.7157265 -0.048431277 -0.5560236 -0.6840737 -0.78265923 -0.16606349 -0.99945784 0.7287921 0.005936645 0.9739773 0.082547836 0.5086968 0.71806324 -1.3751049 0.13480908 0.56187683 0.57017547 -1.7286277 0.13538823 0.32754117 0.24793041 0.11382286 1.3271551 0.31895664 0.6832631 0.097338505 -1.1045982 0.38469023 -0.12100604 0.12806973 0.34943926 -0.834962 -0.6248161 1.2076763 0.15660569 1.5361011 3.5090158 0.4666167 1.433094 -0.21982107 0.34916493 -0.043916464 -1.1123343 -0.20169985 0.08609262 -0.16472381 -0.57975423 -0.965742 0.5846513 -0.277005 -0.56021816 -0.5759541 1.7560093 0.10898651 0.64961773 0.38709867 0.51725787 -0.978044 -0.17219426 0.3769465 0.052646462 -0.8276683 -0.65035677 -0.7005755 0.11383614 1.0334595 0.20003726 0.15742455
春播作业 -0.25356287 0.47361812 -0.3562047 -0.7041125 1.2668196 -0.81065184 0.61664504 -0.33494526 0.04872699 0.14727885 -0.3495697 0.3914376 0.4725712 -0.26640987 1.6039693 0.47837764 1.2891629 -1.0779446 -0.8196595 0.21323481 -0.6179935 -0.07229541 -0.26147476 -0.08661311 0.13648023 -0.0077324063 -0.6245401 0.2512981 0.80583656 0.24300946 0.08551697 -1.1227309 -0.34387118 1.0093081 0.2632473 -0.6844205 -0.16128156 0.086657435 0.22462869 0.5638917 0.100885645 -0.692834 -0.38663077 1.7883574 1.0719298 0.5928322 -0.22000505 0.70426726 -0.67980325 0.6589435 0.26762202 7.906263 1.4344447 0.28218868 -0.19275762 0.37275213 0.721943 -0.26935762 0.7991056 -0.60243165 -0.28851852 -1.1775692 0.7157196 0.96561515 0.0636625 -0.58582807 0.017902922 -0.6989486 -1.0387498 -0.008631777 0.699165 0.96863884 1.8215969 0.25667998 -0.68228817 0.27357817 -0.017265283 0.079824254 -0.43209803 0.48630053 0.48589236 0.16709879 -0.56882626 -0.5404233 -0.59482086 -0.496111 0.38709396 -3.679869 0.21219343 0.6842827 -0.22884354 -1.3204019 -0.8152962 0.83711237 0.5104563 0.0477613 0.30848408 -0.0889745 0.48438376 -1.8557796 -0.952863 1.770774 0.05951359 -0.47316718 -2.4952576 0.25352204 -0.23297527 -0.6171518 0.071618006 -0.85229456 -0.5704967 -0.12322597 -0.3475933 0.4933743 -0.8958666 -0.3800713 -0.45589113 -0.21847448 -3.648385 0.08549544 0.5859401 0.2619688 -0.7429845 0.0027339011 1.6289165 0.020784438 0.21011889 0.38381323 -0.23777966 -0.3587679 0.9079982 0.5877553 -0.33687705 0.19665073 2.840918 -0.7337445 0.29565948 -0.25003204 -1.6131101 -0.04063411 -1.6494598 0.3531751 -0.22683866 1.0383375 2.6662676 0.23378168 -0.36735407 -0.31970003 0.012899134 0.8811227 0.15540104 -0.23810837 0.77725387 -1.2827874 0.29297483 -1.4211837 -0.13119477 -0.32516125 0.24865666 -0.24994428 -0.43925658 -0.6692964 -0.31441775 -0.5572625 -0.041628867 -0.9626433 -0.7665647 -0.56639534 0.079596475 0.89456123 0.0018593566 1.324033 0.66795117 -0.63846934 0.18488169 -0.34115934 -0.3446823 -0.4765517 -1.3994244 -1.1364175 -1.0602154 -0.2516386 0.122093074 0.015925985 -1.1784481 -0.8318795 -0.088871405 1.6895083 -0.5720349 0.34761417 -0.63877 0.54393387 -3.533192 0.053491414 0.26813698 -0.31196165 0.81151557 -0.7987821 -0.8027706 0.6522851 0.12262112 -1.9924432 -0.0844391 0.19424888 -0.51112527 0.51336384 -0.5499832 -1.1929476 1.2076471 0.08087872 -0.00823158 0.628079 -0.4040556 -0.8471585 0.089391924 -0.93304044 1.3221786 -1.2307659 -0.34046406 -0.8103687 -0.32883725 0.6993694 0.103919834 0.45624676 -0.3334795 0.0068616364 -0.38560927 0.066028126 0.5915333 -0.5482409 -0.118147 -0.5030188 0.8547337 0.3132157 0.8127439 -0.12197856 0.46399835 1.4254586 1.018889 -0.40200612 0.057681583 0.002856886 0.27554977 0.7847076 0.41911826 0.56198573 0.2739839 2.0268385 -0.51192474 -0.08616623 -0.61637634 0.21356328 0.42343745 -0.18648385 -0.8528397 1.5456135 0.22899993 0.37323955 -0.785864 -0.10603623 0.120959915 -0.04359357 0.8728258 0.33976725 -0.2190799 0.031956494 1.408116 0.10374428 0.25177425 0.044665687 -0.3613123 0.56538546 0.6327843 -0.18893838 -1.6569202 -1.0054218 -1.7309723 0.48918885 2.001341 -0.21978061 0.8656574 -0.14117819 -0.29902363 -0.16085216 -0.8187463 0.8012841 -0.67832005 0.5122796 0.034383327 -0.73843086 0.13502762 0.26886523 -0.56894517 0.009193063 1.4539294 0.30054766 0.43522784 0.6958094 0.8844649 0.25990874 0.40717226 0.16237934 -1.3739061 1.0372607 0.6780714 0.008942614 -0.0468378 -1.2040116 -0.35288584 -0.6622017 0.09626759 -0.90352654 -0.32079667 -0.72769356 0.14576483 -0.1769205 -0.6287586 -0.7261612 -0.46344563 0.19683835 -0.61367226 -0.37200844 0.5173945 0.44947803 0.18522923 0.21239792 1.2087321 -0.40164858 -0.4160719 -0.20813987 0.22442156 0.13663922 -0.0001068078 0.29285187 -0.04172472 -0.1507796 -0.88367206 0.055101335 -0.6743697 -0.5687232 0.112342134 0.15341872 0.8971821 -0.2724455 -0.056297526 0.23168717 -0.3637571 0.25323915 -0.20489894 -0.48949397 -0.4766324 0.6778443 -0.3373012 -0.063469425 -0.6072884 0.8681357 0.24322334 0.29836977 0.59732234 0.15110682 -0.39221367 -0.11962814 0.15732944 -1.419742 0.9517101 0.059724536 -0.19717662 -0.46845967 -0.10343222 -1.0447382 -0.7977676 0.76008296 0.76376736 -2.7249417 0.54419243 0.94314367 0.38391462 0.4893608 0.30860832 -0.74427956 -0.38545585 -1.0207703 0.3404378 -3.4759705 -0.21148175 0.07491038 -0.4509179 -0.39465463 0.42722517 0.21932386 0.07592198 0.5300649 -0.68386805 -1.3460184 0.44340307 0.48202407 0.5702083 0.21076384 0.5786861 -0.45052135 0.5474664 0.63703793 0.80938447 0.3174662 0.35686982 -0.98847294 0.6840042 -0.94288534 0.5749384 -0.6819543 -0.10418308 0.4710343 1.3642839 0.19556296 0.20675328 0.80817676 -0.4856724 -0.57330346 0.1581292 -0.26692116 0.2091564 0.7227553 -1.5893347 0.35861593 1.3531455 0.23289236 0.6497065 -0.64715034 -0.8344466 0.19762978 0.33248317 -0.12138583 -0.84886587 0.709672 -0.36656234 1.0211362 -1.0600009 0.3399 -0.119381115 -0.47555798 0.102991894 -0.8507035 -0.09739095 -0.6933766 1.0544745 1.9053015 0.41917327 -0.943805 0.3925401 -0.32008296 -0.10772844 0.20283769 -0.6632959 0.541874 0.594036 -0.18443713 0.40870017 -0.1813724 -1.0651703 1.2770646 0.43683556 0.42419332 0.50103575 -0.5294827 0.44150788 0.39217895 0.4536875 -1.3848305 0.48162493 1.1052812 0.09614357 0.5096221 0.46739316 0.12549622 -1.0221182 -0.014058806 -0.34574723 0.12788148 -1.2917094 -2.2324643 0.012526259 0.050738785 3.4105594 -0.10045801 0.5147166 0.07228215 -1.2407486 0.55347663 0.028111894 -0.19233151 -0.57504976 0.13532872 -0.117231116 -0.03663481 -0.41866058 -0.32048708 0.1383535 -0.3401869 0.16219193 0.2230992 -0.72845423 0.1947437 -0.015996248 -0.5536061 -0.40607318 0.2414049 0.19231454 -0.19875407 -0.10457854 0.058858275 0.94224435 -0.007966608 0.08530846 0.4561539 1.0073123 -0.48941952 -1.4146372 0.44373357 -0.44495833 0.31904393 -1.7099398 0.09878056 0.2697157 0.34778455 -0.548574 -0.3730132 -0.4811473 0.034444638 0.3240656 -0.6846141 -0.026020845 -0.40590876 -0.32479936 0.24857686 0.32738972 -0.2816406 1.7140136 -1.3495436 0.22655867 -0.24403122 -0.24389084 0.50625527 -0.23345524 -0.21724334 -0.2814764 -0.5186461 -0.22046924 -0.921469 -0.8364246 0.11924794 -0.3963995 0.80352134 0.16155109 0.6662779 -0.24898571 1.1574712 -0.19229862 -0.3153481 -0.20874533 -0.37301233 0.023602448 -0.16461697 0.6586748 -0.23441167 -0.4216122 0.39552087 0.40887308 -0.13000025 -0.04648231 -0.9143792 -0.047028527 -0.7515944 -0.16658399 0.24741173 1.8199083 -0.28467458 0.8571557 0.21967505 0.29265848 0.49006814 0.7661483 0.3928021 -0.10782853 -0.70461607 -0.2966596 0.30146736 -0.7011414 0.17533152 0.2192333 0.35655195 0.018788606 0.17465022 -1.5606765 0.41657764 0.020916611 0.41663387 0.54989636 -0.38139063 0.48693976 0.3818645 -1.1527123 -0.76118386 0.26197115 0.7276326 0.05303403 0.3614046 1.0923793 -0.5274166 0.23254326 0.8593513 -0.028419524 -0.43609244 0.05440726 0.270094 0.09018558 0.3426663 -0.58940923 -0.8462059 -0.07840333 -0.110863775 -0.75528437 -0.98509336 0.32572988 -0.3322332 0.4334903 1.030636 0.71408415 -0.58441234 -0.6786107 -0.40650243 -0.8246132 -0.5936452 0.021927334 -0.20938456 0.80618954 -0.7390367 -0.22703117 -0.71044546 0.08313455 -0.2944067 0.35706076 -0.3464625 -0.59508944 -0.053911738 -0.19072789 -0.89856994 0.61080027 0.83647674 1.6589774 0.114607885 0.84557694 0.76199126 -0.44140127 0.88981616 0.76012886 -1.1171123 1.1990414 -0.6205785 0.0016028732 -0.7104456 -0.41822588 0.27642825 0.86934215 0.6289445 0.41014838 -0.5992713 -0.12930566 0.04463461 -0.062408626 -1.1579804 0.59169465 0.5234004 -0.34916702 -0.35320476 -0.32143113 0.77410614 -0.7585588 0.43245018 -0.9543117 0.035682537 -0.15472181 -1.0630852 0.3216242 -0.16336218 0.7261309 -0.87641734 -0.6321608 -1.2426887 1.047649 0.038792163 -0.38300925 1.0491245 0.34610832 0.14260146 -0.7623796 -1.2510847 0.5072116 0.46492958 0.6123692 -1.3560427 0.71741116 0.09641017 -0.34349188 0.3429762 -0.9498307 0.2149564 0.09220487 0.43309462 -0.0006588772 0.9648297 -0.54867566 0.29744434 0.21503982 -1.3178489 -0.12937129 1.2332671 0.27535215 -2.0491238 -0.018873982 0.8735659 0.5293635 -0.37357137 1.7438765 0.16554713 0.83951414 -0.09934168 -0.63190186 0.94700277 -0.058234304 -0.6177154 0.54969 -0.40789196 -0.10759139 1.3195968 -0.53771657 1.3875139 3.1434186 1.159288 0.26360625 0.121332444 -0.29376826 -0.62258655 -1.396039 -0.054058712 0.05276577 -0.22178507 -0.40425754 -0.38277477 0.21178365 -0.46522766 -0.79644215 0.59386855 1.2730802 0.32161358 0.51426584 -0.46588296 -0.8041872 -1.3840292 -0.47616214 0.4608152 -0.27390915 -0.023841955 -0.2968781 -0.6887459 -0.045957014 0.7090411 -0.07712778 0.43494955
已开始播种 -0.4573598 0.3985284 -0.24418432 -0.42420155 0.5699281 -1.048909 -0.41982588 -0.3831166 -0.7890097 0.42844662 -0.33669797 0.10001172 0.6860322 -0.8347222 2.1387 -0.7782958 0.4142376 -1.6753143 -0.6643655 0.69007325 -0.4392671 0.03269726 -0.47906217 -0.6439174 0.24250737 0.32208136 -0.5111545 -0.39783058 0.4400224 0.24574451 0.32309172 -0.44237486 -0.32479548 0.31795293 0.7215402 -0.32379615 -0.13185611 0.06691134 -0.21547186 -0.08951861 0.09666162 -0.3801955 -0.50307965 2.1066494 0.28313133 0.19522385 0.5440306 0.68187976 -0.28697792 -0.032444194 0.45206326 7.7444215 2.238759 0.6536144 -0.7097035 1.0427105 1.5709728 0.43861532 0.14163874 -0.8786264 -0.04693927 -1.3646863 1.2542772 1.1276731 0.12661855 -0.84820133 0.088741474 -0.14906423 -2.056068 -0.5130069 0.25053388 -0.07390929 1.3289322 0.31997678 -1.1290543 0.10644409 -0.16887346 -0.12781931 -1.321073 1.2027514 0.9610247 0.4535959 0.010027099 -0.1677546 0.13442102 -0.37931344 -0.27990314 -4.11092 0.8408608 -0.36553812 -0.12448371 -0.6484067 -0.0059635118 0.019228468 0.65641844 -0.004389763 0.61902523 0.09126857 0.22957785 -1.8497765 -0.015604362 1.732363 -0.020557858 -0.21489331 -1.21844 -0.30185404 -0.672007 -0.9050223 -0.2458088 -0.85947675 -0.011432834 -0.4068492 -0.2630926 0.10566261 -0.27572444 -0.93451655 -0.25602707 0.11964905 -3.856423 -0.31097734 0.86858636 -0.29212055 -0.21465267 -0.5871742 1.0823387 -0.22692913 0.54640806 0.14517134 -0.4735416 0.088927455 1.0673896 0.46740404 -1.3802483 -0.14776336 2.9969566 0.15647173 -0.2023273 0.45913476 -1.0424846 0.20774302 -0.8594241 0.299515 0.047905184 0.5436165 2.2826903 0.6152943 -0.40183505 -0.665706 0.1438413 0.5709827 0.2379125 -0.46230036 -0.25415993 -0.4060189 0.45177114 -1.6789376 0.024027318 -0.41259155 0.7558094 -0.5983368 -0.62265396 0.9039537 0.32644567 -0.52794284 0.014818281 -0.7981225 -0.04070592 -0.40557244 0.3446275 -0.59613633 0.076129526 0.8824589 0.34247696 0.077379905 0.5366163 -0.45645574 0.18895759 -0.9380092 -1.1746022 -0.34969833 -1.1621109 0.13263217 0.027463278 -0.04780239 -0.883816 -0.5078014 0.14902197 1.4681622 -0.10282034 0.16917361 -0.6990206 1.2942964 -3.4524777 -0.1984313 0.060576946 0.5246086 -0.33364734 -0.34415 -0.7553495 0.52619994 0.04800205 -1.2702271 -0.31979454 0.27728194 -0.21940553 0.19008479 -0.6514302 0.33301026 1.4791108 0.09228527 0.037257522 0.19883727 -0.5433712 -0.7837308 0.7243067 0.31663412 1.30394 -0.2508643 -0.5269691 -0.73010325 -0.9309497 0.76878047 0.48894772 -0.8473859 -0.15400356 0.5008581 -0.474288 0.47457346 -0.5482881 -0.29516774 -0.13988627 -0.5303402 -0.21915436 -0.024032174 0.09319449 0.8330429 0.75725 1.8859752 1.3132325 -0.046799395 -0.35841691 -0.24687973 -0.5002966 0.50720304 -0.5615008 0.7099337 0.024070144 1.7810135 0.3824442 0.81213737 -0.09797762 -0.37590784 0.2307904 -0.22835676 0.14470388 0.787969 0.8769651 0.49845025 -0.48240754 0.10642053 0.5330776 0.085591145 0.6068322 1.0428721 0.8550761 0.3620392 1.0845103 -0.2702274 0.054063097 -0.004828766 0.13467209 -0.04789132 0.39632732 0.12889893 -2.105819 -0.40281597 -1.3467591 0.28090838 2.7412808 -0.16534457 0.5115867 -0.32642132 -0.17665686 0.03977651 -0.84688574 1.060159 -0.13012926 0.10911766 -0.4649682 -0.9846562 0.16558522 0.14727053 0.27702892 0.09940603 1.6899073 -0.7494345 0.45043007 0.15127614 0.73920655 -0.19798276 0.20189081 0.16485842 -1.3157456 0.61436754 0.7699847 0.10103485 -0.59804904 -0.15019462 -0.7558725 -0.60567 -0.031906515 -0.22182888 0.7399615 0.2606976 -0.703992 -0.43795237 0.3332609 -0.97127384 -0.011782534 -0.01660978 -0.30804962 0.07942466 0.49188516 0.44899753 -0.4893617 -0.6517441 0.6173768 -0.3718589 -0.18803367 -0.21573853 0.5733662 -0.20056693 0.64836043 0.6273589 0.042443957 -0.35300964 -0.6768517 0.82327557 -0.86540794 -0.64714175 -0.60008264 0.21584898 0.1331254 -0.099146634 0.4305743 0.5138408 -0.54147243 0.27296996 -0.021907866 0.088083215 -0.7703731 0.3528418 -0.5824966 1.3048997 -1.5345055 1.4219083 0.05692834 0.32171744 0.10373435 0.29013398 -0.57832193 0.45749944 0.16477683 -1.8521734 0.8993355 -0.4074962 -0.17545786 -0.39418766 0.0056925677 -0.77514076 -0.1858693 0.85758996 0.49375263 -2.349236 0.72178125 0.8676149 0.059176378 -0.032808125 1.7242483 -0.89136535 -0.24429318 -0.40915906 0.16719806 -3.9091504 -0.71512765 -0.02172704 0.6796657 -0.15576631 0.33131355 -0.25515914 0.09857269 0.72915304 -0.54377747 -0.6048955 0.17368367 -0.23239195 0.096812695 -0.22905102 0.58258337 -0.48482615 1.2772164 0.24125269 1.4724569 -0.24356113 0.15495677 -1.0977457 0.81921047 -0.39337724 0.2487916 -0.23765583 0.07653221 0.62687415 1.5774493 -0.538041 0.16631612 0.15855752 -0.65763545 -0.15041518 0.82784647 0.070961006 0.049509324 0.9764236 -2.226448 0.5706005 1.7709904 -0.31018376 -0.00500961 -0.09320645 -0.99510306 0.030434236 -0.34569955 0.05080456 -0.6814541 0.5272212 -0.59737504 0.5011471 -0.473559 0.528337 -0.44057783 0.1174427 -0.31664413 -0.5123885 -0.35604098 -0.6826019 1.4427905 1.7306658 -0.14846286 -0.31808293 0.5535179 -0.5714896 -0.2770269 0.18086155 -0.1287313 0.3381803 0.53366435 -0.1184745 0.22770754 0.10530823 -1.7043235 0.9604689 0.36982122 0.42229575 -0.033162806 -0.70829934 0.48382494 -0.37783346 -0.26128003 -1.0628172 0.8895837 0.8139931 -0.30803287 0.39860705 0.3510447 -0.21237864 -0.57044697 -0.24519116 -0.7754417 -0.64232355 -0.5978663 -1.9738132 -0.75875026 -0.07666077 2.3691342 -0.17135662 0.7329913 0.5631624 -0.65171075 -0.13095224 0.60855454 -0.039552495 -0.8383825 0.44956067 -0.42178246 -0.7131888 -0.79250026 -0.37239778 0.3426281 -0.21887228 0.17835566 -0.2585652 -0.31506005 -0.21535674 0.15990406 -0.75342804 -0.80615973 -0.45808536 0.1575019 -0.18833835 -0.3578 -0.77328324 0.853717 1.13559 0.17980404 -0.076913014 1.3110259 -0.13625915 -0.7899059 0.14626446 -0.42604482 0.2140121 -1.5234967 0.40441453 0.7379079 0.4845847 -0.12568739 -0.3633317 -0.5955391 -0.3259904 1.0665742 -0.032176524 -0.57627434 -0.4077441 -0.306036 0.026325844 0.7247744 -0.47156078 1.554869 -0.65780723 0.7740348 -0.25810838 -0.17966524 0.640401 -0.14325306 0.15226029 0.013646882 -0.117429346 -0.79063547 -0.86763674 -0.51669466 0.35755435 -0.023087226 0.85545874 0.24591231 0.24924043 -0.03732083 -0.08920734 -1.0918485 0.24070892 0.15717146 -0.23341776 -0.31552434 -0.45313957 0.26791418 0.21694179 -0.48725423 0.47676575 -0.23641542 -0.021380946 -0.518932 -1.328801 -0.0063970163 -0.1254975 -0.17535344 -0.22358453 0.9704152 -0.64398396 0.34149602 0.34358 0.43420187 0.051382206 0.6995527 0.19144939 0.19524759 -0.56610775 -0.23500307 -0.7120588 0.046435136 0.7159404 0.5811024 0.5239712 0.31150115 -0.06438428 -1.107935 0.28085995 -0.32935733 0.4698242 0.8675354 0.14482741 -0.6522694 0.6221333 -1.2574315 0.7185796 -0.16059865 0.3184126 0.7519381 -0.19732185 1.3853474 0.07109197 -0.22907904 0.43919137 -0.035952173 -0.7661726 0.93946606 0.09673131 0.80136216 0.29497108 -0.40515235 -0.67191917 -0.42461818 0.19989824 -0.61962813 -0.8834994 0.110667445 -0.36332917 0.20162895 0.69665325 1.4676046 -0.82820916 -0.07161667 0.017234758 -0.6740687 -0.30995816 0.058479995 -0.4171876 -0.026835838 0.21079578 0.058344312 -0.3251441 -0.03622622 -0.7142916 0.61380076 -0.11941768 -1.2557392 0.063282594 -0.160669 -1.2276971 0.8640773 -0.35440066 1.4097985 0.18356213 0.99145234 0.49461716 0.24601136 0.7855153 1.0044913 -0.60906774 0.77975154 -0.5359074 -0.19703303 -0.46117607 -0.76873636 0.47296816 0.5634012 0.7320144 0.9647802 0.052493513 -0.3120169 -0.026681483 -0.16803622 -1.4680254 0.61921054 0.48896396 -0.09573306 -0.516501 -0.8112458 1.2916466 -0.11942713 0.41001344 -0.87078273 0.116255224 0.22915094 -1.3893507 -0.5723457 0.0833325 0.31966147 -0.43997502 -0.23874062 -1.5049403 0.025837244 0.5316537 0.06125654 1.2105132 0.19568497 -0.3266782 -1.0249382 -2.2982883 0.11993892 0.18281186 0.1430536 -1.1131972 0.6785383 0.48080218 -0.20048168 -0.09723729 -1.5508963 -0.30079538 -0.8622526 0.8196783 0.3430747 0.4823071 -0.23309746 0.22131436 0.14827256 -1.2716938 -0.1350241 0.5404283 -0.045335867 -2.195622 0.42192397 0.5526657 0.5053191 0.47489175 1.3147569 0.08586619 0.6713072 -0.23442361 -0.20844375 0.8036634 0.27200684 0.28929183 0.43607047 -0.23784664 -0.6214163 1.5662774 0.4223561 1.2406511 3.2362921 -0.018926501 0.3745835 -0.2911058 0.16167061 0.28769475 -2.5622907 -0.05300461 0.022475973 0.13528444 -0.23822847 -0.7561278 0.090020776 0.021002784 -0.7373496 0.17681411 2.0715277 0.35127673 0.74735934 0.043741256 -0.4823641 -1.059195 -0.7698692 0.09506394 -0.051616754 -1.1452618 -0.65501046 -1.0595256 0.27806836 0.76147795 -0.32725844 -0.41880265
春耕春播 -0.6433473 0.1767864 -0.67560554 -0.978272 1.3365432 -0.4917363 0.1356802 -0.5438382 0.34363124 0.03709043 0.09244189 0.1755087 0.65664524 0.56977284 1.5698384 0.2322513 0.82033664 -1.5433068 -0.57152253 0.13964538 -0.44702256 -0.16550833 -0.22598153 -0.5147909 -0.49816605 -0.06325363 -0.72347033 0.13793015 0.7449119 0.28440917 0.48600605 -0.8372268 -0.12822522 0.45534134 0.6024904 0.18989538 -0.4550463 0.08937171 0.07769275 -0.050064247 -0.2786254 -0.9664184 -0.88479394 1.7172385 0.42019102 0.3740039 0.17402774 0.8928454 -0.8814589 0.15564212 -0.14001352 7.6522374 1.2763102 -0.14733039 -0.6460786 -0.17841743 0.686322 0.14321227 0.5284574 -0.5514448 0.5058742 -1.2131484 0.3091972 0.85884345 -0.22599557 -0.46081245 0.03493289 -0.53872913 -1.3434542 -0.23035704 0.76915705 0.46364823 1.8919365 -0.33895844 -0.914299 0.60247296 -0.23654267 0.3233837 -0.5330316 0.91331893 0.34195536 -0.3036936 -0.22610147 0.07392424 -1.246058 -0.6580056 -0.40954432 -4.1624756 0.21557063 1.0251216 -0.054692775 -0.917064 -0.2565167 0.1632184 0.74851036 -0.07390189 0.27881536 -0.56114066 0.7631379 -1.6934509 -1.3441647 1.734435 0.222515 0.1956566 -2.5262165 0.14725147 -0.50057924 -0.8001761 -0.41566616 -1.402888 -0.9632765 -0.20631586 -0.22899827 0.30783337 -0.8012959 -0.4343047 -0.73079306 0.13655989 -3.4575424 -0.4688607 0.5752379 0.6654952 -0.2906553 -0.2989283 1.8304553 -0.24429084 0.33419007 -0.041898996 -0.1480007 -0.3329511 0.9972962 0.20542358 -0.08660099 0.56117415 2.770409 -0.71103877 0.2800387 -0.36412212 -1.7135755 0.16702023 -1.2094386 0.45429602 -0.48942187 0.70251805 2.0683794 1.0485816 0.24402189 -0.19918709 -0.5094569 1.1279261 0.14012697 -0.5731 0.5515111 -0.9293655 0.26583946 -1.1774833 -0.8171336 -0.3371221 0.22604087 -0.4164996 0.13166286 -0.48991254 0.4326101 -0.12425372 -0.17174938 -1.2745285 -0.20959708 -0.6141732 0.65974647 0.32044867 -0.17874002 1.1089072 0.5045766 -0.9368668 0.3117011 -0.38760608 -0.41010854 -1.6290396 -1.079343 -1.1028409 -1.2937782 -0.023680203 -0.063331105 0.049139474 -0.7561351 -1.2242426 -0.4677687 1.6916636 -0.67986476 0.4079063 -0.58461946 0.2908817 -3.3300207 -0.3973173 0.83063835 -0.40815642 0.25833282 -0.28457734 -1.3112233 0.40392455 -0.14958113 -1.4365909 -0.16093957 0.31173414 -0.52513754 0.2149835 -0.16510648 -0.65756077 0.5866618 0.7045809 0.30326402 0.36968124 -0.21629022 -0.3584794 0.15096319 -0.61371446 0.9346081 -0.6699728 -0.66479695 -1.2358263 0.13131467 0.7618009 0.17749745 0.29768947 -0.26949808 0.047144577 -0.45612496 0.7508718 -0.17938885 -0.97376055 -0.6244734 -0.5304519 0.067317516 0.52239347 0.6236633 -0.52635056 0.8289522 1.2691395 0.9538678 -0.62815 0.30607665 -0.008105408 -0.07750971 0.7998993 -0.49842516 0.3130827 0.57930565 2.2633176 -0.38044593 0.419908 0.21265453 -0.56352025 0.5210519 -0.33986282 -1.3057486 1.3759518 0.45681286 0.7210467 -0.92098045 -0.32384482 0.2151821 -0.12404791 0.71674705 0.49428195 0.18308362 0.05393444 1.3364364 -0.24243525 0.8883997 0.6654676 -0.023369376 0.65952057 1.0605885 -0.38725263 -2.2321267 -0.51086664 -1.0919659 0.26119635 2.1408737 0.856294 1.1623834 0.18722442 0.118388 0.14440572 -0.938861 0.18667322 -0.6577482 0.10746774 -0.2215955 -0.4522133 -0.2761498 0.47034064 -0.814136 0.29803872 1.6274159 -0.27370936 0.2695224 0.5384247 1.4543794 -0.41554135 0.38860273 -0.51654357 -0.48940924 1.2798897 0.5162735 0.21838315 0.18833172 -1.3877165 -0.15429778 -0.3693607 -0.1112108 -0.65180457 0.1401492 0.1957536 -0.19303071 -0.051599987 -0.55384624 -0.8802237 0.36558598 -0.31312248 -0.13434257 -0.3252586 0.6392552 0.5363467 -0.06478804 0.7037379 1.3146099 -0.45878214 -0.25788105 -0.25441176 0.1149755 -0.0028122552 0.0045205615 0.5622613 0.8294607 -0.20110047 -1.1305281 0.44660056 -0.8181586 -0.2150143 0.37615967 0.8863394 0.7988342 -0.16988659 -0.0341577 0.21222429 0.09318965 -0.09350496 -0.06732693 -0.11496563 -1.0262116 1.0131712 -0.53540933 0.44759557 -1.3041338 0.6647613 -0.25188833 0.24739444 0.16149035 -0.3807711 -0.759784 -0.10958925 0.3569563 -0.8385729 1.1365705 -0.54988647 0.4221756 -0.503885 -0.5769508 -0.9004201 -0.37282646 0.84964037 0.379317 -3.3201418 0.658249 0.8404313 -0.09602062 0.4862237 0.40429455 -0.94373727 -0.1886253 -0.677987 0.6784748 -3.741988 -0.04078204 0.3867858 -0.36237052 -0.07920923 0.5199887 -0.10990992 -0.0910749 0.6866907 -0.89990807 -1.0426526 0.14831403 0.72692126 1.0803828 0.4162921 0.9616962 -0.5870978 0.2931973 0.080370195 1.5175322 0.6029575 0.047703605 -1.3198451 1.2141765 -0.07047153 0.3965167 -0.7029638 -0.012231119 -0.18180351 1.2890154 0.04260368 -0.0039283335 0.32862502 0.09261605 -0.2009377 0.53026795 0.12134953 0.29803872 0.4740349 -1.6248666 0.32986355 1.7486552 -0.009571224 0.6855293 0.5369651 -1.0721841 0.0022563636 -0.42142683 0.30062637 -0.30784512 0.2614472 0.14451683 0.31072265 -1.2953899 0.3356134 -0.00509011 0.041802395 0.46416566 -0.86621636 -0.24039581 -0.71926033 0.9972671 1.1590475 0.055592507 -0.8931477 -0.00248532 -0.29543462 -0.32837987 -0.2660643 -0.31053072 0.33211297 0.43482572 -0.2718775 0.4882167 0.09422642 -0.9386924 0.905879 1.0495422 0.14137815 0.5433785 -0.25949764 0.29906395 0.98108107 1.2588025 -0.9317916 0.32230788 0.26653537 -0.1558735 -0.024700131 0.4967519 0.19711083 -0.7561586 0.5371222 -0.7989539 -0.24374036 -1.4717646 -2.0395715 -0.05343412 -0.24802294 2.9583344 0.064745374 0.37457433 -0.06119199 -1.1103959 0.8362109 0.3875636 0.2828445 -0.8375119 0.27658474 0.23908292 -0.115844056 -0.19207838 -0.59107536 -0.03222901 -0.93561554 0.26084155 -0.34465325 -0.5475061 -0.14695099 -0.06806426 -0.6030261 -0.38248748 0.015434982 0.60955334 -0.38835457 -0.17874433 0.64167964 0.62075824 0.050382867 0.06371147 -0.26302573 1.0631608 -0.8115907 -1.6971561 0.46798968 -0.3458538 0.21155803 -1.1827867 -0.14445302 0.16755301 0.39530873 -0.4807782 -0.32329115 -0.1337508 0.17092371 0.4988992 -0.14718083 0.102151975 0.15841436 -0.0027936175 0.38177985 0.217382 0.3715347 1.7439203 -1.0505335 -0.27642384 -0.2596228 -0.035450116 0.13328832 -0.6472176 -0.5221488 -0.13485661 -0.90221447 -0.588704 -1.3568718 -0.49943873 0.6104208 -0.008162037 0.5542618 -0.49258533 1.0595801 -0.47890693 1.0666441 -0.47514948 -0.4652379 -0.2168361 -0.41306543 -0.043290883 0.6074065 0.23206137 0.26434276 -0.28955343 0.028328415 0.6614652 -0.56309575 -0.03534648 -1.0182626 -0.028819725 -0.34367892 -0.080371514 0.016416967 1.6504292 -0.52038366 1.0034413 0.39932624 0.9140333 1.0214108 0.8565122 0.37738445 -0.13805999 -0.6261203 -0.3957929 0.29515225 -0.40107444 0.11513595 0.36073595 0.028197885 0.2536711 0.25668073 -1.677128 0.43097132 -0.61410254 0.10460077 0.9041752 0.104120776 -0.18364727 0.7925946 -1.0318322 -0.47601312 0.60463434 0.42346162 -0.22991872 -0.11931069 1.4151943 0.12064615 -0.047335196 0.19259277 -0.1782354 0.22236016 0.31601292 0.091202036 0.14959529 0.7182096 -0.90963745 -0.51694065 -0.027709015 -0.21812269 -0.76331794 -0.5242032 -0.09523933 -0.35342512 -0.3626854 1.3353544 0.4928917 -0.9103581 0.029199496 -0.1286358 -0.4684951 -0.1379137 -0.7402103 -0.38816056 0.17046002 -0.14221637 -0.053245135 -0.8460195 -0.4062911 -0.5630546 0.0018256083 0.09064448 -0.3303145 0.30945465 0.25603124 -1.0401747 0.9123192 0.22445272 0.96733207 0.104942605 1.3201865 0.7634548 -0.68474317 0.37210983 0.9436253 -0.9370191 0.9594734 -1.2221996 0.47432372 -0.69156337 -0.51872665 0.15592399 1.081994 -0.029174268 0.4218778 -0.32413024 0.075610004 0.3447753 0.17087169 -0.92202806 0.8151084 0.6058087 0.3555256 -0.2040079 -0.18640357 0.5429069 -0.27245364 0.36097577 -1.244974 0.10315827 0.29696795 -1.1881489 0.07459278 -0.33283055 1.230414 -1.6431435 0.21997784 -1.0840459 0.94735926 -0.10887994 -0.7261132 1.4865875 -0.04424232 -0.44937497 -0.5732834 -1.0758747 0.7983217 0.45470577 0.46686104 -0.46664214 0.6738033 0.10494777 -0.72197604 -0.18842371 -0.17444648 0.1806624 -0.17270672 0.22444014 0.53947425 0.37787163 0.14329863 -0.07526737 0.1590455 -1.4678714 0.1032479 0.58417666 -0.07547728 -2.0231094 -0.2795747 0.33278763 0.35053575 -0.26027095 1.2373846 -0.23524305 1.1042902 -0.034456506 -0.98763853 0.41096568 -0.0015324354 -0.6887057 0.028167373 0.014744341 -0.21884134 1.5765101 -0.26471382 1.7590921 3.5194378 0.51973975 0.93495774 0.13605966 -0.121631145 0.008802667 -1.035078 0.08082812 0.15792656 0.07275094 -0.046647824 -0.17853136 0.58682394 -0.7943135 -0.8396279 0.5683292 0.9331852 0.040164135 0.39756805 -0.41525388 -0.1633229 -1.2334138 0.5247179 0.52350193 -0.21970388 -0.2982254 -0.94657195 -0.64869267 0.1355136 1.070766 -0.12644723 0.36974016
温湿度调控 0.1645757 0.7028289 -0.6884439 -0.4127547 0.8577092 -0.21099435 -0.232871 -0.9789825 -1.6211021 0.6089436 -0.067136176 -0.48350814 1.09874 0.74602616 1.64689 -0.8049841 0.708472 -1.7313664 -0.17339462 1.1175876 -0.52374387 -0.08554196 0.07485347 -0.15025441 -0.6654164 0.39198577 -0.2030476 -0.20083846 -0.5042348 0.18886735 0.46826962 -0.7212914 -0.058511533 0.7764679 1.2420925 0.1962937 0.17178467 0.38505656 -0.18663195 -0.039532084 0.39814085 -0.7416917 -0.75584114 2.065946 0.7030823 0.41100892 0.48274606 0.27682757 -0.46313956 0.57182175 0.52809596 7.5511017 2.1057703 0.71580607 -0.13636579 -0.63878006 1.1081712 0.9983946 -0.09330682 -0.9624026 0.194118 -0.6045073 1.1189047 0.8844638 -0.3672668 -1.1153342 -0.5849994 -0.183785 -2.0310931 -0.02251659 0.16030502 0.17715013 1.629372 -0.1640698 -0.59069085 0.14749418 -0.61956227 0.52184653 -0.35115132 0.124914706 -0.010419697 -0.020421017 -0.8325636 0.2981189 0.76578844 -0.15060455 -0.023838855 -3.8204703 0.060341567 -0.11817093 0.047222048 -0.04505896 0.121677935 -0.5213741 0.21560396 0.13232234 1.1002479 0.46785182 -0.50990385 -2.5514162 -0.712473 2.1416245 0.9368071 -0.24048935 -1.6847028 -0.08598371 0.2251584 -0.7849554 -0.690063 -1.4081303 -0.8872603 0.21176028 -0.30477163 -0.102216855 -0.9100305 -1.439325 -0.28213435 0.2568137 -2.6513724 -0.5821424 0.9999673 -1.0678527 -0.5333669 -0.55162 1.0175285 -0.03788531 1.1567435 0.9287741 0.57105386 -0.11669928 1.7345817 -0.62951225 -0.8738988 -0.045667276 2.719691 -0.007484768 0.30016446 0.59475094 -1.1012479 0.74505424 -0.6531626 -0.11772544 0.4167133 0.8412161 2.3730874 0.40667003 -0.22310904 -1.0371994 0.31460178 0.32966793 0.13869305 -0.049241915 0.06445945 -0.28185642 -0.42000973 -1.3437198 0.05257913 0.31567138 -0.5450387 -0.68382967 -0.7030892 -0.07023825 1.1150767 -0.2862659 -0.18857488 -1.201627 -0.072213426 -0.30907777 0.3721262 -0.33626974 0.037091516 1.1537008 0.11500874 -0.46590644 0.10238248 -0.83779985 -0.14366636 -0.76921433 -0.66727775 -0.9449043 -0.45143443 -0.12570795 0.29706052 0.05361939 -1.0429709 -0.3174524 0.03788179 1.1016487 -0.78917074 -0.31993484 0.07874632 0.56663406 -3.5690536 -0.06166692 0.21327804 0.6628124 -0.25119448 0.58527416 -0.66109574 0.23770288 -0.4119874 -1.1433899 -0.060412526 0.052815735 -0.4584483 0.13204709 -0.006114766 -0.47792113 1.8007948 -0.35804734 0.22578532 0.31287003 0.5384123 -0.7070738 0.117257684 0.0682755 1.3223991 0.4084827 -0.36945403 -0.68355656 -0.5248096 0.9467626 -0.021257766 -0.43829474 0.76590973 0.36100733 0.08353369 1.286919 0.12025361 -0.35372728 0.575212 -0.4886094 -0.46194035 -0.03724216 0.9886878 0.2686423 0.6183328 0.6910669 0.355455 0.51912904 -0.08981664 0.24180204 -0.72123206 0.12587069 -0.9061374 0.33915418 0.5002413 0.30611888 0.10841648 0.382998 -0.49583414 -0.24433537 -0.07104567 -0.7659428 -0.514408 0.49091777 0.87269896 0.11202264 -0.8587256 -0.23352063 0.2840777 0.11031255 0.4848318 0.49753112 0.56616616 -0.05788739 2.3843226 -0.5111846 1.0625205 -0.16134576 -0.8261059 0.056771576 0.034644492 0.24792664 -2.002174 -0.905077 -0.6274238 0.63192165 1.2541267 -0.24829395 -0.32051057 -0.096419856 -0.21632847 -0.24653104 0.3227809 0.11667838 -0.5954314 1.0505525 -0.21279195 -1.1147094 -0.18798228 0.15947466 0.3221617 -0.05617459 1.8771243 -0.8461844 0.68525434 0.18340138 -0.07254659 0.09630287 -0.36526564 0.06144312 -0.39359874 0.7761611 -0.4482321 0.108267516 -0.48633692 0.5313377 -0.5338995 0.034253255 -0.00824368 0.10656194 0.5286455 0.039475895 -1.0438335 -0.8198228 -0.024161302 -0.2253101 0.17898339 -0.2034108 -0.2956646 0.0032088608 0.5842258 0.82166743 0.06411053 -0.34675518 0.11547457 -0.5726476 -0.088392526 0.5017954 0.7697208 -0.14669532 -0.3448528 0.7483147 0.41172868 -0.45296693 -0.03459482 0.67551273 -0.7597381 -0.2639723 -0.63381267 0.11426836 0.54307765 0.009194553 -0.3216496 -0.8634955 0.06343361 0.34492666 -0.16568495 -0.2911324 -1.1866754 0.42275038 -0.8383284 1.0385115 -1.1782361 0.9978678 -0.74948806 -0.1199376 0.29906276 0.24920419 -0.14263785 0.5090077 0.46958905 -0.94542766 0.79637086 -0.7667524 -0.5923024 -0.88198256 0.011844762 -0.047537897 0.5382094 0.71651876 0.94661725 -1.9235764 0.008652818 1.1622409 -0.042722516 0.5980381 0.4887371 -0.8062994 -0.13447791 0.11123021 0.5600471 -4.3396487 -0.6382062 0.03682431 0.21324538 -0.87868637 0.1857814 -0.41885793 0.059846863 0.70464706 -0.2121873 -1.3421192 0.02493579 0.33255264 1.1615008 0.015464291 0.10709994 -0.5126608 -0.13539197 0.38401574 1.8752034 -0.73149616 -0.10446822 -0.18241598 0.881673 0.48587158 0.4679757 -0.5031427 -0.2371608 0.7612571 0.7932411 -0.22474512 0.6773276 0.2544384 -0.5826663 -0.4727744 0.40485865 -0.19829562 -0.24757493 0.40620023 -2.7090945 -0.16664776 1.5517446 -0.76170886 -0.56223685 -0.53409886 -0.44084466 0.5307268 -0.87660956 1.0009347 0.12266363 0.36902836 0.2870087 0.2252961 -0.8087675 -0.08954664 0.7657898 0.18797801 -0.2567245 -0.9364196 0.12371921 -0.57214797 1.7106807 2.0209942 -0.5585593 -0.3116309 -2.0424755 -0.7151394 0.35272494 -0.053062215 -0.19375767 0.27080047 0.6670097 0.093529224 0.84544754 -0.13120845 -1.7170374 1.4882394 -0.38602605 0.25311965 0.25617325 0.1751822 0.17132664 0.24205934 0.22593465 -1.4883423 0.7605338 -0.09201436 -0.3536498 0.30141383 -0.09735072 0.14751922 0.27037305 -0.75655234 -0.2926652 -0.10857932 -0.7375349 -1.4029648 -0.22414939 -0.8361142 2.4788098 -0.3156866 0.6058685 0.44561526 -0.07327538 0.29419085 0.39746112 -0.5321019 -1.2922617 0.011047885 -0.48627773 -0.67164755 -0.576873 -0.15945359 0.06678747 0.614346 0.16871783 -0.22188056 -0.5355495 0.35216555 0.4443884 0.43667948 0.8906521 -0.3840782 -0.40188342 -0.12877002 -0.4956485 0.5425769 0.15351248 0.14203471 -0.28398728 -0.2416565 0.32625622 -0.2546901 -0.55479574 1.0526725 -0.53117657 0.08690666 -1.8371757 -0.3717494 -0.13249597 -0.34737885 -0.7458654 -1.0673012 -0.14195904 -0.27125221 -0.11000326 -0.45957452 0.34950724 -0.27755475 0.13133335 0.7818546 -0.3002575 0.54045576 1.5076015 -1.0973308 0.3345825 -0.30713138 0.05935833 0.28104115 0.37414232 -1.0078695 -0.24186097 -0.90014553 -0.73061293 -0.26247326 -0.006492261 0.3009163 -0.31693533 1.146303 -0.10657478 0.71790403 -0.41571167 0.76616526 -0.942904 -0.42717656 -0.25063202 -0.33994383 -0.412013 0.26435018 -0.16591433 -0.47872043 -0.7006016 0.44294232 0.23892906 0.31290358 0.46183097 -0.90540206 0.4070349 0.78002095 0.02283983 0.15952033 1.5727116 0.71024173 0.5827762 0.6560646 0.07592616 -0.76609033 0.77673024 -0.013596803 -0.51396334 -0.5739951 0.3225252 0.5326091 0.16627955 0.33331814 -0.33399683 0.4850309 0.10779421 -0.24685234 -0.8097948 -0.26638204 -0.2173039 0.12985554 -0.014897093 -0.52972966 -1.0648293 0.18702674 -0.53722495 -0.61802185 0.7543476 0.33288658 0.71307164 -0.48389506 1.4887408 -0.522852 -0.37910202 0.15286908 -0.01038792 -0.15746564 1.0265708 0.06581557 0.43812206 0.52752244 -0.16372266 -0.7667053 -0.80198467 -0.43199936 0.11816825 -0.9264481 0.14591232 0.18332556 -0.281789 1.8294114 0.7593228 -0.09139231 -0.26387292 0.16200575 -0.3417641 -0.124266334 0.043526337 -0.08438337 0.6226118 -0.65012395 0.5465213 0.6854618 0.028731644 -0.7367859 0.5459899 -0.6616483 -0.3863711 -0.28591406 0.19175237 -0.14201547 0.48286763 0.27209586 0.54100907 0.10199164 0.37721568 1.4633682 0.68085337 -0.027745813 0.27601224 -0.34891686 0.93891287 -0.71765447 0.29604217 -1.2317617 0.2310479 0.27985904 1.2704905 0.9494893 -0.7665214 -0.85951036 -0.47539118 -0.10711849 0.6227924 -1.2230079 -0.01305002 -0.05271499 -0.09751576 -0.048774265 -0.5265622 1.1412138 0.10072596 -0.5954891 0.0856614 0.2595553 -0.023574434 -1.8352787 0.80604887 0.07837757 0.68213534 -0.51162344 0.6338587 -0.8970022 0.2083222 0.43507582 -0.103448585 0.65690196 0.2739288 0.24288031 -0.57641643 0.07656407 -0.29433724 0.38457808 -0.38752824 -0.51489085 -0.4919167 0.31190103 0.2556518 -0.08559361 -0.70950085 0.6608651 -0.48998308 0.96888936 -0.2875286 0.18808357 0.051734343 0.7846694 -0.3114835 -1.2529263 -0.82252884 1.1750021 0.042079467 -1.8857278 -1.0119443 0.6268427 0.26314643 -0.84109807 0.45734662 0.41109014 0.3273451 0.05698789 0.054739125 0.12643538 0.27413633 -0.25669295 -0.24485594 -0.97935057 -0.3813485 1.8437053 -0.23735747 0.77938104 4.2696085 -0.14939785 -0.3842272 0.17251101 0.83409405 0.21936418 -2.3361502 -0.38364333 -0.0048951805 0.5033459 0.05802021 -0.72425413 0.9546214 -0.13247743 -0.3122804 0.2423951 2.403635 -0.658705 -0.11184442 -1.5858723 0.005544126 -0.8503265 0.34980732 0.012043737 -0.07236798 -0.2982281 0.014693938 -0.13118163 0.16290255 -0.10391101 -0.7606094 -0.19305666
做好春耕备播工作 0.6661593 0.22660618 -0.92305446 0.6154271 1.0710201 -0.44415927 0.6282082 -1.394703 0.16141006 -0.61992216 -0.91549426 0.016134948 0.102495715 -0.3900544 1.3887913 0.05926701 1.3959367 -0.8918737 -0.14638057 0.05964657 -0.64201844 -0.9966532 0.034878917 -0.8233423 -0.31181103 -0.49194577 -0.08613129 0.20699784 -0.23716383 0.7139257 0.23607534 -0.7574565 -0.44851345 0.34292728 0.1267083 -1.1025333 -0.23649108 -0.07337172 0.07795563 -0.14238216 0.40353498 -0.38348338 -0.22918792 1.5826764 1.2163441 0.3661578 -0.15108551 -0.13785328 -0.644004 0.83945745 0.5392922 8.246656 0.891944 0.33985025 -0.59869564 -0.17191093 0.14830518 0.06529698 1.2969868 -0.6236715 0.10031404 -0.049379542 0.55737853 -0.03308902 0.92758703 0.1403549 -0.48692584 0.12884808 -0.86942214 0.86285645 -0.0064148456 0.16318935 0.5665697 -0.066451706 -0.71115327 0.26491234 0.15135005 0.2691471 0.14448808 -0.17766257 -0.25969455 -0.40720344 -0.20098867 -0.8653047 -1.1792257 -0.3097074 0.12344011 -3.0939422 0.7653627 0.87196535 -0.051656313 -1.3294188 -1.1215869 -0.6368675 0.6118244 -0.22473264 -0.264374 -0.61048174 0.61824876 -2.1315937 -0.2052741 1.6837053 0.47824425 0.8971026 -1.8436077 0.38765812 0.3711195 -0.38437855 -0.12728027 -0.1825095 -0.17934805 -0.19428363 -0.30986527 0.9814647 -0.9478014 -1.077324 0.08296193 0.09159711 -3.2356012 0.22174673 0.6369918 -0.35018656 -0.3882289 -0.8129598 0.50556153 -0.41407603 -0.3610702 -0.26408878 -0.08932587 -0.28709552 0.18574905 0.18962099 0.06733233 0.7604258 2.3483303 -0.84223104 0.15644217 -0.4766562 -1.2188302 0.20482504 -1.1530745 0.7173086 -0.57902926 0.30874777 1.8857622 0.11626231 0.0007830262 0.56714547 -0.41912746 0.61727685 0.0051995814 -0.396134 -0.076336496 -1.0106924 0.21850888 -0.64385265 0.046705592 0.23724398 -0.2974776 -0.26891583 -0.3056974 -0.2934033 -0.81823283 -1.1628613 0.48232487 -0.99842185 0.16228834 -0.77993476 -0.4357098 0.38932562 0.27719045 0.94630885 0.7416985 -0.68140566 -0.07630442 0.068592176 -0.3321156 -1.9442911 -1.0337474 -0.70474076 -0.5134723 0.3727873 -0.3200168 0.66152376 -0.5233437 -0.98116577 -0.28683177 0.8642519 -0.063406 0.24303183 0.32946196 0.6362334 -3.736498 0.10391618 -0.1288155 0.15043679 0.24815091 -0.509118 -0.4250896 0.35360977 0.5911721 -1.5770823 -0.057114176 0.2787046 -0.8274578 0.5119432 0.09924979 -1.3563678 1.4900925 0.48897943 -0.32283285 -0.37903613 -0.048547342 -0.40482697 0.27948713 -0.17030999 1.4323512 -0.4723428 -1.335025 -0.5912123 0.07262089 0.54310954 0.44892567 -0.5242284 -0.3304276 0.445411 0.04851833 -0.0965063 0.38547692 0.21907097 -0.16630988 -0.3351064 -0.41756365 -0.10353645 0.6884797 0.7196859 0.35450292 1.1257383 1.1593055 0.10074462 -0.20744951 0.46549 0.10826835 1.0385375 0.60988754 0.9486584 0.4133183 1.0678035 -0.17246139 -0.42529833 -0.5170081 -0.70320946 -0.18593657 -0.6759158 -1.3397036 1.188387 0.76845706 1.0369343 -0.3934399 -0.5741568 0.54007447 0.028025141 0.7942284 0.7618441 0.4379599 0.36728948 1.06762 -0.36300108 0.13635308 -0.23588543 -1.2980056 1.4857141 0.19104066 -0.11741766 -2.0507135 -0.2641155 -0.89425737 0.04745055 1.9590633 0.03788398 1.1013341 -0.6050484 -0.742255 -0.29662317 -0.49379116 -0.47702432 -0.05800574 0.1807923 1.0793815 0.056995735 -0.0057387054 0.08974218 -0.3764649 0.013096586 1.8113503 -0.81639445 -0.25099793 -0.13398059 0.7975031 -0.021477073 -0.94863653 -0.29018658 -0.9425351 1.1626093 0.12388625 -0.8459542 0.8183578 -1.0707982 0.13510436 -0.43932423 -0.18136398 -0.057319853 -0.33751297 -0.061638564 -0.55435085 -1.423487 -0.13361359 0.53388196 -0.095119685 -0.118127674 -0.29077098 0.97172105 0.90008897 1.1013305 0.46941048 0.90340614 0.6815384 -0.43260795 -0.33496484 -0.18429318 -0.64506626 -0.74506295 0.8305726 -0.07969757 0.68820417 -0.24357164 -0.69156635 0.31876448 -0.8178597 -0.8859489 1.00934 -0.5660177 1.101392 -0.22820151 0.0024481565 0.18689737 -0.104837 0.7592517 -0.17841886 -1.5032898 -0.6025511 0.46580744 -1.0045937 -0.34745663 -0.6970972 1.0144515 -0.47641146 0.32007992 0.8634852 -0.6369403 -0.5147908 0.1349549 -0.07274252 -1.5295285 0.3160565 0.6718605 -0.1917586 -0.023212526 -0.113335416 0.6481921 -0.33423448 -0.11711803 0.23483533 -2.3461285 0.2606088 0.33030248 0.4244509 0.5703026 0.2877583 -1.189988 -0.6939273 -0.74329764 -0.25580287 -4.0765276 -1.2423241 0.36913455 -0.030775134 -0.702712 0.29284048 0.8740124 0.42923152 0.16964121 -0.18956839 -1.4001621 0.49266288 1.5219897 -0.0379583 -0.51060134 0.07206804 0.7699953 0.21014462 0.0025036149 0.9267868 -0.06937137 0.037341744 0.22721346 0.17506783 0.2850662 0.8915183 -0.6561559 -0.6240752 0.765601 1.4881287 1.0124651 -0.21137238 1.1467953 -0.091151305 -1.1021225 1.2851981 -0.550635 0.094409384 0.27510846 -1.926105 0.23216236 0.5190135 0.014995754 0.37370434 -0.1644883 -0.46896255 0.10143161 -1.2827963 0.13006832 -0.5293758 0.13937217 -0.5234177 1.0375657 -1.1275197 0.5221822 0.20732817 0.16909085 -0.22652796 -0.5142983 0.807497 -0.25952914 1.0664481 1.1119152 -0.86048114 -1.3041898 0.005780086 0.18351918 -0.2422986 0.34561303 -0.594995 -0.0091184825 -0.028749041 -0.25888494 -0.56535184 1.259545 -1.6931779 1.4440066 -0.01084122 -0.64901066 -0.5729123 -0.9510195 0.42288023 1.2118244 0.5480885 -0.25517896 0.37938824 0.7048954 -0.6577793 0.71395856 1.5840331 0.6586292 -0.059991166 0.34577352 -0.22816426 -0.4016295 -1.3556266 -1.5632533 0.86372006 -0.0044838004 3.1108487 0.02111156 1.2209936 -0.27569026 0.035640746 0.026435263 0.55558157 -1.1446267 -1.1355321 -0.29014704 0.3323843 -0.2729224 0.30485162 0.18255618 0.09433298 -0.62433445 -0.93481576 -0.38874936 -0.40656736 0.112897694 0.4750769 -0.615567 -0.23629233 0.07905993 0.36553875 -0.64321315 -0.31076372 -0.22134306 0.34337655 -0.0526279 0.26650876 0.5147811 1.0009143 -0.14905654 -0.29308802 0.2143275 0.06593319 0.22077762 -0.6274772 0.55519056 -0.065157756 0.5277601 -0.45505872 -0.99906397 0.19109324 -0.055942893 0.2563106 0.19294824 1.3666927 -0.84130996 -0.22886406 0.36005408 -0.7236588 0.15749379 1.4332131 -1.5400965 0.4141966 -0.19832914 0.53515494 0.28817958 -0.22401921 -0.52882874 -0.6296376 0.14369476 -0.2062053 -1.4759779 -0.31991985 0.5187639 -0.58659136 0.3167043 -0.97197926 0.7236897 -0.63410544 -0.03345318 -0.246768 -0.23124507 -0.1718305 -0.9664584 0.24064393 -0.7200203 0.3157956 -0.20501289 0.21305293 0.20154203 0.34048444 -0.34436607 -0.10642555 -0.8993266 -0.53313196 -0.63618195 -0.22450185 -0.05107364 1.5206097 0.1944073 1.5936599 1.2955155 -0.33137438 -0.09080573 1.0098182 0.6012301 0.1876066 -0.24096635 -0.24731842 0.56847155 -0.40974647 0.21320224 -0.34189862 0.13319081 -0.6243526 -0.18319458 -1.4989705 -0.106624454 -1.3022592 -0.04562318 1.5944386 0.12972291 0.24247098 0.56417745 -0.38582805 -0.6181627 -0.09574755 0.2616011 -0.2543314 -0.17853332 0.6243583 -0.7157881 0.9903367 0.28725585 0.11317345 -0.6082524 0.12121171 -0.6574514 -0.110140875 0.52768373 -0.55431074 -0.63626575 -0.68408746 -0.86312425 -0.5039275 -0.37239295 0.4654314 -0.87892187 -0.2689363 1.4935489 0.9288875 -0.053765684 0.18148339 0.2432952 -0.3210845 -0.20085424 0.4098001 0.05678045 -0.6696859 -0.68402606 -0.23124391 -0.98613274 -0.32766414 -0.3574443 0.4336327 -0.22342518 0.07725734 -0.6958073 0.3321424 -0.6839493 0.11944559 0.055660635 0.98965245 -0.102896474 0.6702456 1.0003915 0.39245534 0.17500603 1.0505402 -0.69659907 0.5625978 -0.11403367 -0.36883515 0.11648997 -0.2210549 -0.79936713 0.7328649 1.1107869 0.5972355 -0.21450856 0.35815015 0.107150435 0.20811722 -0.33833355 -0.10899466 1.2325873 0.1799645 0.0934465 -0.49397612 -0.5478387 -0.1499853 -0.16050228 -0.96049434 0.2406854 -0.115935594 -1.517497 0.6307412 0.6846251 0.227768 -0.8439827 -0.30357355 -0.47932386 1.0185413 0.0700149 -0.86194336 1.2243266 0.5847493 -0.28968287 0.13749121 0.70981205 0.6076165 -0.034773733 -0.26543602 -0.9649381 0.17038138 0.72613347 -0.45327508 0.09431809 -0.24609934 0.37793875 -0.27060455 0.5854153 0.16391742 0.4039832 0.045551762 -0.32682413 -0.3934098 -0.5669872 0.122562595 0.4554888 0.04064651 -2.1024961 -0.055157788 0.4284743 0.3641478 -1.330588 1.5429844 0.076455764 0.08984757 -0.45313424 -1.3441523 -0.11410326 0.77095854 -0.53832424 -0.03499403 -0.25871083 0.762225 1.2724621 0.7494994 0.9672139 3.8833377 0.8004003 0.64766777 -0.5773403 -0.06762493 0.75517154 -1.3650451 0.5160476 0.20867963 0.11089565 -0.3284388 0.51349235 0.6803713 0.2367748 0.10169118 1.2607414 0.8487325 0.16958049 -0.29414713 -1.546231 0.12276715 -0.22389792 0.090668574 0.18830965 0.05279722 0.19959056 -0.012210168 0.25055823 0.47452438 0.8719435 -0.5220646 0.23518467
要积极开展备播工作 0.13662133 0.10602997 0.056033395 0.7138212 1.0205826 0.24560991 0.94580346 -0.9167376 -0.91392183 -0.81361383 -0.8831632 -0.24624719 -0.06802991 -0.82027334 0.94545895 0.09650341 1.1787057 -0.41092753 -0.31122845 0.6735255 -0.5440184 -0.51671743 0.61890084 -0.78108615 -0.04795748 -0.82242703 -0.08899067 0.2843594 0.02755951 0.29816484 0.51371735 -0.53802764 -0.36958793 0.2009778 0.13925159 -0.8343518 -1.5329988 -0.2382635 -0.9627368 0.19104527 0.058621086 -0.3277774 -0.5501249 1.6673222 1.0321587 0.12314901 0.21758041 0.27170357 -0.7347186 0.30265605 0.5544586 9.595331 0.689319 -0.6120357 -0.0778068 -0.15770711 0.9117443 0.48719317 1.4298149 -1.300332 -0.0727919 0.06255371 0.97938395 0.38731384 0.89027965 0.079747126 -0.14473462 0.12521271 -1.5149413 0.46213812 -0.3854875 -0.38122454 -0.19734964 -0.081382774 -0.3380391 -0.4308229 0.34514603 0.87046826 0.1999748 0.5185179 -0.3994754 -0.078057416 -0.37489605 -1.1245255 -0.30248535 -0.26688904 -0.24262372 -2.4789355 1.4392614 0.47829074 -0.16075832 -1.0743809 -0.4742212 0.83972716 0.50638914 0.45437497 -0.00797189 -0.5483601 0.018579584 -1.7565709 -0.24486178 1.3170775 0.5245117 -0.17180476 -0.6025989 0.9167245 0.13685411 -0.1520243 -0.22856031 0.056145865 -0.28817174 -0.46715832 -0.5373373 0.40461892 -0.9408768 -0.27082798 -0.08290545 -0.1560202 -2.3648868 -0.008613445 0.8368596 -0.5545712 0.38759923 -0.28551397 0.3925302 -1.0581245 -0.48379973 -0.48905358 -0.16600548 -0.010875866 1.16703 0.12948547 0.42007262 0.2737301 2.1567364 -1.2281579 -0.45796824 -0.19687277 -1.189008 -0.25496554 -0.9916377 0.26148638 -0.041633543 -0.018384278 1.9564013 0.5197667 -0.8751271 -0.12448159 0.6995258 -0.33014166 -0.76021355 -0.50678986 0.04787781 -0.20162 0.028956726 -0.86407113 -0.34199625 0.21619079 -0.13352053 -0.19196019 -0.14124484 0.4029106 -0.4101441 -1.2185471 0.4769351 -0.25226665 0.29192567 -0.4400492 0.5467579 -0.24744304 -0.26114827 0.48999372 0.4863917 -0.09015435 -0.3155567 0.32001847 -0.4827429 -1.3058126 -1.3668851 -0.0029413998 -0.055317085 0.58608216 0.23706564 -0.010521114 -0.314992 -0.49965456 -0.14609188 0.009208061 0.36387086 0.4789464 0.39064816 0.71163595 -3.4910738 0.016985208 -0.12972091 -0.03246312 0.29812402 -0.32242247 -0.1646045 0.24372166 0.1250408 -1.2504815 -0.10237284 -0.5245061 -0.5618204 0.47568697 0.30976754 0.092144504 1.3240904 0.57391375 -0.45979476 -0.62808186 -0.005125895 -0.5740375 -0.1419088 -0.57762814 1.2610439 -0.30560166 -0.82550323 -0.16239725 -0.21789438 0.4988471 0.25120705 -0.57183945 -0.68641466 0.2739294 0.042576104 -0.5172919 0.66931266 -0.027940467 -0.6986886 -0.74097216 -0.039152283 -0.60362315 0.64004517 0.7715647 -0.28596893 0.85484767 1.1898568 0.14696589 -0.86273587 0.7080642 0.37265542 0.8715968 -0.18978031 0.33942077 0.34488425 0.36788908 0.42667753 0.061564177 -0.12804855 -1.217665 0.054131344 0.8956328 -1.0087574 0.5492146 0.64365447 1.0638338 -0.0076761246 -0.36282578 0.93008125 0.7754102 0.58737785 0.7957563 0.2937076 0.437473 0.9626343 -0.28376606 0.18423253 0.19266984 0.24001208 1.2958888 -0.3264118 -0.60511744 -2.4776511 0.0022435486 -0.63043976 -0.012509117 1.9701635 -0.012782964 0.987323 -0.7642088 -0.31608415 -0.14223614 -1.2737279 -0.24863514 0.211885 -0.07217727 0.9136869 -0.16754171 0.057711817 -0.1319088 -0.8237727 -0.7838836 1.6730845 0.29217005 0.2744363 -0.4852421 0.39032766 -0.018328726 0.13268408 -0.21348546 -1.1170056 0.4119072 0.6393519 -0.43372488 1.4235322 -0.33622026 -0.09559743 -1.0947213 0.10828713 0.31834912 -0.48185664 -0.3709542 0.14585364 -1.7088159 -0.10904229 0.3865488 0.21782379 -0.30805537 -0.34264502 0.0732168 0.3716961 0.36312494 0.15569414 -0.117379546 -0.20588319 0.07379153 0.010888152 -0.18539634 -0.78105026 -0.55671555 0.7185198 -0.051765792 -0.019743882 -0.5087983 -0.8580394 0.6784388 -0.43745917 -1.2226665 0.30601197 -0.75611097 0.6816891 -0.25609994 -0.31464773 -0.2618522 -0.73748195 1.2843138 0.13835996 -0.72637576 -0.27024615 0.17706446 -0.4050886 0.6975183 0.087069124 0.8356963 -1.0148083 0.17751093 0.7749472 -0.41340172 0.080988735 0.32605556 0.5718967 -1.0976523 0.3220021 1.1439339 0.05689679 -0.18500142 -0.25784338 0.58799446 0.06601806 0.10808894 -0.03210093 -2.3092492 0.8981654 0.15090322 0.92605495 0.70180196 0.05367318 -0.73277444 -1.4361248 -0.6072717 0.014558546 -4.9911885 -0.80075693 -0.23199412 -0.0985914 -0.5015105 -0.28533077 0.17288361 -0.091670364 0.43125987 -0.21098946 -1.7483846 0.17483729 1.8883358 -0.5641709 0.050311014 0.27733248 0.6164367 0.54881954 -0.112881996 0.47020346 0.0675975 0.7108323 0.27246332 0.00088252546 -0.42803806 0.9849852 -1.1633322 -0.31842235 1.1601111 0.6047618 1.1819153 -0.15107252 0.3929044 -0.15376551 -1.143011 0.53259057 -0.25039688 0.7583602 0.19419259 -1.8121741 -0.51822495 0.7762364 -0.059205674 -0.2765816 -0.27013776 -0.636175 0.6102046 -1.3295319 0.26211235 -0.22156627 -0.07951926 -1.130626 0.9338051 -0.05394314 -0.37998706 -0.33351114 0.6777697 0.34201813 -0.4926659 0.32275024 -0.37269938 1.231074 1.4473755 -1.0217682 -0.929515 -0.099261716 0.3378524 -0.0732811 0.65511924 -0.39560083 -0.06295552 -0.11759819 -0.64179707 0.42160857 1.1039004 -1.3642697 1.0314306 -0.48818582 -0.48528314 -1.0097436 -0.9479256 0.7909525 0.0070126355 0.6249783 -0.103690855 0.45014438 0.8048806 -0.31620628 0.51276433 0.9915126 -0.18415679 0.18785903 -0.30416855 0.21763244 -1.1461653 -0.57499444 -1.7095124 0.19715531 0.016434615 2.3197498 0.4476088 1.2373884 0.50997424 0.5043981 -0.85837835 0.36826873 -1.0350823 -1.4187921 -0.28253305 -0.004064299 -1.079686 0.102498226 0.35586473 0.4203007 0.24271697 -0.96425533 -1.194415 -0.70341575 0.11215696 0.7230056 -0.50988424 -0.22169062 0.30281845 0.4737426 -0.33740857 -0.19004533 -0.72160304 0.6948632 -0.08126687 -0.22080407 0.15200084 1.0542862 -0.08870445 0.28625923 -0.23677777 -0.4565826 0.44727337 -0.3238489 0.23076458 0.14863625 0.21371819 -0.15100329 -1.4310127 0.65734255 0.11256928 0.47962222 0.20190474 0.5581278 -0.62044907 0.048373505 0.902221 -0.21053402 -0.024440581 0.7889909 -1.4403162 0.27811056 0.1792903 -0.1108771 0.21678919 0.5284558 -0.8126864 -0.03522184 0.18070453 -0.23967125 -1.1183037 -0.19560888 0.35956985 -0.5138269 -0.4854526 -0.34259102 0.80479145 -0.018434562 -0.3901803 -0.4397486 -0.16155142 0.67678624 -0.7929611 -0.16252936 -1.1184642 0.17465313 0.011308085 0.4620893 -0.111308254 0.07138956 0.013996303 -0.5408051 -0.98812896 -0.09091627 -0.22255112 -0.3698898 0.2156826 1.3842041 -0.5254595 0.7480631 0.23248272 -0.37623224 0.04893659 0.81594443 0.0016115904 0.5312828 -0.42767033 -0.26149347 -0.38520113 0.5267322 0.8807427 -0.38394618 0.14507699 -0.36838394 0.119307026 -0.8060355 -0.39174837 -1.070374 -0.4098332 0.88397294 0.41188502 0.56644636 0.59638083 -0.23885456 -0.0412666 -0.57120174 0.87837183 -0.4402222 -0.039864004 1.1150812 -0.17114022 0.2559066 0.6655874 0.5123275 -0.90029854 0.055109795 -0.19224271 -0.5409029 0.64829373 -0.761191 -0.37546825 -0.65334094 -0.66660476 -0.8050201 -0.7261552 0.41723222 -0.5108163 -0.82847434 1.57158 1.7687296 0.20054063 0.0396173 -0.3997181 -0.56492436 -0.2673484 0.1874957 0.23282066 0.23003983 -0.35307047 0.009967104 -0.8877743 0.08530997 -0.5677224 0.45606777 -0.095868155 -0.6796542 -0.51874316 0.6972938 -0.3217762 0.1903837 0.27965695 0.67476666 -0.0480225 -0.08048512 1.4232148 0.6090643 0.45005387 0.70972943 -0.18788199 0.25431588 -0.4328216 -0.17221574 -0.78234863 0.07950641 -0.81503433 0.3646973 1.074855 0.51229084 -0.7117654 0.60542095 0.1616875 0.77593434 -1.0997701 0.5863419 1.3446946 -0.15815276 -0.26063812 -0.6226825 0.1416184 -0.42064524 0.0014285669 -0.53807455 0.4784046 0.056692336 -0.59181595 -0.12550221 1.023554 0.13617492 -0.75284743 0.30475223 -0.7686281 0.54163355 0.7549709 -0.8954619 0.2530975 0.8940406 -1.0043527 -0.40501794 -0.33238208 0.50785094 -0.010999657 -0.086931966 -1.3282183 0.1469963 0.29140598 -0.31906235 0.774361 -0.3073917 -0.0033312738 -0.47518408 0.67404246 0.23081961 -0.15836826 0.32393163 0.13477673 -0.45677957 -0.13154438 0.05811602 0.2521672 -0.5263276 -1.3982434 -0.35992458 0.67756724 0.38365173 -1.2829614 1.5672755 0.38713026 -0.89055973 -0.61264014 -1.2585216 0.35957175 1.0367538 -0.25249493 -0.24134079 -0.08827636 0.58735067 0.8261397 0.5374683 0.8326515 3.8470566 0.62014675 1.2935944 -0.6183973 0.013198912 0.46878523 -1.0174377 0.979281 0.9025973 -0.56003726 -0.31115118 -0.1675462 0.16973275 0.21373574 -0.2808024 1.5242976 0.49451947 1.0587962 -0.37410492 -1.4991397 0.4163665 -0.18774255 -0.27083606 -0.5282862 -0.11034672 -0.28509265 0.32663637 -0.23618153 1.0209919 0.92069626 -0.51324815 0.09289665
应加快整地 -0.4968707 0.6058556 0.5014634 -0.6452865 0.19136041 -0.17050327 -0.22643912 -0.79968095 -0.12044662 0.52728814 -0.1991431 -0.10688247 0.7405885 -1.3368264 2.0152602 -0.7334292 0.6157994 -1.7261171 0.05789156 -0.017835256 -0.21868101 -0.21761513 0.037459996 -0.78473204 -0.16275987 0.22615746 0.08370566 -0.2850648 -0.18457948 0.5329688 -0.029514384 -0.71318954 -0.20175901 -0.13555938 0.7316321 0.08629127 0.78228706 -0.28405306 -0.115498796 0.06292857 0.31087357 -1.1263648 -0.670071 1.5603722 0.7132955 0.24278414 0.45600158 0.29424644 -1.1318045 0.08494681 0.29699215 10.384869 1.8309518 0.46954927 -0.7235253 0.0910414 -0.009504899 0.24570148 0.8103309 -0.70823544 0.23624066 -0.52295995 1.2434312 0.46461427 0.69554055 -0.10081352 -0.17591275 0.5129267 -1.1954477 -0.087398656 -0.30769783 -0.8856355 0.49258825 0.3180107 -0.9718165 0.23176162 0.16387378 1.13763 -1.298593 0.7650121 0.9322817 -0.7711566 -0.14529964 -0.24604078 0.120443 -0.4188554 -0.23769003 -3.0714467 0.56863993 0.48158497 -0.1430859 -1.4724956 -0.15037239 0.21927413 0.68130136 0.5975668 0.47865322 -0.5001607 -0.029906286 -2.0721161 0.2976753 1.479438 0.4327811 0.36371604 -0.72134435 0.044973806 -0.73848575 -0.40903813 -0.56753266 -0.9962737 -0.16077858 -0.51750875 0.038108084 0.29041147 -0.6669582 -0.5928111 -0.22225511 0.40997943 -2.450621 -0.14467639 0.9744388 -0.37233725 -0.0807529 -1.3804626 0.2246871 -0.66381574 0.0048894137 0.7116202 0.14801352 0.3971312 1.5376971 0.114766516 -0.4042272 0.16668372 2.210581 -0.4170855 0.099203035 0.061157502 -1.3807576 -0.101397604 -0.9087595 0.08864276 -0.025502041 0.82412755 1.6622132 0.70694983 -0.81927484 -0.36285818 0.09151554 0.24418302 -0.3537309 -0.10061237 0.20859453 -0.60060614 -0.060406335 -1.1357034 0.06302683 0.09974063 0.023458362 0.040794145 -0.43024302 0.341782 -0.14029895 -0.6521772 0.06703898 -0.7685796 -0.4300418 -0.1815519 0.060622677 -0.41493142 -0.38134986 0.62239236 0.30324724 0.2625124 0.63062656 -0.26969287 -0.2793805 -1.2698554 -1.2486137 -0.37741178 -0.9755594 -0.13206598 0.08413729 -0.06847619 -0.55058223 -0.6024028 -0.26516378 1.4542614 -0.6309133 0.3558723 -0.45501158 0.47924602 -3.4843495 -0.103710726 0.76359224 0.73636115 0.305989 0.30760133 -1.4166754 0.83616734 -0.74597067 -1.1122168 0.25497293 0.22022521 -0.27629077 0.31638944 -0.33642867 0.23209298 1.441046 0.104661345 -0.14590925 -0.06514567 -0.26023275 -0.7666612 0.62299687 0.09511913 0.97508603 -0.39161816 -0.5635415 -0.6381388 -0.5092726 1.0129374 0.58538264 -0.96665025 -0.36715224 0.68145454 0.118505076 0.5955132 -0.5243327 -0.45754543 -0.49158332 -0.63353205 -0.2517408 0.1002038 0.5830559 0.71744853 1.0556451 0.9502851 0.81329525 -0.055816405 -0.67121756 -0.30860093 0.31428877 0.20402405 -0.77242184 0.43354583 0.13652879 1.3938234 0.3099266 -0.26810083 -0.3038777 -0.48107028 0.5877189 -0.81508684 -0.7406444 0.8331495 0.17706011 0.90320945 0.05350592 0.07659525 1.0920681 0.031449206 0.8093147 0.51465553 0.6215958 -0.035833277 1.5546265 -0.4504415 0.28603092 0.16891837 0.28400323 0.15754686 -0.18974942 -0.33425385 -2.229812 -0.29277855 -0.86745477 -0.34346303 2.8035285 0.49696034 0.7998835 -1.0252068 0.058818817 0.12263435 -1.1104441 -0.188104 0.3849412 0.5798285 0.22055855 -1.2215302 0.09547928 -0.30336392 -0.3920831 -0.473068 1.3243374 -0.07579799 0.6323583 -0.11840912 0.03196557 0.47655487 -0.236491 -0.27655903 -0.33810574 0.9997241 0.10993352 0.6296617 0.2557341 0.051305898 0.20920287 -0.37712273 0.14330745 -0.2905347 0.43624997 0.1352135 0.0869934 -0.3947434 -0.6837247 -0.2445794 0.15133141 -0.6622796 -0.23345308 -0.071899384 0.45834306 0.6369417 0.12020296 0.07757929 0.05911962 -0.11777206 -0.67381525 0.21848375 -0.6090591 -0.594214 0.17174833 0.5572193 0.098856404 -0.5690993 0.03711604 0.817153 -0.3734434 -0.3698803 -0.19865596 0.885576 0.3464952 0.47196335 0.586454 0.06630211 -0.35648707 0.16071515 -0.034445092 -1.3687922 -0.8742012 0.43746713 -0.15136547 1.0155109 -1.1009718 1.3760326 -0.8796695 0.07191455 0.37305835 0.112112164 -0.4831426 0.6526562 0.1751987 -1.2622674 0.35603884 0.114796065 -0.56221247 -0.87488306 0.15294312 -0.27393392 -0.44029176 0.5831756 0.9535357 -1.9413079 0.33376285 0.29508469 0.9882954 0.44497788 1.0241032 0.32527587 -0.655893 0.1312369 -0.64617234 -3.7544818 -0.93106234 -0.00045167282 0.529342 -0.1557825 -0.07320155 -0.27234697 -0.23768532 0.07401617 -0.34827203 -1.1299635 0.23069313 0.61788934 -0.279978 0.19383225 0.2639283 -0.13113491 0.8380137 -0.19625184 1.6206397 -0.1790772 0.48802233 -0.13314685 0.59862 -0.13567105 0.87080866 -1.2016916 -0.030557841 0.8638046 1.0204086 -0.07512361 -0.14108413 0.016579509 -0.5164608 -0.0761282 0.5260712 0.20229413 0.3109798 0.98699296 -1.410651 0.46675673 1.0845287 -0.58239746 0.18388215 -0.14476995 -0.5077702 -0.26572666 -0.5354717 0.34703496 0.11632128 0.5740137 -0.5364425 0.86274207 -0.8785787 0.08691391 0.066906296 0.5341782 -0.17200169 -0.5126799 0.67744464 -0.38100934 0.83542764 0.8828692 -1.0701344 -0.34568962 -0.22603913 -0.50543904 0.23047301 0.21980585 -0.7798759 0.3878168 0.33888 -0.24902621 0.7311453 -0.03264063 -1.2333398 1.5761371 0.29852492 0.06454138 -0.7132338 -0.9161123 0.28275657 0.13094635 0.1581727 -0.8652586 0.27797619 0.07858269 -0.5391065 0.381267 0.785425 -0.013642415 -0.21330845 -0.64435536 -0.6040293 -0.09534159 -1.3547603 -1.5139648 0.0464478 -0.06855634 2.417964 0.24497357 0.16670439 0.06989166 0.35278535 -0.8059669 0.19497298 -0.26347458 -1.6416765 0.1805243 -0.55196905 -0.26452512 -0.321216 0.2103785 0.25256523 1.0744963 0.13709062 -0.48341975 -0.13613468 -0.8912407 0.11720654 -0.47710806 -0.40924948 -0.4210213 0.6242979 -0.40435413 -1.033067 -0.22257681 0.78865474 0.5496707 -0.04454094 0.18286972 0.8088366 0.20284562 -0.9648219 -0.35858476 -0.040908895 0.4849912 -1.0932394 0.13168259 0.48851123 -0.036143556 -0.6858139 -1.0311055 0.62473476 -0.39188847 0.35187727 0.38709614 -0.1666039 -0.58689314 0.24590038 0.12416194 0.20886943 -0.08166268 1.2427446 -0.6517477 0.21312235 -0.07197909 0.33425826 0.44371167 0.21145886 0.0098103285 0.5086647 -0.5923449 -0.04943338 -1.228068 -0.036612302 0.3180947 -0.4567634 0.3841016 0.19931069 -0.6302965 -0.1134209 -0.5061418 -1.1468661 -0.8032762 -0.38619992 -0.37544435 0.5457875 -0.7385602 0.78278196 0.58325183 -0.21938816 0.6425104 -0.14219481 -0.10086648 0.030127391 -0.62813044 -0.44327185 0.14645147 -0.03190577 0.19064817 1.0902817 -0.9410867 0.7889853 0.2032241 -0.13309854 -0.27581796 0.7938958 0.30340606 0.096824095 -0.35981917 -0.82095295 -0.43900096 -0.040387847 0.40234673 0.36453134 0.56926674 0.38238358 0.5137353 -1.1646614 -0.05211018 -0.45443738 -0.55473053 0.3788275 -0.42276943 -0.09598083 0.58304214 -0.60232556 0.50137746 0.036940154 -0.10781784 0.027704306 -0.1950868 1.4830593 -0.102666646 -0.49027202 -0.19534057 0.3063746 -0.13332935 0.428847 -0.0886644 0.26189956 0.7528852 -0.4715265 -0.9925598 -0.20293003 0.0014239848 -0.6464437 -0.7777591 -0.01265689 -0.14649504 -0.71379405 1.5146028 1.1939023 -0.04125482 -0.08094212 -0.68048424 -0.36540666 -0.34231418 -0.24472407 -0.19070177 -0.5310475 -0.4690882 0.52911615 -0.25774997 -0.04551903 -0.31988233 0.5385832 -0.23085381 -0.2881605 -0.39964983 -0.7321693 -0.67607564 0.9497224 -0.14769375 1.3513467 -0.44763142 0.9937265 0.9504087 -0.22082102 0.12149081 0.8885026 0.13859564 0.6838187 -0.12994266 -0.3139417 -0.760906 -0.22210385 -0.22607951 1.4177244 0.48031384 0.48030567 -0.76550955 0.19900443 -0.16944504 0.35923022 -1.7095512 0.23369786 0.77774644 0.41209006 -0.6164282 -0.5294936 0.68536425 -0.5278979 0.27282506 -0.5296487 0.61047494 0.0157037 -1.6524547 0.17491642 0.06696936 0.4209026 -1.0695869 0.84768134 -0.8239622 0.19821787 0.56828016 0.17109051 0.29838172 0.21382749 -0.1849882 -0.62246853 -1.2279149 0.31458363 0.7523015 0.24823222 -0.61237496 0.4458501 0.39364567 -0.13378465 0.3552563 -1.5820979 -0.2467041 -0.3173314 0.5794156 -0.5643388 0.23950207 -0.34767625 -0.09837232 -0.4900214 -1.2193516 -0.14554095 -0.0003324598 -0.32235906 -2.1575458 -0.108678594 0.39461192 0.4043494 -0.009261668 1.2698919 -0.2984416 0.3215884 0.18616587 -0.26387525 0.86323583 0.4519744 0.38161647 -0.2105785 0.07411085 0.54745 1.6118518 -0.24486336 0.8943367 3.1131413 -0.056532793 1.0654619 0.6863796 -0.02216646 0.3298118 -1.4324262 -0.53393674 0.35192984 -0.51156455 -0.16766943 -0.73454994 -0.57379967 -0.4031723 -0.6189484 0.18152979 1.4534259 0.54378057 0.06546457 -0.25458574 -0.17426333 -0.11553232 -0.26618326 -0.03762965 0.0640447 -0.37968263 0.2778991 -0.16661641 0.75412226 0.8610256 -0.2859593 -0.21880555
早稻播种育秧 -0.01276882 0.15525234 -0.9040604 -0.81063455 1.2942749 -0.3181213 -0.049644146 0.24690132 -0.09690462 -0.25711828 0.7660171 0.1025891 0.33121094 -0.5243545 1.8205541 -0.10770625 1.2149475 -0.9315423 -0.5528261 0.46440363 0.23743802 -1.0885465 0.28743106 -0.92567486 -0.2664886 -0.5073772 -0.15736882 0.1611396 0.26360247 0.017235741 0.5156504 -0.9147304 -0.029737629 0.45327777 0.16104615 -0.07605483 0.068369105 0.7700931 0.923481 0.23604557 0.6875076 -0.90029854 0.0037611276 1.279957 -0.2095109 0.60632074 0.2956943 0.4713582 -0.44518608 0.35952002 -0.2329272 6.572825 1.2801607 0.7881007 -0.66895306 0.3191731 1.0946884 -0.060562477 0.40374538 0.11259004 0.34439158 -0.9827608 0.87244487 -0.38624537 -0.24424714 -0.82547164 0.8103636 -0.19942124 -0.8762561 -0.1555697 0.042030796 0.6744438 1.3543978 -0.48956373 -0.7523479 0.15460941 0.70292574 0.8716125 -0.15761349 1.172616 -0.31520176 -0.6624883 -0.1719158 -0.3489627 -1.1306286 -0.38937566 0.47407195 -3.6548188 0.27697206 0.43358856 -0.24234402 -0.8639493 -0.46294123 0.4511276 0.7297385 -0.6468726 -0.5868975 -0.9885627 1.3312988 -1.6034417 -0.98855835 1.7277383 0.4442129 0.22387373 -2.8992887 0.04975523 -0.7436803 -0.9090858 -0.34323436 -0.22546522 -0.9973428 0.03628272 -0.43011305 -0.11633994 -1.2293324 -0.022661582 -1.6054177 -0.3632376 -3.294368 -0.83883333 0.6879799 0.7319619 -0.07811722 0.37290505 1.4712173 -0.6203573 0.12198581 0.026872009 -0.5327815 -0.5518223 0.69110966 -0.3159924 -0.2670039 0.4726298 2.559191 -0.5739454 0.43926817 -0.11279094 -1.1071025 0.64788246 -0.4325519 1.2671126 -0.21828991 0.38567954 1.8767173 0.44981056 0.5171546 -0.15425035 -0.7277712 1.2060758 -0.5715825 -0.63568646 0.619802 -1.7437989 0.40748125 -0.98089457 -0.060734436 -0.492921 -0.07933258 -0.59058094 0.04120785 -0.97937477 0.36434075 -0.7755291 -0.28850025 -1.3768961 -0.19698384 -0.789691 0.3893711 0.93937814 -0.07517987 2.2360773 0.3605002 -0.5730436 -0.0864986 -0.84361005 0.12941955 -1.3319906 -1.3728791 -1.6057991 -0.59913766 0.10304063 -0.50435954 0.29683286 -0.6248175 -1.7765831 0.11533823 1.1852652 -0.36397678 0.6237517 -0.31697953 1.2537353 -4.0046377 0.49025923 -0.009850062 -0.9263545 0.16850579 -0.027572557 -1.1435814 0.47332153 -0.29012427 -1.1013042 -0.065156594 0.15601471 -0.80432844 0.07400732 -0.0047911257 -0.8750047 0.8106616 1.0522296 0.19799078 1.1010916 -0.34021142 -0.6986972 -0.212612 -0.10028884 1.1578387 -1.2925665 -0.5725097 -1.0423169 -0.25186363 0.49281168 0.11216991 0.84329367 0.3695364 -0.10689656 -0.7235842 0.042212665 -0.23097941 -0.5999309 -0.4616064 -1.3075418 -0.6890502 0.5317326 -0.020245343 -0.51370394 0.24984843 1.992961 1.1452682 -0.442175 0.8306816 -0.053146824 -0.42069003 0.33242315 -0.3885832 0.5710348 0.054905303 1.7623738 -0.69645065 -0.21327633 0.14092675 -0.28120023 0.45743692 -0.27578577 -1.3792121 0.65734637 0.5344152 1.3326176 -0.20629156 -0.3930489 0.28140545 0.5170758 1.250584 0.7355698 0.17449637 0.18964066 1.3509992 -0.36043775 0.8427818 0.7212233 -0.2390685 1.1550909 0.5014073 -0.22756052 -1.7765155 0.053128965 -0.7804015 -0.31212124 2.063535 0.86943734 0.780856 -0.3042371 -0.09838271 -0.3736913 -0.5978902 0.3427924 -0.3136205 0.44746742 0.029165983 -0.12836102 -0.16753899 0.993161 -0.3992494 0.63445514 1.2391769 -0.37416953 -0.8191701 0.81638986 0.6821651 -0.037619293 -0.20420751 -0.26371932 -1.012004 1.3184654 0.23534748 0.20998086 0.3097207 -0.9805814 -0.13769065 -0.90967625 -0.24349049 -0.43090975 0.62012124 -0.23740304 -0.4293311 0.12809516 -0.38286698 0.00200475 0.10791432 0.15617202 -0.5873106 0.43224257 0.9000604 0.84684 0.17085703 0.9965964 0.4629196 -1.0045195 -1.1397272 -0.5713555 0.08351226 -0.48231095 0.58835185 0.34034115 0.13651401 -0.3236981 -0.22558135 0.3379159 -0.72103554 -0.57296205 0.6630314 0.22346133 1.4812763 -0.32097644 -0.3618039 0.11000404 -0.43646836 -0.21883553 -0.7923924 -0.8506095 -1.0222125 0.53884995 -0.48191875 0.32731515 -0.9234967 0.557544 0.47360724 -0.21048975 0.28850517 0.21416005 -0.597566 -0.33632687 0.51775205 -1.0224984 0.4943926 0.05753563 -0.39796618 -0.023786716 -0.38645327 -0.51248825 -0.12320225 0.56642216 0.9738132 -2.4235556 -0.1688194 0.8635627 0.18357423 0.79162234 1.0162299 -1.6916916 0.17841804 -0.22639088 0.3787207 -3.9030068 -0.4741476 0.18806046 0.30408898 -0.7840242 0.11445478 -0.51346487 0.28452396 0.3839602 -0.7314422 -0.98103946 0.9659872 1.1753693 1.1010451 0.40888825 0.821402 -0.48478174 0.15534073 0.15759915 1.2711974 0.23478839 0.087419495 -1.4784157 0.40293142 0.37211797 0.1154187 -0.34498513 -0.035765983 -0.46151328 1.1015313 0.13455638 -0.6183187 0.5873123 0.32582918 -0.33848897 0.6865903 -0.6647289 0.5712075 1.3946861 -1.0402243 1.1066009 2.2319036 0.052254185 0.26167396 0.4634685 -1.2975476 0.561921 -0.18770948 0.28333834 -0.066231415 0.997275 -0.36809275 0.5225313 -1.1784893 0.2895045 0.021364488 0.008564405 0.32422742 -0.39674675 -0.84748966 -0.13226324 0.7074169 1.9612566 -0.14878237 -0.5668136 -0.48676938 -0.44333854 0.016361281 0.020656973 0.251348 0.4325 0.38053036 -0.44250748 0.33720523 -0.5807564 -1.5548232 0.27101484 0.672216 0.060123228 1.0984112 -0.43239874 0.21683285 0.90221685 0.58856964 -1.3276234 0.46433353 0.16552213 0.13746907 -0.18521148 0.533376 -0.03770359 -0.41247255 -0.17352697 -0.31080985 0.6359178 -1.0683852 -2.0416307 0.45691228 0.8048492 2.7520583 -0.5569134 0.28224927 0.10495472 -1.0347143 0.79299253 -0.24513534 -0.46197033 -0.38288042 -0.05644877 -0.18527803 -0.35025853 -0.16637056 -0.13823774 0.47377968 -0.17347577 -0.23929043 0.1749214 -0.52850074 0.32544026 0.50110596 -0.21018928 -0.6013065 -0.54311466 0.20388137 -0.33646464 0.08447313 0.31585917 1.4315555 0.12125942 0.33909586 -0.7205038 1.3812718 -0.7772255 -1.5130131 -0.35241348 0.7648155 0.068191364 -1.2934041 -0.118149124 -0.04183995 0.24463303 -0.6987301 -0.64551914 -0.06590866 -0.2524106 0.6081321 -0.07672724 0.24281214 -0.04208974 -0.10219276 0.7224952 0.2208391 -0.27825347 1.3600312 -1.0774679 -0.107161246 -0.94891495 0.22207543 -0.028784908 -0.42932534 -0.57319885 -0.6270104 0.45871097 -0.34110227 -0.6978149 0.08579718 0.59810376 -0.42142642 1.2129653 -0.25743222 0.5981663 -0.95209295 1.2844038 0.24014404 -0.38282886 -0.49989548 -0.69540685 0.031350166 -0.5044557 0.18570311 0.34436086 -0.58612275 0.85994494 -0.13567764 -0.22837797 -0.2697265 -1.2363977 0.31748438 -0.7334749 0.4122274 -0.16225423 1.9427676 -0.5698557 0.2586038 0.8655002 0.59195346 0.5313971 1.3352365 0.2703977 -0.039566845 -0.41599953 -0.29805544 0.20183122 -1.0558233 -0.90276176 0.27561277 0.85874224 0.65653163 0.5892048 -1.5390272 1.0784984 0.509284 0.41276526 0.90013677 -0.41446137 -0.38584948 0.65703416 -0.7201627 -0.336756 0.90279907 0.745884 -0.14681098 0.31665725 0.87028146 0.5058145 0.9561153 0.57237923 -0.36208662 -0.42868012 0.6948573 0.20422149 0.04421754 0.57709706 -0.19418496 -0.116534136 0.23956758 -0.80570304 -0.8436822 -0.32177275 -0.2764534 -0.28095913 1.104337 0.59914213 0.74774295 -0.8351464 -0.1916281 -0.03625846 -0.009037569 -0.9585993 -0.19615898 -0.773568 -0.12098144 -0.8876603 0.11757968 -0.15191889 -0.11493409 -0.55684197 0.15901172 -0.5137284 -0.57003516 -0.06746236 -0.32192278 -1.0401313 0.16224343 -0.3981458 0.5631076 -0.045587063 0.7307975 1.0771462 -0.7295594 1.2457693 1.2477775 -1.0472986 0.5630171 -0.7705965 0.7153071 -0.79700536 -0.17404832 0.13436234 1.84368 0.3700531 0.18512847 -0.39836317 0.35643256 0.94431746 -0.25281727 -0.37699643 1.2308093 0.02605483 -0.6976948 -0.06841956 -0.5286405 0.99443567 -0.6702925 0.27604064 -1.0257225 -0.60436416 0.3005998 -0.7219153 0.48072413 0.2798865 0.57793474 -1.1091611 0.024702827 -2.0456612 0.9736385 0.04702336 0.15041313 1.1278633 0.28446674 -0.016910858 -0.7890752 -1.6453084 0.19286597 0.8150309 0.7855552 -0.42028502 0.32266372 0.049754687 -0.71269625 -0.06263077 -0.77787054 0.1294479 0.027941763 -0.6041088 -0.47861674 1.0209254 -0.5579412 -0.34470826 -0.4255209 -1.004259 -0.028258746 0.68579286 -1.1090778 -2.062755 0.2187829 0.49432325 0.58471286 -0.36408845 0.9835254 -0.61042464 0.9495596 -0.2984656 -1.0922319 1.1444769 -0.30147728 -0.23162419 0.79303706 0.42524177 -1.1513894 1.7950395 -0.13169977 1.0057533 2.6913817 0.38995728 -0.059829623 0.084313914 -0.036548525 0.039430335 -1.4662106 0.1371431 -0.099936396 -0.012656122 -0.34224114 -0.15918213 1.2811742 -0.34108853 -1.0387895 0.5277512 0.7778001 -0.5975698 -0.05855222 -0.91838795 -1.5529675 -0.6206555 -0.018027306 1.0543854 0.7598185 0.14139524 -0.74372745 -0.1801998 0.369586 0.367464 -0.18941996 -0.1464044
培育壮苗 -1.0199323 0.23537852 -0.8092424 -0.014014438 0.27187407 -0.51588416 -0.36171454 0.027731545 -0.18908736 0.0061600385 0.040216874 0.31639034 0.6446566 -0.66211826 2.0614946 -0.67118734 0.48838532 -1.7217448 -0.23874213 0.7412385 -0.097723804 -0.83032954 0.39755872 -0.69710165 0.650102 0.12807459 -0.10499027 -0.78972685 0.16058283 0.79414517 0.43482876 -1.1985298 -0.13045126 0.20815763 0.22714102 0.36279517 0.32582366 0.20864853 0.13039672 0.7649682 0.2952856 -1.0405364 -0.29883578 1.1835446 -0.06994096 0.11548103 0.52434313 0.23124862 -0.47447023 0.033735022 -0.28173828 9.062895 1.8824172 0.29233187 -0.47376633 0.863808 1.0408547 0.12786923 0.0027423277 -0.62001485 0.026876379 -1.2715447 0.9726174 0.36105633 0.2213617 -0.052347105 0.67627037 -0.29091752 -1.5103191 -0.20035364 -0.2997432 -0.043668136 1.6025331 0.163373 -0.712801 0.73679835 -0.1824184 0.35077184 -0.85668075 1.2699182 0.7419216 -0.068110645 -0.60473883 0.13789594 -0.46671885 -0.12925503 0.027658105 -3.3873904 -0.2875849 0.49776715 -0.39556235 -0.85754204 0.5410775 0.8967486 0.20676729 0.2156258 -0.22525185 -0.017497376 0.5489973 -2.1959522 -0.4691286 1.2553748 0.47187382 -0.29027027 -2.3095758 0.63094 -0.32463935 -0.103549525 -0.14888284 -0.5578219 -0.31870562 -0.4222539 0.071146004 0.33808625 -0.84364015 -0.5078163 -0.3600191 0.38601473 -3.033108 0.18922894 1.0104628 0.1059086 -0.7421593 -1.104908 1.1073684 -1.6273172 -0.07379037 0.12120329 -0.32907718 0.2328608 0.6983767 -0.09155084 -0.6288824 0.020842135 2.9963708 -0.3793035 0.026804233 0.12874243 -1.1422188 0.4018196 -0.7898129 0.4405924 -0.58108205 0.579753 2.2470582 0.6162335 0.27737036 -0.5616668 -0.192723 0.66762006 -0.195777 -0.15103084 0.5604437 -1.1233639 -0.0023441017 -1.4195697 -0.14605278 -0.17403656 -0.37469956 -0.32734424 -0.26110098 0.069740005 0.0022854712 -0.52966535 -0.14044118 -0.45875502 -0.124557406 -0.49797347 0.7207985 0.32209036 0.30990684 1.9632883 0.4362439 0.19077076 0.6545217 -0.53814113 0.18263172 -1.2229966 -0.8851159 -0.09632325 -1.3244563 -0.23310433 0.4608715 -0.008428417 -0.3218611 -0.73295844 0.6063589 1.2417351 -0.19495481 0.26774517 -1.4380465 1.1046823 -3.031492 0.025469407 -0.36902004 -0.10001365 0.020899177 -0.26503435 -0.9590055 0.21287134 -0.27447754 -1.7024468 0.26736468 -0.2833102 -0.61379606 -0.21208437 0.18638027 -0.59627223 1.0461209 0.54838973 0.31341904 0.6845237 -0.36963147 -1.1876599 0.59265053 0.23784654 1.6893895 -0.45494163 -0.29598284 -0.79235446 -0.5268311 0.72911835 0.21796569 -0.437318 0.17206645 0.4519845 -0.9519701 0.72546446 -0.36079758 -0.43437445 -0.36098355 -0.64515096 0.17918715 0.39564657 -0.13681494 0.27536497 0.45649764 1.7079009 0.51982963 -0.010100536 0.4208956 -0.032857984 -0.77650464 0.08824691 -0.7238438 0.36705464 -0.090369925 1.643948 -0.40189907 0.31833515 -0.53626406 -0.4547689 0.30008945 -0.57180035 -1.1733651 1.2354788 0.81551486 0.7754486 -0.7188634 0.12746502 1.2588404 -0.16349326 0.61846286 0.20476392 0.5091311 0.14390613 1.8602201 -0.43064466 0.47109967 0.093247026 0.35160607 0.64373153 0.42769206 -0.2861751 -1.8397353 -0.35677603 -1.1305997 0.5733442 2.3424473 0.6038725 0.4146409 -0.17517677 -0.25599232 -0.23561507 -1.3178453 0.54726005 -0.7270459 -0.26431257 0.053070694 -0.8225577 -0.13585673 0.24550901 -0.9214979 0.6656173 1.5641477 -0.2641285 0.18920109 0.31414384 0.58724886 0.24247229 -0.28243026 -0.019500822 -1.3764718 0.8960005 -0.081290625 0.6254499 -0.14106351 -0.51538324 -0.18485676 -0.8831612 -0.40186337 -0.16498035 0.7573148 0.44898084 -0.14234364 -0.52661914 -0.7315821 -0.64965266 0.35864976 -1.0311835 0.058936305 0.06186389 0.49295044 1.0639458 0.11935705 -0.29149592 0.56293637 -1.0447817 -0.69889224 0.5298392 0.48018235 -0.08631997 0.39931458 0.45850143 0.031635158 -0.10428488 -0.45643052 0.33309284 -0.77531064 -1.2636471 -0.7178929 0.6484782 0.73771644 -0.08727005 -0.71940625 0.09926166 -0.30819064 -0.22769594 0.021030746 -0.09110534 -1.3271127 0.8222222 -0.042181954 0.694552 -1.761504 1.4562551 0.31253445 0.47684345 0.47575796 0.6237834 -0.3181346 0.48883885 0.14598738 -1.396448 0.6489365 -0.0480024 -0.39897734 -0.17847101 0.35215816 -0.33760956 0.05717407 0.62116635 1.1198984 -2.937358 0.33184683 0.9329068 0.15947765 0.08292671 0.31745693 -0.5225066 -0.21483424 -0.18909128 0.24211612 -4.0381494 -0.4227142 0.26642096 0.37057427 -0.35967785 0.22894052 -0.118922874 -0.27235818 0.6031241 -0.58260715 -1.4878459 0.48979804 0.51254445 0.50783277 0.035137467 0.19154257 -0.35119843 1.0709653 -0.068896204 1.3181367 0.03313016 0.19827679 -1.5561597 0.4519486 0.038445164 -0.01077389 -0.5863136 -0.035644025 0.32345086 1.4732221 -0.42160323 -0.14152837 0.11492933 -0.18610743 -0.8854767 0.16354741 -0.4879625 0.27053174 0.98270917 -1.5993143 0.37068862 1.4316263 -0.08877383 0.022676049 -0.14502347 -0.48517728 0.0027495325 -0.5032493 0.13449512 0.15722792 1.1787814 0.0074017644 1.1519241 -0.57177514 0.23760456 -0.20134303 -0.3747659 -0.18597901 -0.47496077 -0.2002455 -0.3734308 1.23176 1.6149487 0.4792729 -0.18756393 0.013618931 -0.5795456 0.44319925 0.07609348 -0.12339447 0.5031853 0.16505769 -0.12328668 -0.09910461 -0.030494615 -1.5087276 0.93781555 -0.106731996 0.34126347 0.40195292 -0.0042100474 0.35912672 0.39489782 -0.007434644 -1.569099 0.3639248 0.6448891 -0.078782335 0.16480504 0.60876375 -0.030743286 -0.78412485 0.34288216 -0.33200476 0.47334403 -1.2118294 -1.5139025 0.017859012 -0.171448 2.2345953 0.44104597 0.27912706 0.47434944 -0.3850452 0.48329556 0.52371514 -0.1418502 -1.3846197 0.286764 -0.35600302 -0.20150374 -0.27775952 -0.54634726 0.39499843 0.21088432 -0.16497958 0.17666653 -0.72024846 0.001982972 0.084377915 -0.77534777 0.14049578 0.05735372 0.67535645 -0.5534199 0.13910662 -0.31934607 1.0496315 0.077507585 -0.23293784 -0.111869425 1.9557317 0.11316945 -0.65045947 0.014466837 0.7749063 0.30193567 -1.7200286 -0.12305001 0.50666624 0.2819718 -0.6166489 -0.89344335 0.018843442 -0.39212528 0.8448684 -0.34220773 -0.013351906 -0.39216483 -0.18843374 0.36391348 0.18620321 -0.68647623 1.8427635 -1.1843783 0.4207602 -0.15362298 0.32334858 0.18346973 -0.37765306 0.21097137 -0.44282076 -0.3393421 -0.35796756 -0.38900736 -0.028211206 1.0316665 -0.50903714 0.6812785 -0.007873982 -0.053511262 -0.1890254 0.08868341 -0.72735685 -0.3157561 -0.115256034 -0.75524694 0.10227536 -0.12418567 -0.052592263 0.20897736 -0.7258967 0.5836258 -0.16041985 -0.27944604 -0.17526919 -1.3233182 -0.21902835 -0.052600347 0.39492857 -0.19974422 1.2409337 -0.7162271 -0.2532732 0.17448337 -0.32581 -0.24643013 0.86989206 -0.6324978 -0.1470695 -0.19605118 -0.2152212 -0.49828634 -0.7954276 0.35716176 -0.48168227 0.44273818 0.21793447 0.41698417 -1.4184961 0.6469731 0.13935007 -0.035539284 1.3402983 -0.065195754 -1.022796 1.073659 -0.7541587 -0.006424926 0.18544766 0.73700464 0.6683692 0.58718115 1.1833408 0.030288652 0.23099983 0.5643134 -0.15241566 -0.5817365 0.3539819 0.12622592 -0.18257205 0.4770904 0.32508376 -0.27434868 -0.088852994 0.18842886 -0.6956844 -0.32656968 -0.98369753 -0.27050844 1.0010492 0.78839314 0.7960268 -1.5690024 -0.24963725 0.3537992 -0.05461798 -0.30275226 -0.20103069 -0.5203998 -0.034933973 -0.46558148 0.16539007 -0.5684724 -0.5389346 -0.7627421 -0.2187261 -0.20057839 -0.6495198 -0.089961186 -0.52530587 -1.1470577 0.7418101 0.18087251 0.86813396 -0.28640112 0.5944517 0.8603997 0.3113392 0.91814137 1.5328484 -1.2174293 0.5889686 -0.73659146 0.44322863 -0.4187777 0.08514149 0.16013768 1.673679 0.8565522 0.33544004 -0.109467804 -0.21337466 0.3069383 0.35910612 -1.0797237 0.39733684 -0.40277433 -0.012626965 -0.44106382 -0.69578946 0.764128 -0.70244503 0.17364195 -1.028826 0.07335972 0.23678787 -0.6919956 -0.24515522 0.25176537 -0.09719828 -0.36735028 0.5489702 -1.0063916 0.7063584 -0.018855482 0.15393242 1.2049172 0.25360465 -0.26897123 -0.31417295 -1.8295988 0.20748195 0.29466075 0.43985426 -0.76801807 -0.0068696886 -0.110271275 -0.326869 -0.51776284 -0.5457765 0.23784024 -0.1892618 -0.25298584 -0.45636046 0.9299376 -0.32314402 -0.7006705 -0.20538792 -1.0445902 -0.5168911 -0.11328828 -0.22823665 -2.2242172 0.42162105 0.6868256 0.60273445 -0.41117325 1.2579149 -0.37397295 0.9789758 -0.03972488 -0.12511602 0.61454296 0.050454468 0.3245206 0.28246424 -0.032791525 -0.6895436 1.8840436 0.19214949 0.9535006 2.4090655 0.037971735 0.07911677 0.6143855 0.43667755 0.49421257 -2.4615178 -0.36028072 0.16552162 0.20035194 0.441325 -0.29971054 -0.3366934 -0.30333322 -0.9935674 0.74389374 0.8393612 -0.35518885 0.30671 0.02436452 -1.006993 -0.46117204 -0.19160528 0.28598514 0.02852854 -0.7721218 -0.3523575 -0.22445661 0.35021663 0.7269406 -0.6088165 -0.20731911
适时灌溉 0.01579877 0.7683525 -1.096644 -0.23694699 0.43982705 -0.49989218 -0.40109682 -0.5631148 -0.47980037 0.68980443 -0.10636124 -0.27696952 0.13125698 -0.28722337 2.2224786 0.50461906 0.7853841 -2.1048436 -0.08250193 0.83360285 -0.8028969 -0.4950991 0.3240066 -0.4743411 -0.44317153 0.169159 -0.16874823 -0.49925342 -0.16707927 0.4499091 0.06535582 -0.5574338 0.20753413 0.6795312 0.52799857 0.60654104 -0.31868553 -0.19042705 0.1905236 0.26014268 0.10482643 -0.9702555 0.10879621 1.9769664 0.7116238 -0.021502517 0.12093063 0.48743033 -1.1204671 0.49393535 0.21664764 7.524161 1.688383 0.5802194 -1.0427873 -0.12908848 0.5945405 0.087877184 0.21757737 -0.26962474 0.15562578 -1.2307887 0.9809533 0.55932117 0.13446742 -0.32118264 -0.09098177 -0.75024164 -1.2071129 0.06717053 0.42388004 0.32803017 1.3904934 -0.057092614 -1.4180952 0.2822142 -0.30731708 0.09475802 -0.89836764 2.0786843 0.58486575 -0.4883601 0.16321033 -0.040956017 -0.08912039 -1.2642659 -0.24763402 -3.5737412 -0.32673192 0.8523942 -0.05703716 -1.0103104 -0.12879308 0.22398327 0.96682906 -0.5702456 0.2684989 -1.1468614 0.0050063245 -2.5502017 -0.5801728 2.0205498 0.7693957 0.21316317 -1.8541012 0.46812862 0.10024798 -0.47540647 -0.55926126 -0.9051642 -0.14439493 0.010863662 0.2753962 0.09253023 -0.6179477 -1.1267935 -0.41163462 0.2098169 -3.4549127 -0.41151142 0.8800696 -0.683845 -0.34152973 -0.31331015 1.285894 -0.66760385 0.25104344 0.70537496 -0.056891263 -0.34423432 0.891424 0.11046596 0.88471895 0.522632 2.9186902 -0.07763528 0.26068932 0.77478725 -1.9974037 0.5855578 -1.8051827 0.29133075 -0.12726797 0.97642756 2.0581992 0.5434155 0.1346628 -0.8781872 0.4806151 0.9732587 0.3145581 0.19737782 0.5463727 -0.7150677 -0.60946697 -0.8166412 0.017850399 -0.42586848 0.4530351 -0.40983865 -0.08058251 -0.7533885 0.32988524 -0.33326602 0.38350075 -1.1871367 -0.12844063 -0.065051 0.7289022 -0.08886257 0.50018936 1.4509261 0.068714574 -0.14012453 0.890872 -0.18761367 -0.38181013 -1.4989941 -0.9397848 -1.0664034 -1.5284399 0.15609753 -0.13863093 0.19513592 -1.0032845 -0.70645654 0.026385725 0.8131578 -0.2626896 0.062434256 -0.8326466 0.62896645 -3.5387728 0.2158268 0.4184906 -0.44269583 -0.51602894 -0.19153965 -0.9095567 1.03031 -0.3181803 -1.0356807 0.35285142 0.42667845 -0.08565176 -0.20276453 -0.9474438 -0.48602352 1.3046613 0.9139667 0.3561526 0.16910693 -0.018992648 -0.64177704 0.69226325 0.038677886 1.7661161 -0.6912808 -0.6984962 -0.4031403 -0.8707979 0.8532062 0.3047113 -0.6392015 0.65571946 1.0074505 -0.51471674 1.198466 -0.4040076 -0.30429184 0.061602682 -0.61053073 -0.32575592 0.1384029 0.70287323 0.5179598 1.3629907 1.258576 1.0620819 -0.44590425 -0.45284182 0.47420928 -0.5502342 0.5250435 -0.85660785 0.13536768 0.58289737 1.8651772 0.2748613 -0.090613574 -0.12870544 -0.48976183 0.80864346 -1.010528 -0.83859307 1.6366749 1.0289936 0.34032854 -0.87395 -0.26404482 0.90731645 0.034222603 0.5915815 0.23701578 0.28529382 -0.085196465 1.7971156 -0.7142656 0.8398978 -0.22720657 0.33090204 0.19674663 -0.30491528 -0.48525214 -2.1349776 -0.3841258 -1.1712449 0.043872073 3.0071719 -0.01876897 0.28051314 -0.4529589 0.2858001 -0.39925385 -0.69635886 -0.10455305 -0.81946355 0.9564515 -0.008301675 -0.69450986 -0.49458688 -0.17109147 -0.030547787 0.021474585 1.5208962 0.28061056 0.03215657 0.6093993 0.91408795 -0.17512637 -0.42942938 -0.5705249 -0.35379538 1.5352234 0.071829535 -0.0026880659 0.18238133 0.03886909 -0.33247602 -0.7123511 -0.5996963 0.014479227 0.40632117 -0.116043895 0.08638507 -0.3930175 -0.23300944 -0.61057615 0.22788693 -0.014444247 0.048118494 0.80213267 0.7577502 0.9807205 -0.24998237 0.68718994 0.86669654 -0.3616205 -0.98520494 0.06313236 0.15049078 0.4457292 0.15231684 0.7670573 -0.2612231 0.2049199 -0.36267173 0.6783087 -0.8088932 -0.4134592 -0.33551928 -0.16318123 1.6531264 0.3520258 0.04362928 0.22657767 -0.3707099 0.40420485 -0.33990055 -0.27931893 -1.6168332 0.92187274 -0.5151997 0.13832001 -1.1325256 0.6640893 -0.23891559 -0.6244656 0.006537251 -0.104488626 -0.60907435 0.32045797 0.14493676 -1.3296791 0.5238569 0.034997076 -0.80856085 -0.9246 -0.37431642 -0.29006037 -0.20859215 0.20201248 0.90804744 -2.302951 0.22975706 0.94699144 -0.10474854 0.37303424 -0.07952874 -0.42430988 -0.9176787 0.057978645 0.4017854 -4.1359496 -0.8907655 0.09565898 0.1721697 -0.3100175 0.37820733 -0.2421611 0.6250533 0.63212806 -0.5701009 -1.8026282 0.46029642 0.20724174 0.98378974 -0.033644244 0.6220474 -0.1186723 0.4793753 0.30347213 1.1487032 -0.083880335 0.7263918 -0.3443333 0.46431595 0.3227912 0.62562734 -0.6455944 -0.7018106 0.52885085 1.1411104 0.6083164 0.1119351 0.6216211 -0.24105331 -0.053870432 0.37829676 -0.77991533 0.03752377 0.9743732 -1.7922772 0.7410747 1.7170573 0.079464376 0.21847029 -0.14243111 -0.78101754 -0.101397395 -1.0560358 0.4768593 -0.10165715 0.1801712 0.2878759 0.7059318 0.15495853 0.6459992 -0.30356503 -0.35828432 -0.4876631 -1.0084792 -0.14766333 -0.64660794 0.9136107 1.6565315 0.24472247 -0.20867774 -0.24269162 -0.9389776 0.451008 -0.37068963 -0.6304744 0.88535416 0.8504307 0.14225179 0.092807785 0.057594158 -1.4751058 0.9656993 0.28699315 -0.054311864 0.08541081 -0.21008462 0.19070733 -0.20468676 0.05265384 -0.8351911 0.8725858 0.29975384 -0.08359137 0.23027326 0.95202273 0.19575426 -0.07724022 0.23928171 0.020654388 0.5147102 -1.3752449 -1.1788588 -0.20510766 -0.22202742 2.71622 0.2871032 0.12806526 0.07551159 -0.19128165 -0.09452745 0.27891546 -0.7543018 -0.3552355 0.27726728 -0.059718937 0.4180895 -0.4753031 -0.52998126 0.109783456 0.012995243 -0.588472 0.067271225 -1.0727314 -0.565319 0.17874014 0.6345 -0.70644677 -0.07923847 0.1989111 -0.4816197 0.054148167 -0.1965743 0.63079154 0.10563092 0.37635866 -0.12742577 1.541421 -0.10546394 -0.88794786 -0.173416 0.1308386 0.16049199 -1.1635498 0.5439255 0.7358052 -0.39145905 -0.77117825 -0.5077262 0.31449294 -0.919994 0.09672682 -0.120578945 -0.082589105 -0.75822824 -0.13277934 0.2999689 -0.008974835 0.06473129 1.6147041 -0.98806334 0.96754783 -0.5426421 0.23252085 0.6044733 -0.49304777 -0.02175939 -0.34807333 -0.9482796 0.33579916 -0.63955045 -0.08556719 0.48843256 -0.0035602003 0.52616495 0.09560467 -0.23149979 -0.43494672 0.1979812 -0.14979637 -0.05531743 -0.9279534 -0.2740018 -0.2866494 -0.15473223 0.090598896 0.6923727 -0.8116387 0.6915424 -0.13675772 0.34609705 -0.5091946 -1.0888913 -0.14512128 0.3015514 -0.08577523 -0.29710573 1.5921364 -1.046192 0.8186562 0.41050023 -0.090275005 -0.4188871 0.9617558 -0.18531244 -0.29251242 -0.50884247 -0.03852935 0.23397622 -0.6833004 -0.060564987 -0.17950635 0.6136793 0.7769846 -0.29058376 -1.4476737 0.098024204 -0.21404251 0.09763636 1.0751088 -1.1207325 -0.89436513 0.84915453 -0.5871737 0.20632939 0.5395678 0.3663975 -0.26016113 -0.29963297 1.4560919 -0.4577222 0.09332645 -0.09866861 -0.423341 -0.2410427 0.48871943 -0.74562 -0.22161599 0.4943606 0.24101613 -1.0982238 -0.5569092 0.049954586 -1.0924522 -0.47432518 -0.18362883 0.018743759 -0.10607526 1.4952712 0.6985363 -0.113848835 -0.36501855 -0.2381387 -0.46969637 -0.41798773 0.20527215 -0.61543334 -0.144779 -0.401861 0.041679002 -0.05908306 -0.31574374 -0.44349542 0.47589138 -0.8220159 -1.0283129 -0.4738867 -0.31303135 -0.8227122 0.042742223 0.1371585 1.2242708 0.71700233 1.1166791 0.6939826 0.70126265 0.93397677 0.08724349 -0.3439892 0.39572126 0.040339947 -0.18736634 -0.63297725 -0.60184956 0.094249904 1.4513502 0.09937276 0.9240036 -0.37719715 0.31008995 0.6462427 0.06661847 -1.1319089 0.5739081 -0.120665595 0.15902215 -0.04801756 -0.406782 0.25759277 -0.80526435 -0.12113423 -0.8648532 0.34231946 0.21433891 -1.3262858 -0.20529214 -0.03647633 0.259332 -1.0894268 0.41088286 -0.96638334 0.76161665 0.44131726 -0.6157937 1.4255038 -0.24645075 -0.22162116 -0.7434348 -0.09765184 0.12681541 -0.0024339035 -0.28344765 -0.520582 0.56527925 -0.09064284 -0.6980019 -0.15991463 -0.5544683 -0.2823518 -0.11474651 0.09550944 0.55682564 1.3184711 0.6489769 -0.8963408 -0.7738832 -1.4294392 -0.031227464 0.331098 -0.1750806 -2.2344773 0.07318632 0.7843698 0.5542855 -0.22157712 1.0472206 -0.12989825 1.2672544 0.38004965 0.2785152 0.5127716 0.50208455 -0.42955238 0.13104543 -0.36779532 -0.62029266 1.084672 0.11912411 1.1751006 4.0077386 0.14125702 0.4206997 0.60299593 0.21242052 0.07930775 -2.1518755 -0.039815694 0.17498557 0.3840117 -0.31441486 0.066946715 0.23795998 -0.7454236 -0.94035226 -0.080589324 1.1356481 -0.6325006 0.44574636 -0.6274152 -0.84968054 -0.73489314 -0.9484416 0.5215432 -0.5636548 -0.25474882 -0.3077951 -0.09443842 0.69619113 0.9612187 -0.8215388 -0.55507666
